{"parameters/mlp_extractor.policy_net.0.weight": {"_type": "histogram", "values": [1.0, 0.0, 0.0, 0.0, 0.0, 0.0, 3.0, 0.0, 1.0, 4.0, 3.0, 1.0, 3.0, 1.0, 3.0, 2.0, 3.0, 1.0, 11.0, 2.0, 2.0, 3.0, 5.0, 3.0, 3.0, 8.0, 8.0, 11.0, 10.0, 5.0, 8.0, 9.0, 7.0, 7.0, 8.0, 5.0, 11.0, 4.0, 6.0, 5.0, 11.0, 5.0, 7.0, 8.0, 3.0, 5.0, 5.0, 5.0, 6.0, 4.0, 4.0, 6.0, 0.0, 4.0, 3.0, 2.0, 3.0, 5.0, 1.0, 0.0, 0.0, 1.0, 0.0, 1.0], "bins": [-0.7095574736595154, -0.6905300617218018, -0.6715026497840881, -0.6524752378463745, -0.6334478259086609, -0.6144204139709473, -0.5953930020332336, -0.57636559009552, -0.5573381185531616, -0.538310706615448, -0.5192832946777344, -0.5002558827400208, -0.48122847080230713, -0.4622010588645935, -0.4431736171245575, -0.42414620518684387, -0.40511882305145264, -0.386091411113739, -0.3670639991760254, -0.34803658723831177, -0.32900917530059814, -0.3099817633628845, -0.2909543216228485, -0.2719269096851349, -0.25289949774742126, -0.23387208580970764, -0.21484467387199402, -0.1958172470331192, -0.17678983509540558, -0.15776242315769196, -0.13873499631881714, -0.11970758438110352, -0.10068017244338989, -0.08165276050567627, -0.06262534111738205, -0.04359792545437813, -0.024570509791374207, -0.0055430978536605835, 0.013484321534633636, 0.032511740922927856, 0.05153915286064148, 0.0705665647983551, 0.08959398418664932, 0.10862140357494354, 0.12764881551265717, 0.1466762274503708, 0.1657036542892456, 0.18473106622695923, 0.20375847816467285, 0.22278589010238647, 0.2418133020401001, 0.2608407139778137, 0.27986812591552734, 0.29889553785324097, 0.317922979593277, 0.3369503915309906, 0.3559778034687042, 0.37500521540641785, 0.39403262734413147, 0.4130600392818451, 0.4320874810218811, 0.4511148929595947, 0.47014230489730835, 0.489169716835022, 0.5081971287727356]}, "_timestamp": 1651179611.123515, "_runtime": 50, "parameters/mlp_extractor.policy_net.0.bias": {"_type": "histogram", "values": [1.0, 0.0, 0.0, 0.0, 0.0, 0.0, 0.0, 0.0, 0.0, 0.0, 0.0, 0.0, 1.0, 0.0, 0.0, 0.0, 0.0, 0.0, 0.0, 0.0, 0.0, 1.0, 1.0, 0.0, 1.0, 2.0, 1.0, 0.0, 1.0, 1.0, 1.0, 1.0, 3.0, 4.0, 0.0, 4.0, 2.0, 5.0, 4.0, 1.0, 2.0, 4.0, 0.0, 6.0, 5.0, 2.0, 1.0, 4.0, 1.0, 0.0, 0.0, 2.0, 0.0, 0.0, 0.0, 0.0, 0.0, 0.0, 0.0, 1.0, 0.0, 0.0, 0.0, 1.0], "bins": [-0.052245769649744034, -0.050913214683532715, -0.049580659717321396, -0.04824810102581978, -0.04691554605960846, -0.04558299109339714, -0.04425043612718582, -0.042917877435684204, -0.041585322469472885, -0.040252767503261566, -0.03892021253705025, -0.03758765384554863, -0.03625509887933731, -0.03492254391312599, -0.03358998894691467, -0.032257430255413055, -0.030924877151846886, -0.029592322185635567, -0.0282597653567791, -0.02692721039056778, -0.02559465356171131, -0.024262098595499992, -0.022929541766643524, -0.021596986800432205, -0.020264431834220886, -0.018931876868009567, -0.0175993200391531, -0.01626676507294178, -0.014934208244085312, -0.013601653277873993, -0.0122690973803401, -0.010936541482806206, -0.009603984653949738, -0.008271428756415844, -0.00693887285888195, -0.005606317427009344, -0.0042737615294754505, -0.002941205631941557, -0.0016086502000689507, -0.00027609430253505707, 0.0010564615949988365, 0.00238901749253273, 0.00372157315723598, 0.00505412882193923, 0.0063866847194731236, 0.007719240617007017, 0.009051796048879623, 0.010384351946413517, 0.01171690784394741, 0.013049463741481304, 0.014382019639015198, 0.015714574605226517, 0.017047131434082985, 0.018379686400294304, 0.019712243229150772, 0.02104479819536209, 0.02237735316157341, 0.02370990812778473, 0.025042464956641197, 0.026375019922852516, 0.027707576751708984, 0.029040131717920303, 0.030372686684131622, 0.03170524537563324, 0.03303780034184456]}, "parameters/mlp_extractor.policy_net.2.weight": {"_type": "histogram", "values": [1.0, 0.0, 0.0, 0.0, 2.0, 1.0, 1.0, 0.0, 6.0, 4.0, 4.0, 6.0, 7.0, 11.0, 18.0, 17.0, 27.0, 28.0, 48.0, 44.0, 72.0, 57.0, 71.0, 77.0, 92.0, 100.0, 121.0, 141.0, 119.0, 150.0, 150.0, 184.0, 181.0, 170.0, 194.0, 163.0, 159.0, 190.0, 169.0, 155.0, 129.0, 131.0, 129.0, 102.0, 105.0, 86.0, 76.0, 70.0, 60.0, 55.0, 35.0, 40.0, 27.0, 23.0, 23.0, 23.0, 11.0, 13.0, 5.0, 1.0, 4.0, 1.0, 4.0, 3.0], "bins": [-0.7109149098396301, -0.6906505227088928, -0.6703861951828003, -0.650121808052063, -0.6298574805259705, -0.6095930933952332, -0.5893287658691406, -0.5690643787384033, -0.548799991607666, -0.5285356044769287, -0.5082712769508362, -0.48800691962242126, -0.46774256229400635, -0.44747817516326904, -0.4272138178348541, -0.4069494605064392, -0.3866851329803467, -0.36642077565193176, -0.34615641832351685, -0.32589206099510193, -0.305627703666687, -0.2853633165359497, -0.2650989592075348, -0.24483460187911987, -0.22457024455070496, -0.20430588722229004, -0.18404152989387512, -0.163777157664299, -0.1435128003358841, -0.12324844300746918, -0.10298407822847366, -0.08271971344947815, -0.06245541572570801, -0.04219105467200279, -0.021926693618297577, -0.0016623325645923615, 0.018602028489112854, 0.03886638581752777, 0.059130750596523285, 0.0793951153755188, 0.09965947270393372, 0.11992383003234863, 0.14018818736076355, 0.16045255959033966, 0.18071691691875458, 0.2009812742471695, 0.2212456464767456, 0.24151000380516052, 0.26177436113357544, 0.28203871846199036, 0.3023030757904053, 0.3225674331188202, 0.3428317904472351, 0.3630961775779724, 0.38336053490638733, 0.40362489223480225, 0.42388924956321716, 0.4441536068916321, 0.464417964220047, 0.4846823215484619, 0.5049467086791992, 0.5252110362052917, 0.545475423336029, 0.5657397508621216, 0.5860041379928589]}, "parameters/mlp_extractor.policy_net.2.bias": {"_type": "histogram", "values": [1.0, 1.0, 1.0, 0.0, 1.0, 2.0, 1.0, 1.0, 1.0, 1.0, 1.0, 2.0, 1.0, 1.0, 2.0, 1.0, 4.0, 3.0, 3.0, 3.0, 0.0, 2.0, 0.0, 2.0, 2.0, 2.0, 1.0, 0.0, 1.0, 1.0, 0.0, 2.0, 0.0, 1.0, 0.0, 0.0, 0.0, 0.0, 0.0, 0.0, 0.0, 0.0, 1.0, 0.0, 1.0, 0.0, 2.0, 1.0, 0.0, 0.0, 1.0, 2.0, 1.0, 2.0, 0.0, 0.0, 0.0, 1.0, 1.0, 0.0, 3.0, 0.0, 1.0, 2.0], "bins": [-0.02039085142314434, -0.019768239930272102, -0.019145628437399864, -0.018523016944527626, -0.017900405451655388, -0.01727779395878315, -0.01665518246591091, -0.016032570973038673, -0.015409959480166435, -0.014787347987294197, -0.014164736494421959, -0.01354212500154972, -0.012919513508677483, -0.012296902015805244, -0.011674290522933006, -0.011051679030060768, -0.010429066605865955, -0.009806455112993717, -0.009183843620121479, -0.008561232127249241, -0.007938620634377003, -0.0073160091415047646, -0.006693397182971239, -0.006070785690099001, -0.005448174197226763, -0.004825562704354525, -0.0042029512114822865, -0.0035803394857794046, -0.0029577279929071665, -0.0023351165000349283, -0.0017125047743320465, -0.0010898932814598083, -0.0004672817885875702, 0.00015532976249232888, 0.000777941313572228, 0.001400552922859788, 0.002023164415732026, 0.0026457759086042643, 0.003268387634307146, 0.0038909991271793842, 0.004513610620051622, 0.0051362221129238605, 0.005758833605796099, 0.006381445564329624, 0.007004057057201862, 0.0076266685500741005, 0.008249280042946339, 0.008871891535818577, 0.009494503028690815, 0.010117114521563053, 0.010739726014435291, 0.01136233750730753, 0.011984949000179768, 0.012607560493052006, 0.013230172917246819, 0.013852784410119057, 0.014475395902991295, 0.015098007395863533, 0.01572061888873577, 0.01634323038160801, 0.016965841874480247, 0.017588453367352486, 0.018211064860224724, 0.018833676353096962, 0.0194562878459692]}, "parameters/mlp_extractor.value_net.0.weight": {"_type": "histogram", "values": [1.0, 0.0, 2.0, 2.0, 0.0, 1.0, 2.0, 0.0, 2.0, 0.0, 2.0, 2.0, 4.0, 4.0, 5.0, 5.0, 4.0, 4.0, 3.0, 12.0, 16.0, 9.0, 7.0, 5.0, 5.0, 6.0, 8.0, 9.0, 6.0, 5.0, 10.0, 11.0, 4.0, 6.0, 7.0, 7.0, 9.0, 4.0, 6.0, 13.0, 5.0, 8.0, 4.0, 3.0, 7.0, 7.0, 3.0, 1.0, 2.0, 0.0, 0.0, 2.0, 1.0, 0.0, 0.0, 1.0, 1.0, 0.0, 0.0, 0.0, 1.0, 0.0, 1.0, 1.0], "bins": [-0.7451727390289307, -0.7194121479988098, -0.693651556968689, -0.6678909659385681, -0.6421303749084473, -0.6163698434829712, -0.5906092524528503, -0.5648486614227295, -0.5390880703926086, -0.5133274793624878, -0.48756688833236694, -0.4618063271045685, -0.43604573607444763, -0.4102851450443268, -0.3845245838165283, -0.35876399278640747, -0.3330034017562866, -0.30724281072616577, -0.2814822196960449, -0.25572165846824646, -0.2299610674381256, -0.20420047640800476, -0.1784399002790451, -0.15267932415008545, -0.1269187331199646, -0.10115814954042435, -0.0753975659608841, -0.04963698238134384, -0.02387639880180359, 0.0018841922283172607, 0.027644768357276917, 0.05340534448623657, 0.07916587591171265, 0.1049264594912529, 0.13068704307079315, 0.1564476191997528, 0.18220821022987366, 0.2079688012599945, 0.23372937738895416, 0.2594899535179138, 0.28525054454803467, 0.3110111355781555, 0.33677172660827637, 0.36253228783607483, 0.3882928788661957, 0.41405346989631653, 0.439814031124115, 0.46557462215423584, 0.4913352131843567, 0.5170958042144775, 0.5428563952445984, 0.5686169862747192, 0.5943775177001953, 0.6201381683349609, 0.645898699760437, 0.6716592907905579, 0.6974198818206787, 0.7231804728507996, 0.7489410638809204, 0.7747016549110413, 0.8004622459411621, 0.8262227773666382, 0.851983368396759, 0.8777439594268799, 0.9035045504570007]}, "parameters/mlp_extractor.value_net.0.bias": {"_type": "histogram", "values": [1.0, 0.0, 0.0, 0.0, 1.0, 1.0, 2.0, 2.0, 5.0, 7.0, 4.0, 6.0, 1.0, 5.0, 0.0, 0.0, 0.0, 0.0, 0.0, 0.0, 0.0, 0.0, 0.0, 0.0, 0.0, 0.0, 0.0, 0.0, 0.0, 0.0, 0.0, 0.0, 0.0, 0.0, 0.0, 0.0, 0.0, 0.0, 0.0, 0.0, 0.0, 0.0, 0.0, 0.0, 0.0, 0.0, 0.0, 0.0, 0.0, 0.0, 0.0, 0.0, 0.0, 0.0, 0.0, 0.0, 1.0, 3.0, 5.0, 4.0, 6.0, 3.0, 2.0, 5.0], "bins": [-0.3388417065143585, -0.32930314540863037, -0.3197646141052246, -0.31022608280181885, -0.3006875216960907, -0.29114896059036255, -0.2816104292869568, -0.272071897983551, -0.2625333368778229, -0.2529947757720947, -0.24345624446868896, -0.233917698264122, -0.22437915205955505, -0.2148406058549881, -0.20530205965042114, -0.1957635134458542, -0.18622496724128723, -0.17668642103672028, -0.16714787483215332, -0.15760932862758636, -0.1480707824230194, -0.13853223621845245, -0.1289936900138855, -0.11945514380931854, -0.10991659760475159, -0.10037805140018463, -0.09083950519561768, -0.08130095899105072, -0.07176241278648376, -0.06222386658191681, -0.052685320377349854, -0.0431467741727829, -0.03360822796821594, -0.024069681763648987, -0.014531135559082031, -0.004992589354515076, 0.00454595685005188, 0.014084503054618835, 0.02362304925918579, 0.03316159546375275, 0.0427001416683197, 0.05223868787288666, 0.06177723407745361, 0.07131578028202057, 0.08085432648658752, 0.09039287269115448, 0.09993141889572144, 0.10946996510028839, 0.11900851130485535, 0.1285470575094223, 0.13808560371398926, 0.1476241499185562, 0.15716269612312317, 0.16670124232769012, 0.17623978853225708, 0.18577833473682404, 0.195316880941391, 0.20485542714595795, 0.2143939733505249, 0.22393251955509186, 0.2334710657596588, 0.24300961196422577, 0.2525481581687927, 0.2620866894721985, 0.27162525057792664]}, "parameters/mlp_extractor.value_net.2.weight": {"_type": "histogram", "values": [2.0, 1.0, 0.0, 0.0, 1.0, 2.0, 7.0, 14.0, 10.0, 13.0, 18.0, 14.0, 30.0, 17.0, 41.0, 38.0, 44.0, 69.0, 60.0, 80.0, 83.0, 92.0, 103.0, 101.0, 109.0, 107.0, 118.0, 108.0, 134.0, 168.0, 150.0, 142.0, 179.0, 143.0, 149.0, 159.0, 162.0, 134.0, 123.0, 116.0, 108.0, 101.0, 107.0, 81.0, 94.0, 56.0, 64.0, 66.0, 63.0, 54.0, 56.0, 41.0, 45.0, 35.0, 23.0, 14.0, 10.0, 12.0, 7.0, 5.0, 7.0, 1.0, 1.0, 4.0], "bins": [-1.063990831375122, -1.0318232774734497, -0.9996556043624878, -0.9674879908561707, -0.9353203773498535, -0.9031527638435364, -0.8709851503372192, -0.8388175964355469, -0.806649923324585, -0.7744823098182678, -0.7423146963119507, -0.7101470828056335, -0.6779794692993164, -0.6458118557929993, -0.6136442422866821, -0.5814766883850098, -0.5493090748786926, -0.5171414613723755, -0.48497384786605835, -0.4528062343597412, -0.4206386208534241, -0.38847100734710693, -0.3563034236431122, -0.32413581013679504, -0.2919681966304779, -0.25980058312416077, -0.22763296961784363, -0.19546537101268768, -0.16329775750637054, -0.1311301440000534, -0.09896254539489746, -0.06679493188858032, -0.03462725877761841, -0.002459648996591568, 0.029707960784435272, 0.061875566840171814, 0.09404318034648895, 0.1262107938528061, 0.15837839245796204, 0.19054600596427917, 0.2227136194705963, 0.25488123297691345, 0.2870488464832306, 0.31921643018722534, 0.3513840436935425, 0.3835516571998596, 0.41571927070617676, 0.4478868842124939, 0.48005449771881104, 0.5122221112251282, 0.5443897247314453, 0.5765573382377625, 0.6087249517440796, 0.6408925652503967, 0.6730601787567139, 0.7052277326583862, 0.7373954057693481, 0.7695630192756653, 0.8017306327819824, 0.8338982462882996, 0.8660658597946167, 0.8982334733009338, 0.930401086807251, 0.9625686407089233, 0.9947362542152405]}, "parameters/mlp_extractor.value_net.2.bias": {"_type": "histogram", "values": [2.0, 1.0, 0.0, 2.0, 0.0, 1.0, 0.0, 0.0, 2.0, 4.0, 0.0, 0.0, 2.0, 3.0, 2.0, 2.0, 4.0, 1.0, 1.0, 1.0, 4.0, 2.0, 1.0, 0.0, 0.0, 0.0, 0.0, 0.0, 0.0, 0.0, 0.0, 0.0, 0.0, 0.0, 0.0, 0.0, 0.0, 0.0, 0.0, 0.0, 0.0, 0.0, 1.0, 0.0, 2.0, 0.0, 0.0, 1.0, 1.0, 0.0, 0.0, 0.0, 1.0, 2.0, 3.0, 4.0, 1.0, 0.0, 2.0, 4.0, 5.0, 1.0, 0.0, 1.0], "bins": [-0.2224486917257309, -0.21593230962753296, -0.20941591262817383, -0.2028995305299759, -0.19638314843177795, -0.18986675143241882, -0.1833503693342209, -0.17683398723602295, -0.17031759023666382, -0.16380120813846588, -0.15728481113910675, -0.1507684290409088, -0.14425203204154968, -0.13773564994335175, -0.1312192678451538, -0.12470287829637527, -0.11818648874759674, -0.1116700991988182, -0.10515370965003967, -0.09863732755184174, -0.0921209380030632, -0.08560454845428467, -0.07908816635608673, -0.0725717768073082, -0.06605538725852966, -0.05953899770975113, -0.053022611886262894, -0.04650622606277466, -0.039989836513996124, -0.03347344696521759, -0.026957061141729355, -0.02044067531824112, -0.013924285769462585, -0.007407898083329201, -0.000891510397195816, 0.005624877288937569, 0.012141264975070953, 0.018657654523849487, 0.025174040347337723, 0.03169042617082596, 0.03820681571960449, 0.044723205268383026, 0.05123959109187126, 0.0577559769153595, 0.06427236646413803, 0.07078875601291656, 0.0773051381111145, 0.08382152765989304, 0.09033791720867157, 0.0968543067574501, 0.10337069630622864, 0.10988707840442657, 0.11640346795320511, 0.12291985750198364, 0.12943623960018158, 0.13595262169837952, 0.14246901869773865, 0.14898540079593658, 0.15550179779529572, 0.16201817989349365, 0.16853457689285278, 0.17505095899105072, 0.18156734108924866, 0.1880837380886078, 0.19460012018680573]}, "parameters/action_net.weight": {"_type": "histogram", "values": [1.0, 0.0, 0.0, 0.0, 1.0, 1.0, 0.0, 2.0, 2.0, 0.0, 3.0, 1.0, 3.0, 2.0, 1.0, 1.0, 4.0, 4.0, 6.0, 3.0, 2.0, 5.0, 6.0, 3.0, 2.0, 1.0, 2.0, 3.0, 0.0, 0.0, 3.0, 2.0, 3.0, 2.0, 0.0, 1.0, 2.0, 2.0, 2.0, 0.0, 4.0, 7.0, 2.0, 4.0, 5.0, 5.0, 3.0, 3.0, 2.0, 2.0, 1.0, 2.0, 2.0, 3.0, 0.0, 2.0, 2.0, 0.0, 1.0, 0.0, 1.0, 0.0, 0.0, 1.0], "bins": [-0.14190126955509186, -0.1374669224023819, -0.13303257524967194, -0.12859822809696198, -0.12416388094425201, -0.11972953379154205, -0.11529519408941269, -0.11086084693670273, -0.10642649978399277, -0.1019921526312828, -0.09755780547857285, -0.09312345832586288, -0.08868911862373352, -0.08425477147102356, -0.0798204243183136, -0.07538607716560364, -0.07095173001289368, -0.06651738286018372, -0.062083035707473755, -0.05764869228005409, -0.05321434512734413, -0.04877999797463417, -0.04434565454721451, -0.03991130739450455, -0.035476960241794586, -0.031042613089084625, -0.026608267799019814, -0.022173922508955002, -0.01773957535624504, -0.01330522820353508, -0.008870882913470268, -0.0044365376234054565, -2.175569534301758e-06, 0.0044321706518530846, 0.008866516873240471, 0.013300863094627857, 0.017735209316015244, 0.022169556468725204, 0.026603901758790016, 0.031038247048854828, 0.03547259420156479, 0.03990694135427475, 0.04434128850698471, 0.04877563193440437, 0.053209979087114334, 0.057644326239824295, 0.06207866966724396, 0.06651301681995392, 0.07094736397266388, 0.07538171112537384, 0.0798160582780838, 0.08425040543079376, 0.08868475258350372, 0.09311909973621368, 0.09755343943834305, 0.10198778659105301, 0.10642213374376297, 0.11085648089647293, 0.11529082804918289, 0.11972517520189285, 0.12415951490402222, 0.12859386205673218, 0.13302820920944214, 0.1374625563621521, 0.14189690351486206]}, "parameters/action_net.bias": {"_type": "histogram", "values": [1.0, 0.0, 0.0, 0.0, 0.0, 0.0, 0.0, 0.0, 0.0, 0.0, 0.0, 0.0, 0.0, 0.0, 0.0, 0.0, 0.0, 0.0, 0.0, 0.0, 0.0, 0.0, 0.0, 0.0, 0.0, 0.0, 0.0, 0.0, 0.0, 0.0, 0.0, 0.0, 0.0, 0.0, 0.0, 0.0, 0.0, 0.0, 0.0, 0.0, 0.0, 0.0, 0.0, 0.0, 0.0, 0.0, 0.0, 0.0, 0.0, 0.0, 0.0, 0.0, 0.0, 0.0, 0.0, 0.0, 0.0, 0.0, 0.0, 0.0, 0.0, 0.0, 0.0, 1.0], "bins": [-0.011580443941056728, -0.011218555271625519, -0.010856665670871735, -0.010494777001440525, -0.010132887400686741, -0.009770998731255531, -0.009409109130501747, -0.009047220461070538, -0.008685331791639328, -0.008323443122208118, -0.007961553521454334, -0.007599664852023125, -0.007237775716930628, -0.006875886581838131, -0.006513997446745634, -0.006152108311653137, -0.00579021917656064, -0.0054283300414681435, -0.005066440906375647, -0.00470455177128315, -0.00434266310185194, -0.003980773966759443, -0.0036188848316669464, -0.003256995929405093, -0.0028951067943125963, -0.0025332176592200994, -0.0021713287569582462, -0.0018094396218657494, -0.0014475506031885743, -0.0010856615845113993, -0.0007237724494189024, -0.0003618835471570492, 5.587935447692871e-09, 0.0003618946357164532, 0.0007237836834974587, 0.0010856727603822947, 0.0014475617790594697, 0.0018094507977366447, 0.0021713399328291416, 0.002533228835090995, 0.0028951179701834917, 0.0032570071052759886, 0.003618896007537842, 0.003980785142630339, 0.0043426742777228355, 0.004704562947154045, 0.005066452547907829, 0.005428341217339039, 0.005790230352431536, 0.006152119487524033, 0.0065140086226165295, 0.006875897757709026, 0.007237786427140236, 0.007599675562232733, 0.00796156469732523, 0.00832345336675644, 0.008685342967510223, 0.009047231636941433, 0.009409121237695217, 0.009771009907126427, 0.010132899507880211, 0.01049478817731142, 0.01085667684674263, 0.011218566447496414, 0.011580455116927624]}, "parameters/value_net.weight": {"_type": "histogram", "values": [2.0, 1.0, 2.0, 7.0, 5.0, 12.0, 5.0, 1.0, 0.0, 0.0, 0.0, 0.0, 0.0, 0.0, 0.0, 0.0, 0.0, 0.0, 0.0, 0.0, 0.0, 0.0, 0.0, 0.0, 0.0, 0.0, 0.0, 0.0, 0.0, 0.0, 0.0, 0.0, 0.0, 0.0, 0.0, 0.0, 0.0, 0.0, 0.0, 0.0, 0.0, 0.0, 0.0, 0.0, 0.0, 0.0, 0.0, 0.0, 0.0, 0.0, 0.0, 0.0, 0.0, 0.0, 0.0, 0.0, 0.0, 8.0, 7.0, 8.0, 2.0, 1.0, 1.0, 2.0], "bins": [-1.363953709602356, -1.3212618827819824, -1.2785700559616089, -1.2358782291412354, -1.1931865215301514, -1.1504946947097778, -1.1078028678894043, -1.0651110410690308, -1.0224192142486572, -0.9797273874282837, -0.9370356202125549, -0.8943437933921814, -0.8516520261764526, -0.8089601993560791, -0.7662683725357056, -0.723576545715332, -0.680884838104248, -0.6381930112838745, -0.5955012440681458, -0.5528094172477722, -0.5101176500320435, -0.4674258232116699, -0.4247339963912964, -0.38204219937324524, -0.3393504023551941, -0.29665860533714294, -0.2539668083190918, -0.21127498149871826, -0.16858318448066711, -0.12589138746261597, -0.08319956064224243, -0.040507763624191284, 0.0021840333938598633, 0.04487583786249161, 0.08756764233112335, 0.1302594542503357, 0.17295125126838684, 0.215643048286438, 0.2583348751068115, 0.30102667212486267, 0.3437184691429138, 0.38641026616096497, 0.4291020631790161, 0.47179388999938965, 0.5144857168197632, 0.5571774840354919, 0.5998693108558655, 0.6425610780715942, 0.6852529048919678, 0.7279447317123413, 0.7706364989280701, 0.8133283257484436, 0.8560200929641724, 0.8987119197845459, 0.9414037466049194, 0.984095573425293, 1.026787281036377, 1.0694791078567505, 1.112170934677124, 1.154862642288208, 1.1975544691085815, 1.240246295928955, 1.2829381227493286, 1.3256299495697021, 1.3683217763900757]}, "parameters/value_net.bias": {"_type": "histogram", "values": [0.0, 0.0, 0.0, 0.0, 0.0, 0.0, 0.0, 0.0, 0.0, 0.0, 0.0, 0.0, 0.0, 0.0, 0.0, 0.0, 0.0, 0.0, 0.0, 0.0, 0.0, 0.0, 0.0, 0.0, 0.0, 0.0, 0.0, 0.0, 0.0, 0.0, 0.0, 0.0, 1.0, 0.0, 0.0, 0.0, 0.0, 0.0, 0.0, 0.0, 0.0, 0.0, 0.0, 0.0, 0.0, 0.0, 0.0, 0.0, 0.0, 0.0, 0.0, 0.0, 0.0, 0.0, 0.0, 0.0, 0.0, 0.0, 0.0, 0.0, 0.0, 0.0, 0.0, 0.0], "bins": [0.7173566222190857, 0.7173566222190857, 0.7173566222190857, 0.7173566222190857, 0.7173566222190857, 0.7173566222190857, 0.7173566222190857, 0.7173566222190857, 0.7173566222190857, 0.7173566222190857, 0.7173566222190857, 0.7173566222190857, 0.7173566222190857, 0.7173566222190857, 0.7173566222190857, 0.7173566222190857, 0.7173566222190857, 0.7173566222190857, 0.7173566222190857, 0.7173566222190857, 0.7173566222190857, 0.7173566222190857, 0.7173566222190857, 0.7173566222190857, 0.7173566222190857, 0.7173566222190857, 0.7173566222190857, 0.7173566222190857, 0.7173566222190857, 0.7173566222190857, 0.7173566222190857, 0.7173566222190857, 0.7173566222190857, 0.7173566222190857, 0.7173566222190857, 0.7173566222190857, 0.7173566222190857, 0.7173566222190857, 0.7173566222190857, 0.7173566222190857, 0.7173566222190857, 0.7173566222190857, 0.7173566222190857, 0.7173566222190857, 0.7173566222190857, 0.7173566222190857, 0.7173566222190857, 0.7173566222190857, 0.7173566222190857, 0.7173566222190857, 0.7173566222190857, 0.7173566222190857, 0.7173566222190857, 0.7173566222190857, 0.7173566222190857, 0.7173566222190857, 0.7173566222190857, 0.7173566222190857, 0.7173566222190857, 0.7173566222190857, 0.7173566222190857, 0.7173566222190857, 0.7173566222190857, 0.7173566222190857, 0.7173566222190857]}, "videos": {"_type": "video-file", "path": "media/videos/videos_13_73f1fdbe490d451e3f52.mp4", "sha256": "73f1fdbe490d451e3f52323c88b8e59b69da5c94e8baca85c76f9f434c196461", "size": 19836}, "_step": 27, "gradients/value_net.bias": {"_type": "histogram", "values": [0.0, 0.0, 0.0, 0.0, 0.0, 0.0, 0.0, 0.0, 0.0, 0.0, 0.0, 0.0, 0.0, 0.0, 0.0, 0.0, 0.0, 0.0, 0.0, 0.0, 0.0, 0.0, 0.0, 0.0, 0.0, 0.0, 0.0, 0.0, 0.0, 0.0, 0.0, 0.0, 1.0, 0.0, 0.0, 0.0, 0.0, 0.0, 0.0, 0.0, 0.0, 0.0, 0.0, 0.0, 0.0, 0.0, 0.0, 0.0, 0.0, 0.0, 0.0, 0.0, 0.0, 0.0, 0.0, 0.0, 0.0, 0.0, 0.0, 0.0, 0.0, 0.0, 0.0, 0.0], "bins": [0.13904929161071777, 0.13904929161071777, 0.13904929161071777, 0.13904929161071777, 0.13904929161071777, 0.13904929161071777, 0.13904929161071777, 0.13904929161071777, 0.13904929161071777, 0.13904929161071777, 0.13904929161071777, 0.13904929161071777, 0.13904929161071777, 0.13904929161071777, 0.13904929161071777, 0.13904929161071777, 0.13904929161071777, 0.13904929161071777, 0.13904929161071777, 0.13904929161071777, 0.13904929161071777, 0.13904929161071777, 0.13904929161071777, 0.13904929161071777, 0.13904929161071777, 0.13904929161071777, 0.13904929161071777, 0.13904929161071777, 0.13904929161071777, 0.13904929161071777, 0.13904929161071777, 0.13904929161071777, 0.13904929161071777, 0.13904929161071777, 0.13904929161071777, 0.13904929161071777, 0.13904929161071777, 0.13904929161071777, 0.13904929161071777, 0.13904929161071777, 0.13904929161071777, 0.13904929161071777, 0.13904929161071777, 0.13904929161071777, 0.13904929161071777, 0.13904929161071777, 0.13904929161071777, 0.13904929161071777, 0.13904929161071777, 0.13904929161071777, 0.13904929161071777, 0.13904929161071777, 0.13904929161071777, 0.13904929161071777, 0.13904929161071777, 0.13904929161071777, 0.13904929161071777, 0.13904929161071777, 0.13904929161071777, 0.13904929161071777, 0.13904929161071777, 0.13904929161071777, 0.13904929161071777, 0.13904929161071777, 0.13904929161071777]}, "gradients/value_net.weight": {"_type": "histogram", "values": [30.0, 3.0, 1.0, 0.0, 1.0, 0.0, 0.0, 0.0, 0.0, 0.0, 0.0, 0.0, 0.0, 0.0, 0.0, 0.0, 0.0, 0.0, 0.0, 0.0, 0.0, 0.0, 0.0, 0.0, 0.0, 0.0, 0.0, 0.0, 0.0, 0.0, 0.0, 0.0, 0.0, 0.0, 0.0, 0.0, 0.0, 0.0, 0.0, 0.0, 0.0, 0.0, 0.0, 0.0, 0.0, 0.0, 0.0, 0.0, 0.0, 0.0, 0.0, 0.0, 0.0, 0.0, 0.0, 0.0, 1.0, 0.0, 0.0, 0.0, 0.0, 1.0, 2.0, 25.0], "bins": [-0.13937655091285706, -0.13502246141433716, -0.13066837191581726, -0.12631426751613617, -0.12196017801761627, -0.11760608851909637, -0.11325199902057648, -0.10889790952205658, -0.10454381257295609, -0.10018972307443619, -0.0958356261253357, -0.0914815366268158, -0.0871274471282959, -0.0827733501791954, -0.0784192606806755, -0.07406516373157501, -0.06971107423305511, -0.06535698473453522, -0.06100288778543472, -0.056648798286914825, -0.05229470506310463, -0.047940611839294434, -0.043586522340774536, -0.03923242911696434, -0.034878335893154144, -0.03052424266934395, -0.0261701513081789, -0.021816059947013855, -0.01746196672320366, -0.013107873499393463, -0.008753782138228416, -0.00439969077706337, -4.5612454414367676e-05, 0.004308479838073254, 0.008662572130560875, 0.013016664423048496, 0.017370756715536118, 0.021724849939346313, 0.02607894130051136, 0.030433032661676407, 0.0347871258854866, 0.0391412191092968, 0.043495312333106995, 0.04784940183162689, 0.05220349505543709, 0.056557588279247284, 0.06091167777776718, 0.06526577472686768, 0.06961986422538757, 0.07397395372390747, 0.07832805067300797, 0.08268214017152786, 0.08703623712062836, 0.09139032661914825, 0.09574441611766815, 0.10009850561618805, 0.10445260256528854, 0.10880669206380844, 0.11316078901290894, 0.11751487851142883, 0.12186896800994873, 0.12622305750846863, 0.13057716190814972, 0.13493125140666962, 0.13928534090518951]}, "gradients/action_net.bias": {"_type": "histogram", "values": [1.0, 0.0, 0.0, 0.0, 0.0, 0.0, 0.0, 0.0, 0.0, 0.0, 0.0, 0.0, 0.0, 0.0, 0.0, 0.0, 0.0, 0.0, 0.0, 0.0, 0.0, 0.0, 0.0, 0.0, 0.0, 0.0, 0.0, 0.0, 0.0, 0.0, 0.0, 0.0, 0.0, 0.0, 0.0, 0.0, 0.0, 0.0, 0.0, 0.0, 0.0, 0.0, 0.0, 0.0, 0.0, 0.0, 0.0, 0.0, 0.0, 0.0, 0.0, 0.0, 0.0, 0.0, 0.0, 0.0, 0.0, 0.0, 0.0, 0.0, 0.0, 0.0, 0.0, 1.0], "bins": [-0.004880849272012711, -0.004728322848677635, -0.00457579642534256, -0.0044232700020074844, -0.004270743578672409, -0.004118217620998621, -0.003965691197663546, -0.0038131647743284702, -0.003660638350993395, -0.0035081119276583195, -0.003355585504323244, -0.0032030593138188124, -0.003050532890483737, -0.0028980064671486616, -0.00274548027664423, -0.0025929538533091545, -0.002440427429974079, -0.0022879010066390038, -0.0021353745833039284, -0.0019828483927994967, -0.0018303219694644213, -0.001677795546129346, -0.0015252692392095923, -0.0013727429322898388, -0.0012202165089547634, -0.001067690085619688, -0.0009151637786999345, -0.00076263741357252, -0.0006101110484451056, -0.0004575846833176911, -0.0003050583181902766, -0.00015253201127052307, -5.587935447692871e-09, 0.00015252077719196677, 0.00030504714231938124, 0.0004575735074467957, 0.0006100998725742102, 0.0007626262377016246, 0.0009151526028290391, 0.0010676789097487926, 0.001220205333083868, 0.0013727317564189434, 0.001525258063338697, 0.0016777843702584505, 0.0018303107935935259, 0.0019828372169286013, 0.002135363407433033, 0.0022878898307681084, 0.0024404162541031837, 0.002592942677438259, 0.0027454691007733345, 0.0028979952912777662, 0.0030505217146128416, 0.003203048137947917, 0.0033555743284523487, 0.003508100751787424, 0.0036606271751224995, 0.003813153598457575, 0.00396568002179265, 0.004118206445127726, 0.004270732402801514, 0.004423258826136589, 0.004575785249471664, 0.00472831167280674, 0.004880838096141815]}, "gradients/action_net.weight": {"_type": "histogram", "values": [1.0, 0.0, 1.0, 0.0, 1.0, 0.0, 2.0, 0.0, 0.0, 2.0, 1.0, 3.0, 1.0, 1.0, 1.0, 0.0, 0.0, 4.0, 3.0, 2.0, 4.0, 2.0, 4.0, 3.0, 2.0, 4.0, 4.0, 2.0, 3.0, 3.0, 4.0, 6.0, 6.0, 4.0, 3.0, 3.0, 2.0, 4.0, 4.0, 2.0, 3.0, 4.0, 2.0, 4.0, 2.0, 3.0, 4.0, 0.0, 0.0, 1.0, 1.0, 1.0, 3.0, 1.0, 2.0, 0.0, 0.0, 2.0, 0.0, 1.0, 0.0, 1.0, 0.0, 1.0], "bins": [-0.014300803653895855, -0.013853903859853745, -0.01340700313448906, -0.012960103340446949, -0.012513203546404839, -0.012066302821040154, -0.011619403026998043, -0.011172503232955933, -0.010725602507591248, -0.010278702713549137, -0.009831801988184452, -0.009384902194142342, -0.008938002400100231, -0.008491101674735546, -0.008044201880693436, -0.007597301620990038, -0.0071504018269479275, -0.00670350156724453, -0.006256601773202419, -0.0058097015134990215, -0.005362801253795624, -0.004915901459753513, -0.004469001200050116, -0.004022100940346718, -0.0035752009134739637, -0.0031283008866012096, -0.002681400626897812, -0.002234500600025058, -0.0017876004567369819, -0.001340700313448906, -0.0008938002865761518, -0.0004469000268727541, 0.0, 0.00044690011418424547, 0.0008938002283684909, 0.001340700313448906, 0.0017876004567369819, 0.002234500600025058, 0.002681400626897812, 0.0031283008866012096, 0.0035752009134739637, 0.004022100940346718, 0.004469001200050116, 0.004915901459753513, 0.005362801253795624, 0.0058097015134990215, 0.006256601773202419, 0.00670350156724453, 0.0071504018269479275, 0.007597302086651325, 0.008044201880693436, 0.00849110260605812, 0.008938002400100231, 0.009384902194142342, 0.009831802919507027, 0.010278702713549137, 0.010725602507591248, 0.011172502301633358, 0.011619403026998043, 0.012066302821040154, 0.012513202615082264, 0.012960103340446949, 0.01340700313448906, 0.013853903859853745, 0.014300803653895855]}, "gradients/mlp_extractor.value_net.2.bias": {"_type": "histogram", "values": [1.0, 0.0, 0.0, 0.0, 1.0, 0.0, 0.0, 0.0, 0.0, 0.0, 0.0, 0.0, 0.0, 0.0, 0.0, 1.0, 2.0, 0.0, 1.0, 0.0, 3.0, 2.0, 0.0, 0.0, 37.0, 1.0, 6.0, 2.0, 2.0, 0.0, 1.0, 0.0, 0.0, 2.0, 0.0, 0.0, 0.0, 0.0, 0.0, 0.0, 0.0, 0.0, 1.0, 0.0, 0.0, 0.0, 0.0, 0.0, 0.0, 0.0, 0.0, 0.0, 0.0, 0.0, 0.0, 0.0, 0.0, 0.0, 0.0, 0.0, 0.0, 0.0, 0.0, 1.0], "bins": [-0.03049163520336151, -0.02924695424735546, -0.02800227329134941, -0.02675759233534336, -0.02551291137933731, -0.02426823042333126, -0.02302354946732521, -0.02177887037396431, -0.02053418755531311, -0.01928950659930706, -0.01804482564330101, -0.01680014468729496, -0.01555546373128891, -0.01431078277528286, -0.013066102750599384, -0.011821421794593334, -0.010576741769909859, -0.009332060813903809, -0.008087379857897758, -0.006842699367552996, -0.005598018411546946, -0.0043533374555408955, -0.0031086569651961327, -0.0018639760091900826, -0.0006192950531840324, 0.0006253857864066958, 0.0018700666259974241, 0.0031147473491728306, 0.004359428305178881, 0.005604109261184931, 0.006848789751529694, 0.008093470707535744, 0.009338151663541794, 0.010582832619547844, 0.011827513575553894, 0.013072194531559944, 0.014316875487565994, 0.015561556443572044, 0.016806237399578094, 0.018050916492938995, 0.019295599311590195, 0.020540280267596245, 0.021784961223602295, 0.023029642179608345, 0.024274323135614395, 0.025519004091620445, 0.026763685047626495, 0.028008364140987396, 0.029253045096993446, 0.030497726052999496, 0.0317424051463604, 0.0329870879650116, 0.0342317670583725, 0.0354764498770237, 0.0367211289703846, 0.0379658117890358, 0.0392104908823967, 0.0404551699757576, 0.0416998527944088, 0.0429445318877697, 0.0441892147064209, 0.0454338937997818, 0.046678576618433, 0.0479232557117939, 0.0491679385304451]}, "gradients/mlp_extractor.value_net.2.weight": {"_type": "histogram", "values": [1.0, 0.0, 0.0, 4.0, 0.0, 0.0, 0.0, 1.0, 2.0, 3.0, 1.0, 2.0, 2.0, 2.0, 5.0, 8.0, 3.0, 7.0, 12.0, 1.0, 7.0, 7.0, 7.0, 11.0, 17.0, 28.0, 35.0, 49.0, 101.0, 178.0, 344.0, 2582.0, 258.0, 143.0, 80.0, 42.0, 30.0, 25.0, 17.0, 8.0, 8.0, 6.0, 11.0, 7.0, 9.0, 5.0, 4.0, 3.0, 3.0, 3.0, 0.0, 2.0, 1.0, 1.0, 2.0, 0.0, 1.0, 3.0, 1.0, 2.0, 0.0, 0.0, 0.0, 1.0], "bins": [-0.024199502542614937, -0.02342698909342289, -0.022654475644230843, -0.021881962195038795, -0.02110944874584675, -0.0203369352966547, -0.019564419984817505, -0.018791906535625458, -0.01801939308643341, -0.017246879637241364, -0.016474366188049316, -0.01570185273885727, -0.014929339289665222, -0.014156825840473175, -0.013384311459958553, -0.012611798010766506, -0.011839285492897034, -0.011066772043704987, -0.01029425859451294, -0.009521745145320892, -0.008749231696128845, -0.007976718246936798, -0.007204203866422176, -0.006431690417230129, -0.005659176968038082, -0.004886663518846035, -0.004114150069653988, -0.0033416361548006535, -0.0025691227056086063, -0.0017966092564165592, -0.0010240953415632248, -0.0002515818923711777, 0.0005209334194660187, 0.0012934469850733876, 0.0020659605506807566, 0.0028384742327034473, 0.0036109876818954945, 0.004383501131087542, 0.005156015045940876, 0.005928528495132923, 0.00670104194432497, 0.007473555393517017, 0.008246068842709064, 0.009018583223223686, 0.009791096672415733, 0.01056361012160778, 0.011336123570799828, 0.012108637019991875, 0.012881150469183922, 0.013653663918375969, 0.014426177367568016, 0.015198690816760063, 0.01597120426595211, 0.016743717715144157, 0.017516233026981354, 0.0182887464761734, 0.019061259925365448, 0.019833773374557495, 0.020606286823749542, 0.02137880027294159, 0.022151313722133636, 0.022923827171325684, 0.02369634062051773, 0.024468854069709778, 0.025241367518901825]}, "gradients/mlp_extractor.value_net.0.bias": {"_type": "histogram", "values": [1.0, 0.0, 0.0, 1.0, 0.0, 1.0, 0.0, 1.0, 3.0, 0.0, 1.0, 0.0, 0.0, 0.0, 0.0, 0.0, 1.0, 1.0, 2.0, 2.0, 2.0, 1.0, 0.0, 1.0, 4.0, 3.0, 5.0, 4.0, 0.0, 2.0, 2.0, 1.0, 2.0, 4.0, 3.0, 1.0, 0.0, 1.0, 0.0, 0.0, 1.0, 2.0, 1.0, 1.0, 0.0, 0.0, 0.0, 0.0, 0.0, 0.0, 0.0, 1.0, 1.0, 0.0, 1.0, 1.0, 1.0, 0.0, 0.0, 0.0, 2.0, 1.0, 0.0, 1.0], "bins": [-0.1452559381723404, -0.14041312038898468, -0.13557030260562897, -0.13072746992111206, -0.12588465213775635, -0.12104183435440063, -0.11619901657104492, -0.11135619878768921, -0.1065133735537529, -0.10167055577039719, -0.09682773053646088, -0.09198491275310516, -0.08714209496974945, -0.08229926973581314, -0.07745645195245743, -0.07261362671852112, -0.0677708089351654, -0.06292799115180969, -0.05808516591787338, -0.05324234813451767, -0.04839952662587166, -0.04355670511722565, -0.038713887333869934, -0.03387106582522392, -0.02902824431657791, -0.0241854228079319, -0.019342603161931038, -0.014499782584607601, -0.009656962007284164, -0.004814140498638153, 2.8679147362709045e-05, 0.004871498793363571, 0.009714305400848389, 0.014557125978171825, 0.019399946555495262, 0.024242766201496124, 0.029085587710142136, 0.03392840921878815, 0.03877122700214386, 0.04361404851078987, 0.04845687001943588, 0.053299691528081894, 0.058142513036727905, 0.06298533082008362, 0.06782814860343933, 0.07267097383737564, 0.07751379162073135, 0.08235661685466766, 0.08719943463802338, 0.09204225242137909, 0.0968850776553154, 0.10172789543867111, 0.10657072067260742, 0.11141353845596313, 0.11625635623931885, 0.12109917402267456, 0.12594199180603027, 0.130784809589386, 0.1356276273727417, 0.1404704600572586, 0.14531327784061432, 0.15015609562397003, 0.15499891340732574, 0.15984173119068146, 0.16468456387519836]}, "gradients/mlp_extractor.value_net.0.weight": {"_type": "histogram", "values": [1.0, 1.0, 0.0, 1.0, 2.0, 0.0, 2.0, 0.0, 2.0, 5.0, 0.0, 2.0, 0.0, 0.0, 1.0, 1.0, 1.0, 3.0, 5.0, 2.0, 5.0, 4.0, 9.0, 7.0, 8.0, 9.0, 16.0, 18.0, 18.0, 24.0, 14.0, 12.0, 7.0, 14.0, 9.0, 3.0, 0.0, 9.0, 3.0, 6.0, 6.0, 1.0, 3.0, 2.0, 2.0, 0.0, 0.0, 0.0, 0.0, 0.0, 0.0, 2.0, 2.0, 3.0, 0.0, 2.0, 1.0, 0.0, 0.0, 2.0, 3.0, 1.0, 1.0, 1.0], "bins": [-0.04607287049293518, -0.04453861713409424, -0.043004363775253296, -0.041470110416412354, -0.03993585705757141, -0.03840160742402077, -0.036867354065179825, -0.03533310070633888, -0.03379884734749794, -0.032264593988657, -0.030730340629816055, -0.029196089133620262, -0.02766183577477932, -0.026127582415938377, -0.024593330919742584, -0.023059077560901642, -0.0215248242020607, -0.019990570843219757, -0.018456317484378815, -0.01692206598818302, -0.01538781262934208, -0.013853559270501137, -0.012319306842982769, -0.010785054415464401, -0.009250801056623459, -0.007716548163443804, -0.006182295270264149, -0.004648042377084494, -0.0031137894839048386, -0.0015795365907251835, -4.528369754552841e-05, 0.0014889687299728394, 0.0030232183635234833, 0.004557471256703138, 0.006091724149882793, 0.0076259770430624485, 0.009160229936242104, 0.010694483295083046, 0.012228735722601414, 0.013762988150119781, 0.015297241508960724, 0.016831494867801666, 0.01836574822664261, 0.019899999722838402, 0.021434253081679344, 0.022968506440520287, 0.02450275793671608, 0.026037011295557022, 0.027571264654397964, 0.029105518013238907, 0.03063977137207985, 0.03217402473092079, 0.033708274364471436, 0.03524252772331238, 0.03677678108215332, 0.03831103444099426, 0.039845287799835205, 0.04137954115867615, 0.04291379451751709, 0.04444804787635803, 0.045982301235198975, 0.04751655086874962, 0.04905080422759056, 0.0505850575864315, 0.052119310945272446]}, "gradients/mlp_extractor.policy_net.2.bias": {"_type": "histogram", "values": [1.0, 0.0, 0.0, 0.0, 0.0, 0.0, 0.0, 1.0, 1.0, 1.0, 1.0, 1.0, 0.0, 2.0, 1.0, 0.0, 1.0, 2.0, 3.0, 1.0, 1.0, 1.0, 0.0, 1.0, 0.0, 3.0, 3.0, 4.0, 1.0, 0.0, 0.0, 3.0, 1.0, 1.0, 2.0, 6.0, 3.0, 4.0, 2.0, 0.0, 2.0, 0.0, 1.0, 0.0, 1.0, 0.0, 2.0, 1.0, 1.0, 0.0, 0.0, 2.0, 0.0, 0.0, 0.0, 0.0, 0.0, 0.0, 1.0, 0.0, 0.0, 0.0, 0.0, 1.0], "bins": [-0.0008782910881564021, -0.0008460996905341744, -0.0008139082929119468, -0.0007817168952897191, -0.0007495254976674914, -0.0007173341000452638, -0.0006851427024230361, -0.0006529513048008084, -0.0006207599071785808, -0.0005885685095563531, -0.0005563771119341254, -0.0005241857143118978, -0.0004919943166896701, -0.0004598029190674424, -0.00042761152144521475, -0.0003954201238229871, -0.0003632287262007594, -0.00033103732857853174, -0.0002988459309563041, -0.0002666545333340764, -0.00023446313571184874, -0.00020227173808962107, -0.0001700803404673934, -0.00013788894284516573, -0.00010569754522293806, -7.350614760071039e-05, -4.131474997848272e-05, -9.123352356255054e-06, 2.3068045265972614e-05, 5.525944288820028e-05, 8.745084051042795e-05, 0.00011964223813265562, 0.00015183375217020512, 0.00018402514979243279, 0.00021621654741466045, 0.0002484079450368881, 0.0002805993426591158, 0.00031279074028134346, 0.00034498213790357113, 0.0003771735355257988, 0.00040936493314802647, 0.00044155633077025414, 0.0004737477283924818, 0.0005059391260147095, 0.0005381305236369371, 0.0005703219212591648, 0.0006025133188813925, 0.0006347047165036201, 0.0006668961141258478, 0.0006990875117480755, 0.0007312789093703032, 0.0007634703069925308, 0.0007956617046147585, 0.0008278531022369862, 0.0008600444998592138, 0.0008922358974814415, 0.0009244272951036692, 0.0009566186927258968, 0.0009888100903481245, 0.0010210014879703522, 0.0010531928855925798, 0.0010853842832148075, 0.0011175756808370352, 0.0011497670784592628, 0.0011819584760814905]}, "gradients/mlp_extractor.policy_net.2.weight": {"_type": "histogram", "values": [1.0, 0.0, 0.0, 1.0, 1.0, 2.0, 2.0, 4.0, 3.0, 3.0, 4.0, 6.0, 12.0, 13.0, 12.0, 16.0, 26.0, 22.0, 38.0, 25.0, 48.0, 67.0, 76.0, 86.0, 110.0, 135.0, 165.0, 168.0, 231.0, 260.0, 353.0, 516.0, 256.0, 209.0, 196.0, 176.0, 166.0, 141.0, 101.0, 81.0, 76.0, 58.0, 43.0, 31.0, 31.0, 20.0, 23.0, 15.0, 13.0, 12.0, 9.0, 3.0, 5.0, 5.0, 4.0, 3.0, 5.0, 2.0, 2.0, 1.0, 1.0, 1.0, 0.0, 1.0], "bins": [-0.0017839520005509257, -0.0017266152426600456, -0.0016692784847691655, -0.0016119417268782854, -0.0015546049689874053, -0.0014972682110965252, -0.001439931569620967, -0.0013825948117300868, -0.0013252580538392067, -0.0012679212959483266, -0.0012105845380574465, -0.0011532477801665664, -0.0010959110222756863, -0.001038574380800128, -0.000981237506493926, -0.0009239008650183678, -0.0008665640489198267, -0.0008092272910289466, -0.0007518905331380665, -0.0006945538334548473, -0.0006372170755639672, -0.0005798803176730871, -0.000522543559782207, -0.00046520683099515736, -0.00040787007310427725, -0.00035053331521339715, -0.0002931965864263475, -0.00023585982853546739, -0.0001785230851965025, -0.00012118634185753763, -6.384958396665752e-05, -6.512855179607868e-06, 5.082390271127224e-05, 0.00010816064605023712, 0.000165497389389202, 0.0002228341472800821, 0.00028017087606713176, 0.00033750763395801187, 0.000394844391848892, 0.0004521811206359416, 0.0005095178494229913, 0.0005668546073138714, 0.0006241913652047515, 0.0006815281230956316, 0.0007388648227788508, 0.0007962015806697309, 0.000853538338560611, 0.0009108750382438302, 0.0009682118543423712, 0.0010255485540255904, 0.0010828853119164705, 0.0011402220698073506, 0.0011975588276982307, 0.0012548955855891109, 0.001312232343479991, 0.001369569101370871, 0.0014269058592617512, 0.0014842426171526313, 0.0015415793750435114, 0.0015989161329343915, 0.0016562528908252716, 0.0017135895323008299, 0.0017709264066070318, 0.00182826304808259, 0.0018855998059734702]}, "gradients/mlp_extractor.policy_net.0.bias": {"_type": "histogram", "values": [1.0, 0.0, 0.0, 1.0, 1.0, 0.0, 0.0, 0.0, 1.0, 1.0, 0.0, 1.0, 0.0, 0.0, 1.0, 0.0, 1.0, 1.0, 2.0, 2.0, 2.0, 0.0, 0.0, 1.0, 0.0, 2.0, 1.0, 3.0, 0.0, 0.0, 2.0, 0.0, 3.0, 2.0, 5.0, 0.0, 3.0, 4.0, 0.0, 2.0, 2.0, 3.0, 2.0, 3.0, 2.0, 2.0, 0.0, 0.0, 1.0, 0.0, 1.0, 1.0, 1.0, 0.0, 0.0, 1.0, 1.0, 0.0, 0.0, 0.0, 0.0, 0.0, 0.0, 1.0], "bins": [-0.0016775564290583134, -0.0016274979570880532, -0.001577439601533115, -0.0015273811295628548, -0.0014773227740079165, -0.0014272643020376563, -0.0013772058300673962, -0.0013271474745124578, -0.0012770890025421977, -0.0012270305305719376, -0.0011769721750169992, -0.001126913703046739, -0.001076855231076479, -0.0010267968755215406, -0.0009767384035512805, -0.0009266799897886813, -0.000876621576026082, -0.0008265631622634828, -0.0007765047485008836, -0.0007264462765306234, -0.0006763878627680242, -0.000626329449005425, -0.0005762709770351648, -0.0005262125632725656, -0.0004761541495099664, -0.00042609573574736714, -0.00037603729288093746, -0.00032597885001450777, -0.00027592043625190854, -0.0002258620224893093, -0.00017580357962287962, -0.00012574513675644994, -7.568672299385071e-05, -2.562829467933625e-05, 2.443013363517821e-05, 7.448856194969267e-05, 0.00012454699026420712, 0.00017460540402680635, 0.00022466384689323604, 0.00027472228975966573, 0.00032478070352226496, 0.0003748391172848642, 0.0004248975601512939, 0.00047495600301772356, 0.0005250144167803228, 0.000575072830542922, 0.0006251313025131822, 0.0006751897162757814, 0.0007252481300383806, 0.0007753065438009799, 0.0008253649575635791, 0.0008754234295338392, 0.0009254818432964385, 0.0009755402570590377, 0.0010255987290292978, 0.0010756570845842361, 0.0011257155565544963, 0.0011757740285247564, 0.0012258323840796947, 0.0012758908560499549, 0.001325949328020215, 0.0013760076835751534, 0.0014260661555454135, 0.0014761246275156736, 0.001526182983070612]}, "gradients/mlp_extractor.policy_net.0.weight": {"_type": "histogram", "values": [2.0, 0.0, 1.0, 0.0, 0.0, 3.0, 4.0, 0.0, 0.0, 2.0, 4.0, 2.0, 3.0, 3.0, 4.0, 4.0, 1.0, 4.0, 3.0, 3.0, 14.0, 3.0, 4.0, 3.0, 2.0, 2.0, 9.0, 4.0, 1.0, 3.0, 3.0, 8.0, 18.0, 45.0, 19.0, 5.0, 6.0, 2.0, 2.0, 0.0, 5.0, 4.0, 7.0, 0.0, 3.0, 5.0, 1.0, 4.0, 6.0, 4.0, 2.0, 3.0, 2.0, 1.0, 3.0, 1.0, 0.0, 4.0, 2.0, 1.0, 0.0, 1.0, 0.0, 1.0], "bins": [-0.00982124637812376, -0.009529758244752884, -0.009238271042704582, -0.008946782909333706, -0.008655295707285404, -0.008363807573914528, -0.008072320371866226, -0.00778083223849535, -0.007489344570785761, -0.007197856903076172, -0.006906369235366583, -0.006614881567656994, -0.0063233934342861176, -0.006031906232237816, -0.0057404180988669395, -0.0054489304311573505, -0.0051574427634477615, -0.0048659550957381725, -0.0045744674280285835, -0.0042829797603189945, -0.0039914920926094055, -0.003700004192069173, -0.00340851629152894, -0.003117028623819351, -0.002825540956109762, -0.002534053288400173, -0.002242565620690584, -0.0019510777201503515, -0.0016595900524407625, -0.0013681023847311735, -0.0010766146006062627, -0.0007851268164813519, -0.0004936400800943375, -0.00020215235417708755, 8.933537174016237e-05, 0.0003808230976574123, 0.0006723108235746622, 0.0009637984912842512, 0.001255286275409162, 0.0015467740595340729, 0.0018382617272436619, 0.002129749394953251, 0.00242123706266284, 0.0027127249632030725, 0.0030042126309126616, 0.0032957002986222506, 0.003587188199162483, 0.0038786758668720722, 0.004170163534581661, 0.00446165120229125, 0.004753138870000839, 0.005044626537710428, 0.005336114205420017, 0.0056276023387908936, 0.0059190900065004826, 0.0062105776742100716, 0.006502065341919661, 0.00679355300962925, 0.007085040677338839, 0.007376528345048428, 0.007668016478419304, 0.007959503680467606, 0.008250991813838482, 0.008542479947209358, 0.00883396714925766]}, "global_step": 26624, "rollout/ep_len_mean": 204.1999969482422, "rollout/ep_rew_mean": 204.1999969482422, "time/fps": 602.0, "train/approx_kl": 0.002357635647058487, "train/clip_fraction": 0.01704101637005806, "train/clip_range": 0.20000000298023224, "train/entropy_loss": -0.518790602684021, "train/explained_variance": 0.25954025983810425, "train/learning_rate": 0.0003000000142492354, "train/loss": 4.646416187286377, "train/policy_gradient_loss": -0.004021256696432829, "train/value_loss": 39.504425048828125, "_wandb": {"runtime": 51}}