{"parameters/mlp_extractor.policy_net.0.weight": {"_type": "histogram", "values": [1.0, 0.0, 0.0, 0.0, 0.0, 1.0, 1.0, 5.0, 2.0, 1.0, 1.0, 6.0, 0.0, 2.0, 4.0, 2.0, 6.0, 5.0, 7.0, 4.0, 6.0, 9.0, 14.0, 8.0, 14.0, 11.0, 4.0, 6.0, 13.0, 9.0, 10.0, 12.0, 7.0, 9.0, 8.0, 8.0, 10.0, 3.0, 5.0, 3.0, 4.0, 3.0, 6.0, 4.0, 3.0, 2.0, 2.0, 1.0, 2.0, 2.0, 1.0, 2.0, 1.0, 1.0, 0.0, 1.0, 1.0, 0.0, 0.0, 1.0, 0.0, 0.0, 1.0, 1.0], "bins": [-0.5957962274551392, -0.5747471451759338, -0.5536980628967285, -0.5326489806175232, -0.5115998983383179, -0.49055081605911255, -0.46950170397758484, -0.4484526216983795, -0.4274035394191742, -0.40635445713996887, -0.38530537486076355, -0.36425626277923584, -0.3432071805000305, -0.3221580982208252, -0.3011090159416199, -0.28005993366241455, -0.25901085138320923, -0.2379617691040039, -0.21691268682479858, -0.19586358964443207, -0.17481450736522675, -0.15376542508602142, -0.1327163279056549, -0.11166724562644958, -0.09061816334724426, -0.06956908106803894, -0.04851999133825302, -0.027470901608467102, -0.00642181932926178, 0.014627262949943542, 0.03567636013031006, 0.05672544240951538, 0.0777745246887207, 0.09882360696792603, 0.11987269669771194, 0.14092178642749786, 0.16197086870670319, 0.1830199509859085, 0.20406904816627502, 0.22511813044548035, 0.24616721272468567, 0.267216295003891, 0.2882653772830963, 0.309314489364624, 0.33036357164382935, 0.35141265392303467, 0.37246173620224, 0.3935108184814453, 0.41455990076065063, 0.43560898303985596, 0.4566580653190613, 0.4777071475982666, 0.4987562298774719, 0.5198053121566772, 0.5408544540405273, 0.5619034767150879, 0.582952618598938, 0.6040017008781433, 0.6250507831573486, 0.646099865436554, 0.6671489477157593, 0.6881980299949646, 0.7092471122741699, 0.73029625415802, 0.7513452768325806]}, "_timestamp": 1650597964.7338567, "_runtime": 26, "parameters/mlp_extractor.policy_net.0.bias": {"_type": "histogram", "values": [1.0, 0.0, 0.0, 1.0, 0.0, 0.0, 1.0, 1.0, 1.0, 0.0, 0.0, 1.0, 2.0, 0.0, 0.0, 1.0, 0.0, 0.0, 1.0, 1.0, 1.0, 0.0, 2.0, 2.0, 2.0, 2.0, 2.0, 2.0, 1.0, 0.0, 1.0, 1.0, 0.0, 1.0, 0.0, 4.0, 3.0, 0.0, 4.0, 2.0, 1.0, 2.0, 0.0, 5.0, 0.0, 3.0, 0.0, 5.0, 1.0, 1.0, 1.0, 0.0, 0.0, 0.0, 0.0, 0.0, 1.0, 0.0, 0.0, 0.0, 1.0, 1.0, 0.0, 1.0], "bins": [-0.027277452871203423, -0.026531817391514778, -0.025786180049180984, -0.02504054456949234, -0.024294907227158546, -0.023549271747469902, -0.02280363440513611, -0.022057998925447464, -0.02131236344575882, -0.020566727966070175, -0.01982109062373638, -0.019075455144047737, -0.018329817801713943, -0.0175841823220253, -0.016838546842336655, -0.01609290950000286, -0.015347273088991642, -0.014601636677980423, -0.013856000266969204, -0.013110363855957985, -0.01236472837626934, -0.011619091965258121, -0.010873455554246902, -0.010127820074558258, -0.009382182732224464, -0.008636546321213245, -0.007890909910202026, -0.007145273964852095, -0.006399638019502163, -0.005654001608490944, -0.004908365197479725, -0.004162729252129793, -0.0034170933067798615, -0.002671457128599286, -0.0019258208340033889, -0.0011801845394074917, -0.0004345483612269163, 0.00031108781695365906, 0.001056724227964878, 0.0018023601733148098, 0.002547996584326029, 0.003293632762506604, 0.0040392689406871796, 0.004784905351698399, 0.005530541762709618, 0.006276177708059549, 0.007021814119070768, 0.0077674500644207, 0.008513086475431919, 0.009258722886443138, 0.010004359297454357, 0.010749995708465576, 0.01149563118815422, 0.01224126759916544, 0.012986904010176659, 0.013732539489865303, 0.014478176832199097, 0.015223813243210316, 0.015969449654221535, 0.01671508513391018, 0.017460722476243973, 0.018206357955932617, 0.01895199343562126, 0.019697630777955055, 0.0204432662576437]}, "parameters/mlp_extractor.policy_net.2.weight": {"_type": "histogram", "values": [2.0, 0.0, 2.0, 1.0, 1.0, 5.0, 2.0, 4.0, 6.0, 10.0, 16.0, 11.0, 25.0, 14.0, 14.0, 32.0, 43.0, 57.0, 62.0, 76.0, 82.0, 83.0, 95.0, 104.0, 134.0, 130.0, 127.0, 130.0, 163.0, 176.0, 180.0, 157.0, 167.0, 162.0, 196.0, 168.0, 147.0, 146.0, 140.0, 154.0, 122.0, 99.0, 105.0, 85.0, 85.0, 61.0, 58.0, 55.0, 39.0, 35.0, 23.0, 31.0, 10.0, 16.0, 14.0, 10.0, 6.0, 6.0, 3.0, 4.0, 2.0, 2.0, 0.0, 1.0], "bins": [-0.6381382346153259, -0.6185250878334045, -0.5989120006561279, -0.5792988538742065, -0.5596857070922852, -0.5400725603103638, -0.5204594731330872, -0.5008463263511658, -0.4812331795692444, -0.4616200625896454, -0.442006915807724, -0.422393798828125, -0.4027806520462036, -0.3831675350666046, -0.3635544180870056, -0.34394127130508423, -0.32432815432548523, -0.30471503734588623, -0.28510189056396484, -0.26548877358436584, -0.24587562680244446, -0.22626250982284546, -0.20664937794208527, -0.18703624606132507, -0.16742311418056488, -0.1478099822998047, -0.1281968504190445, -0.1085837259888649, -0.0889705941081047, -0.06935746222734451, -0.04974433779716492, -0.030131205916404724, -0.010518074035644531, 0.009095055982470512, 0.028708186000585556, 0.04832131415605545, 0.06793444603681564, 0.08754757791757584, 0.10716070234775543, 0.12677383422851562, 0.14638696610927582, 0.166000097990036, 0.1856132298707962, 0.2052263617515564, 0.2248394787311554, 0.24445262551307678, 0.2640657424926758, 0.28367888927459717, 0.30329200625419617, 0.32290512323379517, 0.34251827001571655, 0.36213138699531555, 0.38174453377723694, 0.40135765075683594, 0.4209707975387573, 0.4405839145183563, 0.4601970314979553, 0.4798101484775543, 0.4994232952594757, 0.5190364122390747, 0.5386495590209961, 0.5582627058029175, 0.5778757929801941, 0.5974889397621155, 0.6171020865440369]}, "parameters/mlp_extractor.policy_net.2.bias": {"_type": "histogram", "values": [1.0, 0.0, 0.0, 0.0, 0.0, 0.0, 0.0, 0.0, 0.0, 0.0, 0.0, 0.0, 0.0, 0.0, 2.0, 0.0, 0.0, 1.0, 1.0, 0.0, 0.0, 1.0, 2.0, 0.0, 3.0, 1.0, 2.0, 6.0, 2.0, 1.0, 0.0, 1.0, 6.0, 7.0, 7.0, 1.0, 4.0, 3.0, 0.0, 3.0, 1.0, 0.0, 0.0, 2.0, 0.0, 0.0, 0.0, 0.0, 1.0, 1.0, 0.0, 0.0, 0.0, 1.0, 0.0, 1.0, 0.0, 0.0, 1.0, 0.0, 0.0, 0.0, 0.0, 1.0], "bins": [-0.013033484108746052, -0.012614129111170769, -0.012194774113595486, -0.011775419116020203, -0.01135606411844492, -0.010936709120869637, -0.010517355054616928, -0.010098000057041645, -0.009678645059466362, -0.009259290061891079, -0.008839935064315796, -0.008420580066740513, -0.00800122506916523, -0.007581870537251234, -0.007162515539675951, -0.006743161007761955, -0.006323805544525385, -0.005904450546950102, -0.005485095549374819, -0.005065741017460823, -0.00464638601988554, -0.004227031022310257, -0.003807676024734974, -0.0033883212599903345, -0.0029689662624150515, -0.0025496112648397684, -0.002130256500095129, -0.001710901502519846, -0.0012915466213598847, -0.0008721917401999235, -0.00045283674262464046, -3.348197788000107e-05, 0.000385873019695282, 0.0008052279008552432, 0.0012245827820152044, 0.0016439377795904875, 0.002063292544335127, 0.00248264754191041, 0.002902002539485693, 0.0033213573042303324, 0.0037407123018056154, 0.004160067066550255, 0.004579422064125538, 0.004998777061700821, 0.005418132059276104, 0.005837487056851387, 0.00625684205442667, 0.006676196586340666, 0.007095551583915949, 0.007514906581491232, 0.007934261113405228, 0.00835361611098051, 0.008772971108555794, 0.009192326106131077, 0.00961168110370636, 0.010031036101281643, 0.010450391098856926, 0.010869746096432209, 0.011289101094007492, 0.011708456091582775, 0.012127811089158058, 0.012547165155410767, 0.012966521084308624, 0.013385875150561333, 0.013805230148136616]}, "parameters/mlp_extractor.value_net.0.weight": {"_type": "histogram", "values": [3.0, 0.0, 0.0, 1.0, 1.0, 0.0, 1.0, 0.0, 0.0, 3.0, 3.0, 3.0, 1.0, 1.0, 3.0, 9.0, 4.0, 4.0, 9.0, 4.0, 1.0, 6.0, 3.0, 7.0, 5.0, 7.0, 11.0, 8.0, 7.0, 8.0, 10.0, 5.0, 7.0, 9.0, 4.0, 6.0, 9.0, 8.0, 5.0, 13.0, 5.0, 12.0, 6.0, 2.0, 8.0, 5.0, 3.0, 4.0, 3.0, 5.0, 2.0, 1.0, 1.0, 2.0, 1.0, 2.0, 1.0, 0.0, 1.0, 0.0, 0.0, 1.0, 1.0, 1.0], "bins": [-0.6571016907691956, -0.6355136632919312, -0.6139256358146667, -0.5923376083374023, -0.5707496404647827, -0.5491616129875183, -0.5275735855102539, -0.5059855580329895, -0.4843975305557251, -0.4628095030784607, -0.4412214756011963, -0.4196334779262543, -0.39804545044898987, -0.37645742297172546, -0.35486942529678345, -0.33328139781951904, -0.31169337034225464, -0.29010534286499023, -0.26851731538772583, -0.2469293177127838, -0.2253412902355194, -0.203753262758255, -0.1821652501821518, -0.16057723760604858, -0.13898921012878418, -0.11740119010210037, -0.09581317007541656, -0.07422515004873276, -0.05263713002204895, -0.031049109995365143, -0.009461089968681335, 0.012126922607421875, 0.03371495008468628, 0.05530297011137009, 0.0768909901380539, 0.0984790101647377, 0.12006703019142151, 0.1416550576686859, 0.16324307024478912, 0.18483108282089233, 0.20641911029815674, 0.22800713777542114, 0.24959515035152435, 0.27118316292762756, 0.29277119040489197, 0.31435921788215637, 0.3359472155570984, 0.3575352430343628, 0.3791232705116272, 0.4007112979888916, 0.422299325466156, 0.443887323141098, 0.4654753506183624, 0.48706337809562683, 0.5086513757705688, 0.5302394032478333, 0.5518274307250977, 0.5734154582023621, 0.5950034856796265, 0.6165915131568909, 0.6381795406341553, 0.6597675085067749, 0.6813555359840393, 0.7029435634613037, 0.7245315909385681]}, "parameters/mlp_extractor.value_net.0.bias": {"_type": "histogram", "values": [2.0, 0.0, 4.0, 4.0, 0.0, 2.0, 3.0, 8.0, 3.0, 2.0, 3.0, 1.0, 0.0, 0.0, 0.0, 0.0, 0.0, 0.0, 0.0, 0.0, 0.0, 0.0, 0.0, 0.0, 0.0, 0.0, 0.0, 0.0, 0.0, 0.0, 0.0, 0.0, 0.0, 0.0, 0.0, 0.0, 0.0, 0.0, 0.0, 0.0, 0.0, 0.0, 0.0, 0.0, 0.0, 0.0, 0.0, 0.0, 0.0, 0.0, 0.0, 0.0, 0.0, 2.0, 2.0, 3.0, 3.0, 4.0, 4.0, 5.0, 5.0, 3.0, 0.0, 1.0], "bins": [-0.28650856018066406, -0.2775287330150604, -0.2685489058494568, -0.25956907868385315, -0.2505892515182495, -0.24160942435264587, -0.23262959718704224, -0.2236497700214386, -0.21466994285583496, -0.20569011569023132, -0.19671028852462769, -0.18773046135902405, -0.1787506341934204, -0.16977080702781677, -0.16079097986221313, -0.1518111526966095, -0.14283131062984467, -0.13385148346424103, -0.12487165629863739, -0.11589182913303375, -0.10691200196743011, -0.09793217480182648, -0.08895234018564224, -0.0799725130200386, -0.07099268585443497, -0.06201285868883133, -0.05303303152322769, -0.044053200632333755, -0.03507337346673012, -0.02609354630112648, -0.017113715410232544, -0.008133888244628906, 0.0008459389209747314, 0.009825767017900944, 0.018805595114827156, 0.027785424143075943, 0.03676525130867958, 0.04574507847428322, 0.054724909365177155, 0.06370473653078079, 0.07268456369638443, 0.08166439086198807, 0.0906442180275917, 0.09962405264377594, 0.10860387980937958, 0.11758370697498322, 0.12656353414058685, 0.1355433613061905, 0.14452318847179413, 0.15350301563739777, 0.1624828428030014, 0.17146266996860504, 0.18044249713420868, 0.18942232429981232, 0.19840216636657715, 0.2073819935321808, 0.21636182069778442, 0.22534164786338806, 0.2343214750289917, 0.24330130219459534, 0.252281129360199, 0.2612609565258026, 0.27024078369140625, 0.2792206108570099, 0.2882004380226135]}, "parameters/mlp_extractor.value_net.2.weight": {"_type": "histogram", "values": [3.0, 0.0, 0.0, 2.0, 2.0, 4.0, 9.0, 8.0, 8.0, 11.0, 20.0, 24.0, 26.0, 34.0, 28.0, 62.0, 59.0, 53.0, 86.0, 74.0, 83.0, 114.0, 89.0, 106.0, 122.0, 132.0, 135.0, 138.0, 146.0, 142.0, 155.0, 137.0, 152.0, 163.0, 146.0, 167.0, 121.0, 126.0, 145.0, 123.0, 122.0, 116.0, 90.0, 97.0, 79.0, 66.0, 73.0, 60.0, 48.0, 43.0, 44.0, 24.0, 21.0, 19.0, 14.0, 7.0, 4.0, 5.0, 1.0, 4.0, 1.0, 1.0, 0.0, 2.0], "bins": [-0.9826405644416809, -0.9520944356918335, -0.9215482473373413, -0.8910021185874939, -0.8604559898376465, -0.8299098014831543, -0.7993636727333069, -0.7688175439834595, -0.7382714152336121, -0.7077252864837646, -0.6771790981292725, -0.646632969379425, -0.6160868406295776, -0.5855406522750854, -0.554994523525238, -0.5244483947753906, -0.4939022362232208, -0.463356077671051, -0.4328099489212036, -0.4022637903690338, -0.3717176616191864, -0.3411715030670166, -0.3106253743171692, -0.2800792157649994, -0.24953307211399078, -0.21898692846298218, -0.18844078481197357, -0.15789464116096497, -0.12734848260879517, -0.09680233895778656, -0.06625619530677795, -0.03571005165576935, -0.005163908004760742, 0.025382237508893013, 0.05592838302254677, 0.08647453039884567, 0.11702067404985428, 0.14756682515144348, 0.1781129688024521, 0.2086591124534607, 0.2392052561044693, 0.2697513997554779, 0.3002975583076477, 0.3308436870574951, 0.3613898456096649, 0.3919360041618347, 0.42248213291168213, 0.45302826166152954, 0.48357442021369934, 0.5141205787658691, 0.5446667075157166, 0.575212836265564, 0.6057590246200562, 0.6363051533699036, 0.666851282119751, 0.6973974704742432, 0.7279435992240906, 0.758489727973938, 0.7890359163284302, 0.8195820450782776, 0.850128173828125, 0.8806743621826172, 0.9112204909324646, 0.941766619682312, 0.9723127484321594]}, "parameters/mlp_extractor.value_net.2.bias": {"_type": "histogram", "values": [1.0, 0.0, 1.0, 0.0, 1.0, 1.0, 2.0, 0.0, 0.0, 3.0, 2.0, 2.0, 0.0, 1.0, 4.0, 3.0, 1.0, 1.0, 0.0, 2.0, 0.0, 0.0, 0.0, 0.0, 0.0, 0.0, 0.0, 0.0, 0.0, 0.0, 0.0, 0.0, 0.0, 0.0, 0.0, 0.0, 0.0, 0.0, 0.0, 0.0, 0.0, 0.0, 1.0, 0.0, 2.0, 0.0, 2.0, 1.0, 6.0, 4.0, 2.0, 3.0, 5.0, 3.0, 0.0, 3.0, 3.0, 1.0, 1.0, 0.0, 0.0, 0.0, 0.0, 2.0], "bins": [-0.22286923229694366, -0.21599383652210236, -0.20911844074726105, -0.20224304497241974, -0.19536764919757843, -0.18849225342273712, -0.1816168576478958, -0.1747414618730545, -0.1678660660982132, -0.1609906703233719, -0.15411527454853058, -0.14723987877368927, -0.14036448299884796, -0.13348908722400665, -0.12661369144916534, -0.11973829567432404, -0.11286289244890213, -0.10598749667406082, -0.09911210089921951, -0.0922367051243782, -0.0853613093495369, -0.07848590612411499, -0.07161051034927368, -0.06473511457443237, -0.05785972252488136, -0.050984326750040054, -0.044108930975198746, -0.03723353147506714, -0.03035813756287098, -0.02348273992538452, -0.016607344150543213, -0.009731948375701904, -0.0028565526008605957, 0.004018843639642, 0.010894239880144596, 0.01776963658630848, 0.024645032361149788, 0.031520429998636246, 0.038395825773477554, 0.04527122154831886, 0.05214661732316017, 0.05902201309800148, 0.06589741259813309, 0.0727728083729744, 0.0796482041478157, 0.08652359992265701, 0.09339899569749832, 0.10027439147233963, 0.10714978724718094, 0.11402518302202225, 0.12090057879686356, 0.12777598202228546, 0.13465137779712677, 0.14152677357196808, 0.1484021693468094, 0.1552775651216507, 0.162152960896492, 0.1690283566713333, 0.17590375244617462, 0.18277914822101593, 0.18965454399585724, 0.19652993977069855, 0.20340533554553986, 0.21028073132038116, 0.21715612709522247]}, "parameters/action_net.weight": {"_type": "histogram", "values": [3.0, 0.0, 1.0, 0.0, 0.0, 2.0, 1.0, 4.0, 3.0, 5.0, 0.0, 2.0, 3.0, 1.0, 1.0, 2.0, 1.0, 0.0, 3.0, 4.0, 3.0, 1.0, 2.0, 2.0, 5.0, 1.0, 4.0, 4.0, 1.0, 2.0, 2.0, 1.0, 1.0, 3.0, 1.0, 1.0, 3.0, 5.0, 1.0, 4.0, 2.0, 3.0, 1.0, 4.0, 2.0, 4.0, 0.0, 1.0, 2.0, 1.0, 2.0, 2.0, 2.0, 0.0, 5.0, 2.0, 2.0, 4.0, 2.0, 0.0, 0.0, 0.0, 1.0, 3.0], "bins": [-0.1098315492272377, -0.10640835016965866, -0.10298515856266022, -0.09956195950508118, -0.09613876789808273, -0.09271556884050369, -0.08929237723350525, -0.08586917817592621, -0.08244597911834717, -0.07902278006076813, -0.07559958845376968, -0.07217638939619064, -0.0687531977891922, -0.06532999873161316, -0.06190680339932442, -0.058483608067035675, -0.05506041646003723, -0.05163722112774849, -0.04821402579545975, -0.04479082673788071, -0.04136763513088226, -0.03794443607330322, -0.03452124074101448, -0.03109804540872574, -0.027674850076436996, -0.024251654744148254, -0.020828459411859512, -0.01740526221692562, -0.013982066884636879, -0.010558871552348137, -0.007135674357414246, -0.0037124790251255035, -0.00028927624225616455, 0.003133919555693865, 0.006557115353643894, 0.009980311617255211, 0.013403506949543953, 0.016826702281832695, 0.020249899476766586, 0.02367309480905533, 0.02709629014134407, 0.030519485473632812, 0.033942680805921555, 0.0373658761382103, 0.04078907519578934, 0.04421226680278778, 0.04763546586036682, 0.05105866119265556, 0.054481856524944305, 0.05790505185723305, 0.06132824718952179, 0.06475144624710083, 0.06817463785409927, 0.07159783691167831, 0.07502102851867676, 0.0784442275762558, 0.08186742663383484, 0.08529062569141388, 0.08871381729841232, 0.09213701635599136, 0.09556020796298981, 0.09898340702056885, 0.10240660607814789, 0.10582979768514633, 0.10925298929214478]}, "parameters/action_net.bias": {"_type": "histogram", "values": [1.0, 0.0, 0.0, 0.0, 0.0, 0.0, 0.0, 0.0, 0.0, 0.0, 0.0, 0.0, 0.0, 0.0, 0.0, 0.0, 0.0, 0.0, 0.0, 0.0, 0.0, 0.0, 0.0, 0.0, 0.0, 0.0, 0.0, 0.0, 0.0, 0.0, 0.0, 0.0, 0.0, 0.0, 0.0, 0.0, 0.0, 0.0, 0.0, 0.0, 0.0, 0.0, 0.0, 0.0, 0.0, 0.0, 0.0, 0.0, 0.0, 0.0, 0.0, 0.0, 0.0, 0.0, 0.0, 0.0, 0.0, 0.0, 0.0, 0.0, 0.0, 0.0, 0.0, 1.0], "bins": [-0.003850255161523819, -0.003729934571310878, -0.0036096139810979366, -0.003489293623715639, -0.003368973033502698, -0.0032486524432897568, -0.0031283318530768156, -0.0030080112628638744, -0.002887690905481577, -0.0027673703152686357, -0.0026470497250556946, -0.002526729367673397, -0.002406408777460456, -0.0022860881872475147, -0.0021657675970345736, -0.0020454470068216324, -0.0019251264166086912, -0.00180480582639575, -0.0016844853525981307, -0.0015641647623851895, -0.0014438442885875702, -0.001323523698374629, -0.0012032031081616879, -0.0010828825179487467, -0.0009625620441511273, -0.0008422415121458471, -0.0007219209801405668, -0.0006016003899276257, -0.0004812798579223454, -0.00036095932591706514, -0.00024063873570412397, -0.00012031820369884372, 2.561137080192566e-09, 0.00012032310769427568, 0.00024064365425147116, 0.0003609642153605819, 0.00048128474736586213, 0.0006016052793711424, 0.0007219258695840836, 0.0008422464015893638, 0.0009625669335946441, 0.0010828875238075852, 0.0012032079976052046, 0.0013235285878181458, 0.001443849178031087, 0.0015641696518287063, 0.0016844902420416474, 0.0018048107158392668, 0.001925131306052208, 0.002045451896265149, 0.0021657724864780903, 0.002286092843860388, 0.002406413434073329, 0.00252673402428627, 0.0026470546144992113, 0.0027673752047121525, 0.00288769556209445, 0.003008016152307391, 0.0031283367425203323, 0.00324865709990263, 0.003368977690115571, 0.003489298280328512, 0.0036096188705414534, 0.0037299394607543945, 0.0038502600509673357]}, "parameters/value_net.weight": {"_type": "histogram", "values": [1.0, 0.0, 0.0, 2.0, 3.0, 3.0, 4.0, 5.0, 7.0, 0.0, 0.0, 0.0, 0.0, 0.0, 0.0, 0.0, 0.0, 0.0, 0.0, 0.0, 0.0, 0.0, 0.0, 0.0, 0.0, 0.0, 0.0, 0.0, 0.0, 0.0, 0.0, 0.0, 0.0, 0.0, 0.0, 0.0, 0.0, 0.0, 0.0, 0.0, 0.0, 0.0, 0.0, 0.0, 0.0, 0.0, 0.0, 0.0, 0.0, 0.0, 0.0, 0.0, 0.0, 2.0, 3.0, 8.0, 5.0, 4.0, 4.0, 3.0, 4.0, 5.0, 0.0, 1.0], "bins": [-0.9396485686302185, -0.9098738431930542, -0.8800991177558899, -0.8503243923187256, -0.8205496668815613, -0.790774941444397, -0.7610002160072327, -0.7312254905700684, -0.701450765132904, -0.6716760396957397, -0.6419013142585754, -0.6121265888214111, -0.5823518633842468, -0.5525771379470825, -0.5228024125099182, -0.4930276870727539, -0.4632529318332672, -0.4334782063961029, -0.4037034809589386, -0.3739287555217743, -0.34415403008461, -0.3143792748451233, -0.284604549407959, -0.2548298239707947, -0.22505511343479156, -0.19528038799762726, -0.16550566256046295, -0.13573092222213745, -0.10595620423555374, -0.07618147134780884, -0.04640674591064453, -0.016632020473480225, 0.013142704963684082, 0.04291743040084839, 0.0726921558380127, 0.1024668887257576, 0.1322416067123413, 0.1620163470506668, 0.19179107248783112, 0.22156579792499542, 0.25134050846099854, 0.28111523389816284, 0.31088995933532715, 0.34066468477249146, 0.37043941020965576, 0.40021413564682007, 0.4299888610839844, 0.4597635865211487, 0.4895383417606354, 0.5193130970001221, 0.5490878224372864, 0.5788625478744507, 0.608637273311615, 0.6384119987487793, 0.6681867241859436, 0.6979614496231079, 0.7277361750602722, 0.7575109004974365, 0.7872856259346008, 0.8170603513717651, 0.8468350768089294, 0.8766098022460938, 0.9063845276832581, 0.9361592531204224, 0.9659339785575867]}, "parameters/value_net.bias": {"_type": "histogram", "values": [0.0, 0.0, 0.0, 0.0, 0.0, 0.0, 0.0, 0.0, 0.0, 0.0, 0.0, 0.0, 0.0, 0.0, 0.0, 0.0, 0.0, 0.0, 0.0, 0.0, 0.0, 0.0, 0.0, 0.0, 0.0, 0.0, 0.0, 0.0, 0.0, 0.0, 0.0, 0.0, 1.0, 0.0, 0.0, 0.0, 0.0, 0.0, 0.0, 0.0, 0.0, 0.0, 0.0, 0.0, 0.0, 0.0, 0.0, 0.0, 0.0, 0.0, 0.0, 0.0, 0.0, 0.0, 0.0, 0.0, 0.0, 0.0, 0.0, 0.0, 0.0, 0.0, 0.0, 0.0], "bins": [0.35967057943344116, 0.35967057943344116, 0.35967057943344116, 0.35967057943344116, 0.35967057943344116, 0.35967057943344116, 0.35967057943344116, 0.35967057943344116, 0.35967057943344116, 0.35967057943344116, 0.35967057943344116, 0.35967057943344116, 0.35967057943344116, 0.35967057943344116, 0.35967057943344116, 0.35967057943344116, 0.35967057943344116, 0.35967057943344116, 0.35967057943344116, 0.35967057943344116, 0.35967057943344116, 0.35967057943344116, 0.35967057943344116, 0.35967057943344116, 0.35967057943344116, 0.35967057943344116, 0.35967057943344116, 0.35967057943344116, 0.35967057943344116, 0.35967057943344116, 0.35967057943344116, 0.35967057943344116, 0.35967057943344116, 0.35967057943344116, 0.35967057943344116, 0.35967057943344116, 0.35967057943344116, 0.35967057943344116, 0.35967057943344116, 0.35967057943344116, 0.35967057943344116, 0.35967057943344116, 0.35967057943344116, 0.35967057943344116, 0.35967057943344116, 0.35967057943344116, 0.35967057943344116, 0.35967057943344116, 0.35967057943344116, 0.35967057943344116, 0.35967057943344116, 0.35967057943344116, 0.35967057943344116, 0.35967057943344116, 0.35967057943344116, 0.35967057943344116, 0.35967057943344116, 0.35967057943344116, 0.35967057943344116, 0.35967057943344116, 0.35967057943344116, 0.35967057943344116, 0.35967057943344116, 0.35967057943344116, 0.35967057943344116]}, "videos": {"_type": "video-file", "path": "media/videos/videos_8_fefb1af35f8891e10ea0.mp4", "sha256": "fefb1af35f8891e10ea0305fa9733031bf0b2d42cdd34011b2fc2335d2c6ac78", "size": 21193}, "_step": 15, "gradients/value_net.bias": {"_type": "histogram", "values": [0.0, 0.0, 0.0, 0.0, 0.0, 0.0, 0.0, 0.0, 0.0, 0.0, 0.0, 0.0, 0.0, 0.0, 0.0, 0.0, 0.0, 0.0, 0.0, 0.0, 0.0, 0.0, 0.0, 0.0, 0.0, 0.0, 0.0, 0.0, 0.0, 0.0, 0.0, 0.0, 1.0, 0.0, 0.0, 0.0, 0.0, 0.0, 0.0, 0.0, 0.0, 0.0, 0.0, 0.0, 0.0, 0.0, 0.0, 0.0, 0.0, 0.0, 0.0, 0.0, 0.0, 0.0, 0.0, 0.0, 0.0, 0.0, 0.0, 0.0, 0.0, 0.0, 0.0, 0.0], "bins": [-0.8194507360458374, -0.8194507360458374, -0.8194507360458374, -0.8194507360458374, -0.8194507360458374, -0.8194507360458374, -0.8194507360458374, -0.8194507360458374, -0.8194507360458374, -0.8194507360458374, -0.8194507360458374, -0.8194507360458374, -0.8194507360458374, -0.8194507360458374, -0.8194507360458374, -0.8194507360458374, -0.8194507360458374, -0.8194507360458374, -0.8194507360458374, -0.8194507360458374, -0.8194507360458374, -0.8194507360458374, -0.8194507360458374, -0.8194507360458374, -0.8194507360458374, -0.8194507360458374, -0.8194507360458374, -0.8194507360458374, -0.8194507360458374, -0.8194507360458374, -0.8194507360458374, -0.8194507360458374, -0.8194507360458374, -0.8194507360458374, -0.8194507360458374, -0.8194507360458374, -0.8194507360458374, -0.8194507360458374, -0.8194507360458374, -0.8194507360458374, -0.8194507360458374, -0.8194507360458374, -0.8194507360458374, -0.8194507360458374, -0.8194507360458374, -0.8194507360458374, -0.8194507360458374, -0.8194507360458374, -0.8194507360458374, -0.8194507360458374, -0.8194507360458374, -0.8194507360458374, -0.8194507360458374, -0.8194507360458374, -0.8194507360458374, -0.8194507360458374, -0.8194507360458374, -0.8194507360458374, -0.8194507360458374, -0.8194507360458374, -0.8194507360458374, -0.8194507360458374, -0.8194507360458374, -0.8194507360458374, -0.8194507360458374]}, "gradients/value_net.weight": {"_type": "histogram", "values": [2.0, 6.0, 3.0, 3.0, 2.0, 0.0, 1.0, 0.0, 0.0, 2.0, 1.0, 4.0, 3.0, 0.0, 1.0, 4.0, 0.0, 0.0, 0.0, 1.0, 0.0, 3.0, 2.0, 1.0, 0.0, 0.0, 0.0, 0.0, 0.0, 0.0, 0.0, 0.0, 0.0, 0.0, 0.0, 0.0, 0.0, 0.0, 0.0, 0.0, 0.0, 1.0, 0.0, 1.0, 1.0, 2.0, 1.0, 0.0, 2.0, 0.0, 0.0, 0.0, 2.0, 0.0, 1.0, 0.0, 0.0, 1.0, 0.0, 2.0, 1.0, 4.0, 3.0, 3.0], "bins": [-1.1705682277679443, -1.1342865228652954, -1.0980048179626465, -1.0617231130599976, -1.0254414081573486, -0.9891597032546997, -0.9528779983520508, -0.9165962934494019, -0.8803145885467529, -0.844032883644104, -0.8077511787414551, -0.7714694738388062, -0.7351877689361572, -0.6989060640335083, -0.6626243591308594, -0.6263426542282104, -0.5900610089302063, -0.5537793040275574, -0.5174975991249084, -0.4812158942222595, -0.4449341893196106, -0.40865248441696167, -0.37237080931663513, -0.3360891044139862, -0.2998073995113373, -0.26352569460868835, -0.22724398970603943, -0.1909622997045517, -0.15468059480190277, -0.11839888989925385, -0.08211719989776611, -0.04583549499511719, -0.009553790092468262, 0.026727911084890366, 0.06300961226224899, 0.09929130971431732, 0.13557301461696625, 0.17185471951961517, 0.2081364095211029, 0.24441811442375183, 0.28069981932640076, 0.3169815242290497, 0.3532632291316986, 0.38954490423202515, 0.4258266091346741, 0.462108314037323, 0.4983900189399719, 0.5346717238426208, 0.5709534287452698, 0.6072351336479187, 0.6435168385505676, 0.6797985434532166, 0.7160802483558655, 0.7523619532585144, 0.7886435985565186, 0.8249253034591675, 0.8612070083618164, 0.8974887132644653, 0.9337704181671143, 0.9700521230697632, 1.006333827972412, 1.042615532875061, 1.07889723777771, 1.1151789426803589, 1.1514606475830078]}, "gradients/action_net.bias": {"_type": "histogram", "values": [1.0, 0.0, 0.0, 0.0, 0.0, 0.0, 0.0, 0.0, 0.0, 0.0, 0.0, 0.0, 0.0, 0.0, 0.0, 0.0, 0.0, 0.0, 0.0, 0.0, 0.0, 0.0, 0.0, 0.0, 0.0, 0.0, 0.0, 0.0, 0.0, 0.0, 0.0, 0.0, 0.0, 0.0, 0.0, 0.0, 0.0, 0.0, 0.0, 0.0, 0.0, 0.0, 0.0, 0.0, 0.0, 0.0, 0.0, 0.0, 0.0, 0.0, 0.0, 0.0, 0.0, 0.0, 0.0, 0.0, 0.0, 0.0, 0.0, 0.0, 0.0, 0.0, 0.0, 1.0], "bins": [-0.05177764967083931, -0.050159599632024765, -0.04854154586791992, -0.04692349582910538, -0.04530544579029083, -0.04368739202618599, -0.042069341987371445, -0.0404512882232666, -0.03883323818445206, -0.03721518814563751, -0.03559713438153267, -0.033979084342718124, -0.03236103057861328, -0.030742980539798737, -0.029124930500984192, -0.027506878599524498, -0.025888826698064804, -0.02427077479660511, -0.022652722895145416, -0.02103467285633087, -0.019416620954871178, -0.017798569053411484, -0.01618051901459694, -0.014562467113137245, -0.012944415211677551, -0.011326363310217857, -0.009708312340080738, -0.008090261369943619, -0.006472209468483925, -0.004854157567024231, -0.0032361065968871117, -0.0016180556267499924, 0.0, 0.0016180514357984066, 0.003236102871596813, 0.00485415430739522, 0.006472205743193626, 0.00809025764465332, 0.00970830861479044, 0.011326359584927559, 0.012944411486387253, 0.014562463387846947, 0.01618051528930664, 0.017798565328121185, 0.01941661722958088, 0.021034669131040573, 0.022652719169855118, 0.02427077107131481, 0.025888822972774506, 0.0275068748742342, 0.029124926775693893, 0.030742976814508438, 0.03236103057861328, 0.033979080617427826, 0.03559713065624237, 0.037215180695056915, 0.03883323445916176, 0.0404512844979763, 0.042069338262081146, 0.04368738830089569, 0.045305438339710236, 0.04692349210381508, 0.04854154214262962, 0.05015959590673447, 0.05177764594554901]}, "gradients/action_net.weight": {"_type": "histogram", "values": [1.0, 1.0, 1.0, 0.0, 0.0, 1.0, 0.0, 0.0, 0.0, 2.0, 3.0, 2.0, 1.0, 3.0, 1.0, 2.0, 2.0, 1.0, 4.0, 1.0, 3.0, 4.0, 1.0, 1.0, 6.0, 4.0, 5.0, 3.0, 3.0, 3.0, 4.0, 1.0, 1.0, 4.0, 3.0, 3.0, 3.0, 5.0, 4.0, 6.0, 1.0, 1.0, 4.0, 3.0, 1.0, 4.0, 1.0, 2.0, 2.0, 1.0, 3.0, 1.0, 2.0, 3.0, 2.0, 0.0, 0.0, 0.0, 1.0, 0.0, 0.0, 1.0, 1.0, 1.0], "bins": [-0.01959034986793995, -0.01897815242409706, -0.018365953117609024, -0.017753753811120987, -0.0171415563672781, -0.01652935892343521, -0.015917159616947174, -0.015304961241781712, -0.014692762866616249, -0.014080564491450787, -0.013468366116285324, -0.012856167741119862, -0.012243969365954399, -0.011631770990788937, -0.011019572615623474, -0.010407374240458012, -0.00979517586529255, -0.009182977490127087, -0.008570779114961624, -0.007958580739796162, -0.007346382364630699, -0.006734183989465237, -0.006121985614299774, -0.005509787239134312, -0.004897588863968849, -0.004285390488803387, -0.003673192113637924, -0.0030609937384724617, -0.002448795363306999, -0.0018365969881415367, -0.0012243986129760742, -0.0006122002378106117, -1.862645149230957e-09, 0.0006121965125203133, 0.0012243948876857758, 0.0018365932628512383, 0.0024487916380167007, 0.0030609900131821632, 0.0036731883883476257, 0.004285386763513088, 0.004897585138678551, 0.005509783513844013, 0.006121981889009476, 0.006734180264174938, 0.007346378639340401, 0.007958577014505863, 0.008570775389671326, 0.009182973764836788, 0.00979517214000225, 0.010407370515167713, 0.011019568890333176, 0.011631767265498638, 0.0122439656406641, 0.012856164015829563, 0.013468362390995026, 0.014080560766160488, 0.01469275914132595, 0.015304957516491413, 0.015917155891656876, 0.016529355198144913, 0.0171415526419878, 0.01775375008583069, 0.018365949392318726, 0.018978148698806763, 0.01959034614264965]}, "gradients/mlp_extractor.value_net.2.bias": {"_type": "histogram", "values": [1.0, 0.0, 0.0, 0.0, 0.0, 3.0, 0.0, 0.0, 0.0, 0.0, 1.0, 1.0, 1.0, 3.0, 0.0, 1.0, 0.0, 2.0, 0.0, 3.0, 1.0, 1.0, 1.0, 2.0, 0.0, 2.0, 2.0, 1.0, 0.0, 2.0, 3.0, 1.0, 1.0, 3.0, 0.0, 3.0, 1.0, 1.0, 2.0, 3.0, 1.0, 0.0, 0.0, 1.0, 0.0, 3.0, 2.0, 0.0, 0.0, 0.0, 1.0, 1.0, 2.0, 2.0, 1.0, 1.0, 0.0, 0.0, 1.0, 1.0, 0.0, 0.0, 0.0, 1.0], "bins": [-0.24908262491226196, -0.24127300083637238, -0.2334633767604828, -0.2256537526845932, -0.2178441286087036, -0.21003450453281403, -0.20222488045692444, -0.19441525638103485, -0.18660563230514526, -0.17879600822925568, -0.1709863841533661, -0.1631767600774765, -0.15536713600158691, -0.14755751192569733, -0.13974788784980774, -0.13193826377391815, -0.12412863224744797, -0.11631900817155838, -0.10850938409566879, -0.1006997600197792, -0.09289013594388962, -0.08508050441741943, -0.07727088034152985, -0.06946125626564026, -0.06165163591504097, -0.05384201183915138, -0.046032387763261795, -0.03822275996208191, -0.03041313774883747, -0.022603511810302734, -0.014793887734413147, -0.00698426365852356, 0.0008253604173660278, 0.008634984493255615, 0.016444608569145203, 0.02425423450767994, 0.03206385672092438, 0.03987348452210426, 0.04768310859799385, 0.05549273267388344, 0.06330235302448273, 0.07111197710037231, 0.0789216011762619, 0.08673122525215149, 0.09454084932804108, 0.10235047340393066, 0.11016009747982025, 0.11796972155570984, 0.12577936053276062, 0.1335889846086502, 0.1413986086845398, 0.14920823276042938, 0.15701785683631897, 0.16482748091220856, 0.17263710498809814, 0.18044672906398773, 0.18825635313987732, 0.1960659772157669, 0.2038756012916565, 0.21168522536754608, 0.21949484944343567, 0.22730447351932526, 0.23511409759521484, 0.24292372167110443, 0.250733345746994]}, "gradients/mlp_extractor.value_net.2.weight": {"_type": "histogram", "values": [1.0, 0.0, 0.0, 0.0, 0.0, 0.0, 1.0, 0.0, 1.0, 4.0, 3.0, 2.0, 6.0, 3.0, 9.0, 18.0, 9.0, 20.0, 37.0, 31.0, 49.0, 35.0, 57.0, 66.0, 93.0, 119.0, 120.0, 159.0, 175.0, 188.0, 223.0, 298.0, 431.0, 358.0, 238.0, 215.0, 190.0, 178.0, 158.0, 110.0, 101.0, 74.0, 71.0, 58.0, 30.0, 38.0, 23.0, 19.0, 21.0, 17.0, 12.0, 9.0, 6.0, 2.0, 4.0, 1.0, 1.0, 1.0, 0.0, 1.0, 0.0, 1.0, 0.0, 1.0], "bins": [-0.23623554408550262, -0.22898024320602417, -0.22172494232654572, -0.21446964144706726, -0.2072143405675888, -0.19995903968811035, -0.1927037388086319, -0.18544843792915344, -0.178193137049675, -0.17093783617019653, -0.16368253529071808, -0.15642723441123962, -0.14917193353176117, -0.14191663265228271, -0.13466133177280426, -0.1274060308933258, -0.12015073746442795, -0.1128954365849495, -0.10564013570547104, -0.09838483482599258, -0.09112953394651413, -0.08387424051761627, -0.07661893963813782, -0.06936363875865936, -0.06210833415389061, -0.054853033274412155, -0.0475977323949337, -0.040342435240745544, -0.03308713436126709, -0.025831833481788635, -0.01857653260231018, -0.011321231722831726, -0.0040659308433532715, 0.003189369570463896, 0.010444669984281063, 0.017699969932436943, 0.024955270811915398, 0.0322105698287487, 0.03946587070822716, 0.04672117158770561, 0.05397647246718407, 0.06123177334666252, 0.06848707050085068, 0.07574237138032913, 0.08299767225980759, 0.09025297313928604, 0.0975082740187645, 0.10476357489824295, 0.1120188757777214, 0.11927417665719986, 0.12652947008609772, 0.13378477096557617, 0.14104007184505463, 0.14829537272453308, 0.15555067360401154, 0.16280597448349, 0.17006127536296844, 0.1773165762424469, 0.18457187712192535, 0.1918271780014038, 0.19908247888088226, 0.20633777976036072, 0.21359308063983917, 0.22084838151931763, 0.22810368239879608]}, "gradients/mlp_extractor.value_net.0.bias": {"_type": "histogram", "values": [2.0, 2.0, 1.0, 1.0, 0.0, 1.0, 1.0, 2.0, 2.0, 1.0, 1.0, 1.0, 0.0, 0.0, 3.0, 3.0, 3.0, 2.0, 1.0, 2.0, 1.0, 1.0, 0.0, 1.0, 0.0, 1.0, 1.0, 2.0, 0.0, 2.0, 1.0, 0.0, 3.0, 2.0, 1.0, 0.0, 1.0, 0.0, 2.0, 2.0, 0.0, 2.0, 2.0, 1.0, 1.0, 0.0, 1.0, 0.0, 0.0, 1.0, 0.0, 0.0, 0.0, 0.0, 3.0, 0.0, 0.0, 0.0, 0.0, 1.0, 0.0, 1.0, 0.0, 1.0], "bins": [-1.502583622932434, -1.4489095211029053, -1.3952354192733765, -1.3415614366531372, -1.2878873348236084, -1.2342132329940796, -1.1805391311645508, -1.1268651485443115, -1.0731910467147827, -1.019516944885254, -0.9658429026603699, -0.9121688008308411, -0.858494758605957, -0.8048206567764282, -0.7511465549468994, -0.6974725127220154, -0.6437984108924866, -0.5901243090629578, -0.5364502668380737, -0.4827761650085449, -0.4291021227836609, -0.3754280209541321, -0.32175394892692566, -0.26807987689971924, -0.21440580487251282, -0.1607317328453064, -0.10705765336751938, -0.05338357388973236, 0.00029049813747406006, 0.053964585065841675, 0.1076386570930481, 0.16131272912025452, 0.21498680114746094, 0.26866087317466736, 0.3223349452018738, 0.3760090470314026, 0.4296830892562866, 0.48335719108581543, 0.5370312929153442, 0.5907053351402283, 0.6443793773651123, 0.6980534791946411, 0.7517275214195251, 0.805401623249054, 0.859075665473938, 0.9127497673034668, 0.9664238691329956, 1.0200979709625244, 1.0737719535827637, 1.1274460554122925, 1.1811201572418213, 1.2347941398620605, 1.2884682416915894, 1.3421423435211182, 1.395816445350647, 1.4494905471801758, 1.5031646490097046, 1.5568387508392334, 1.6105128526687622, 1.6641868352890015, 1.7178609371185303, 1.771535038948059, 1.825209140777588, 1.8788831233978271, 1.932557225227356]}, "gradients/mlp_extractor.value_net.0.weight": {"_type": "histogram", "values": [1.0, 0.0, 0.0, 0.0, 2.0, 0.0, 0.0, 0.0, 0.0, 3.0, 0.0, 0.0, 0.0, 1.0, 0.0, 0.0, 1.0, 0.0, 0.0, 0.0, 0.0, 1.0, 4.0, 4.0, 5.0, 2.0, 8.0, 12.0, 13.0, 8.0, 15.0, 11.0, 7.0, 12.0, 8.0, 6.0, 9.0, 11.0, 10.0, 9.0, 14.0, 13.0, 7.0, 11.0, 7.0, 10.0, 6.0, 3.0, 5.0, 2.0, 0.0, 1.0, 0.0, 3.0, 1.0, 0.0, 0.0, 1.0, 2.0, 0.0, 0.0, 2.0, 3.0, 2.0], "bins": [-2.567718744277954, -2.496567487716675, -2.4254159927368164, -2.354264736175537, -2.2831132411956787, -2.2119619846343994, -2.140810489654541, -2.0696592330932617, -1.9985079765319824, -1.9273566007614136, -1.8562052249908447, -1.7850539684295654, -1.7139025926589966, -1.6427512168884277, -1.5715998411178589, -1.50044846534729, -1.4292970895767212, -1.3581457138061523, -1.2869943380355835, -1.2158429622650146, -1.1446917057037354, -1.0735403299331665, -1.0023889541625977, -0.9312375783920288, -0.8600862622261047, -0.7889348864555359, -0.7177835702896118, -0.646632194519043, -0.5754808187484741, -0.50432950258255, -0.4331781268119812, -0.36202678084373474, -0.2908754348754883, -0.21972408890724182, -0.14857272803783417, -0.07742136716842651, -0.006270021200180054, 0.0648813247680664, 0.13603270053863525, 0.2071840465068817, 0.2783353924751282, 0.34948673844337463, 0.4206380844116211, 0.49178946018218994, 0.5629408359527588, 0.6340921521186829, 0.7052435278892517, 0.7763948440551758, 0.8475462198257446, 0.9186975955963135, 0.9898489117622375, 1.0610003471374512, 1.1321516036987305, 1.2033029794692993, 1.2744543552398682, 1.345605731010437, 1.4167571067810059, 1.4879084825515747, 1.5590598583221436, 1.6302111148834229, 1.7013624906539917, 1.7725138664245605, 1.8436652421951294, 1.9148166179656982, 1.9859678745269775]}, "gradients/mlp_extractor.policy_net.2.bias": {"_type": "histogram", "values": [1.0, 0.0, 0.0, 1.0, 1.0, 0.0, 1.0, 1.0, 2.0, 0.0, 0.0, 2.0, 0.0, 1.0, 1.0, 4.0, 1.0, 2.0, 0.0, 2.0, 1.0, 1.0, 0.0, 3.0, 1.0, 2.0, 4.0, 1.0, 1.0, 1.0, 0.0, 0.0, 0.0, 3.0, 2.0, 0.0, 1.0, 1.0, 0.0, 2.0, 2.0, 0.0, 2.0, 0.0, 4.0, 1.0, 1.0, 0.0, 2.0, 0.0, 1.0, 2.0, 0.0, 0.0, 1.0, 0.0, 0.0, 0.0, 1.0, 0.0, 0.0, 2.0, 0.0, 1.0], "bins": [-0.010130014270544052, -0.009814535267651081, -0.00949905626475811, -0.009183577261865139, -0.008868098258972168, -0.008552620187401772, -0.0082371411845088, -0.00792166218161583, -0.007606183178722858, -0.007290704175829887, -0.006975225172936916, -0.006659746635705233, -0.006344267632812262, -0.0060287886299192905, -0.005713310092687607, -0.005397831089794636, -0.005082352086901665, -0.004766873084008694, -0.004451394081115723, -0.004135915543884039, -0.003820436540991068, -0.003504957538098097, -0.0031894787680357695, -0.002873999997973442, -0.002558520995080471, -0.0022430419921875, -0.0019275632221251726, -0.0016120843356475234, -0.0012966054491698742, -0.000981126562692225, -0.0006656476762145758, -0.0003501689061522484, -3.468897193670273e-05, 0.0002807899145409465, 0.0005962688010185957, 0.0009117476874962449, 0.0012272265739738941, 0.0015427054604515433, 0.0018581843469291925, 0.00217366311699152, 0.002489142119884491, 0.002804621122777462, 0.0031200998928397894, 0.0034355786629021168, 0.003751057665795088, 0.004066536668688059, 0.004382015205919743, 0.004697494208812714, 0.005012973211705685, 0.005328452214598656, 0.005643931217491627, 0.0059594097547233105, 0.0062748887576162815, 0.0065903677605092525, 0.006905846297740936, 0.007221325300633907, 0.007536804303526878, 0.00785228330641985, 0.00816776230931282, 0.008483241312205791, 0.008798720315098763, 0.009114198386669159, 0.00942967738956213, 0.009745156392455101, 0.010060635395348072]}, "gradients/mlp_extractor.policy_net.2.weight": {"_type": "histogram", "values": [1.0, 1.0, 1.0, 0.0, 1.0, 1.0, 2.0, 4.0, 2.0, 0.0, 3.0, 5.0, 6.0, 7.0, 8.0, 5.0, 6.0, 11.0, 22.0, 28.0, 25.0, 33.0, 51.0, 63.0, 77.0, 100.0, 119.0, 143.0, 182.0, 230.0, 316.0, 405.0, 365.0, 426.0, 328.0, 241.0, 170.0, 145.0, 115.0, 87.0, 77.0, 69.0, 46.0, 46.0, 31.0, 20.0, 14.0, 11.0, 11.0, 7.0, 6.0, 1.0, 2.0, 5.0, 1.0, 2.0, 1.0, 3.0, 3.0, 1.0, 1.0, 0.0, 2.0, 1.0], "bins": [-0.0027691309805959463, -0.002684064442291856, -0.0025989979039877653, -0.0025139315985143185, -0.002428865060210228, -0.0023437985219061375, -0.002258731983602047, -0.0021736654452979565, -0.002088598906993866, -0.0020035323686897755, -0.0019184659468010068, -0.0018333994084969163, -0.0017483329866081476, -0.0016632664483040571, -0.0015781999099999666, -0.0014931333716958761, -0.0014080670662224293, -0.0013230005279183388, -0.00123793410602957, -0.0011528675677254796, -0.001067801145836711, -0.0009827346075326204, -0.0008976680692285299, -0.0008126015891321003, -0.0007275351090356708, -0.0006424686289392412, -0.0005574021488428116, -0.0004723356105387211, -0.0003872691304422915, -0.0003022026503458619, -0.0002171361120417714, -0.00013206963194534183, -4.700338467955589e-05, 3.806310996878892e-05, 0.00012312960461713374, 0.00020819611381739378, 0.00029326259391382337, 0.00037832907401025295, 0.00046339561231434345, 0.000548462092410773, 0.0006335285725072026, 0.0007185950526036322, 0.0008036615327000618, 0.0008887280710041523, 0.0009737945511005819, 0.0010588610311970115, 0.001143927569501102, 0.0012289939913898706, 0.0013140605296939611, 0.0013991270679980516, 0.0014841934898868203, 0.0015692600281909108, 0.0016543264500796795, 0.00173939298838377, 0.0018244595266878605, 0.001909526064991951, 0.0019945926032960415, 0.002079659141600132, 0.0021647256799042225, 0.002249792218208313, 0.00233485852368176, 0.0024199250619858503, 0.002504991600289941, 0.0025900581385940313, 0.002675124444067478]}, "gradients/mlp_extractor.policy_net.0.bias": {"_type": "histogram", "values": [1.0, 0.0, 0.0, 0.0, 0.0, 0.0, 1.0, 0.0, 1.0, 3.0, 1.0, 0.0, 1.0, 3.0, 3.0, 1.0, 1.0, 2.0, 2.0, 2.0, 2.0, 3.0, 4.0, 0.0, 1.0, 2.0, 1.0, 0.0, 2.0, 1.0, 0.0, 4.0, 3.0, 2.0, 3.0, 1.0, 0.0, 1.0, 3.0, 0.0, 0.0, 1.0, 0.0, 0.0, 1.0, 2.0, 0.0, 0.0, 1.0, 0.0, 1.0, 0.0, 0.0, 0.0, 0.0, 0.0, 0.0, 0.0, 1.0, 0.0, 0.0, 0.0, 0.0, 2.0], "bins": [-0.02639312669634819, -0.025390874594449997, -0.024388622492551804, -0.02338637039065361, -0.022384118288755417, -0.021381866186857224, -0.02037961222231388, -0.019377360120415688, -0.018375108018517494, -0.0173728559166193, -0.016370603814721107, -0.01536835078150034, -0.014366098679602146, -0.013363846577703953, -0.012361593544483185, -0.011359341442584991, -0.010357089340686798, -0.009354837238788605, -0.008352585136890411, -0.007350332103669643, -0.00634808000177145, -0.005345827899873257, -0.004343575332313776, -0.0033413227647542953, -0.002339070662856102, -0.001336818328127265, -0.00033456599339842796, 0.000667686341330409, 0.001669938676059246, 0.0026721907779574394, 0.00367444334551692, 0.004676695913076401, 0.005678944289684296, 0.006681196391582489, 0.00768344895914197, 0.00868570152670145, 0.009687953628599644, 0.010690205730497837, 0.011692458763718605, 0.012694710865616798, 0.013696962967514992, 0.014699215069413185, 0.01570146717131138, 0.016703719273209572, 0.017705973237752914, 0.018708225339651108, 0.0197104774415493, 0.020712729543447495, 0.021714981645345688, 0.02271723374724388, 0.023719485849142075, 0.024721737951040268, 0.02572399005293846, 0.026726242154836655, 0.027728496119379997, 0.02873074822127819, 0.029733000323176384, 0.030735252425074577, 0.03173750638961792, 0.03273975849151611, 0.03374201059341431, 0.0347442626953125, 0.03574651479721069, 0.03674876689910889, 0.03775101900100708]}, "gradients/mlp_extractor.policy_net.0.weight": {"_type": "histogram", "values": [1.0, 0.0, 1.0, 0.0, 0.0, 0.0, 0.0, 1.0, 0.0, 1.0, 0.0, 1.0, 0.0, 1.0, 2.0, 0.0, 2.0, 2.0, 1.0, 2.0, 3.0, 0.0, 5.0, 4.0, 3.0, 2.0, 8.0, 6.0, 4.0, 8.0, 5.0, 10.0, 13.0, 50.0, 45.0, 5.0, 8.0, 5.0, 12.0, 3.0, 4.0, 2.0, 5.0, 4.0, 3.0, 3.0, 3.0, 0.0, 3.0, 1.0, 4.0, 2.0, 0.0, 2.0, 1.0, 1.0, 0.0, 1.0, 0.0, 1.0, 0.0, 0.0, 0.0, 2.0], "bins": [-0.012610478326678276, -0.012240205891430378, -0.011869934387505054, -0.011499661952257156, -0.011129389517009258, -0.01075911708176136, -0.010388845577836037, -0.010018573142588139, -0.00964830070734024, -0.009278028272092342, -0.008907756768167019, -0.00853748433291912, -0.008167211897671223, -0.007796939928084612, -0.007426667958498001, -0.007056395523250103, -0.0066861240193247795, -0.006315852049738169, -0.005945579614490271, -0.00557530764490366, -0.005205035209655762, -0.004834763240069151, -0.00446449127048254, -0.004094218835234642, -0.0037239468656480312, -0.003353674663230777, -0.0029834024608135223, -0.0026131304912269115, -0.002242858288809657, -0.0018725860863924026, -0.0015023141168057919, -0.0011320419143885374, -0.0007617706432938576, -0.00039149849908426404, -2.1226354874670506e-05, 0.0003490457311272621, 0.0007193179335445166, 0.001089590135961771, 0.0014598621055483818, 0.0018301343079656363, 0.0022004065103828907, 0.002570678712800145, 0.0029409509152173996, 0.0033112228848040104, 0.003681495087221265, 0.004051767289638519, 0.00442203925922513, 0.004792311228811741, 0.005162583664059639, 0.00553285563364625, 0.005903128068894148, 0.006273400038480759, 0.006643672473728657, 0.0070139444433152676, 0.007384216412901878, 0.0077544888481497765, 0.008124761283397675, 0.008495033718645573, 0.008865305222570896, 0.009235577657818794, 0.009605850093066692, 0.00997612252831459, 0.010346394032239914, 0.010716666467487812, 0.011086937971413136]}, "global_step": 14336, "rollout/ep_len_mean": 92.5999984741211, "rollout/ep_rew_mean": 92.5999984741211, "time/fps": 640.0, "train/approx_kl": 0.008777530863881111, "train/clip_fraction": 0.09047851711511612, "train/clip_range": 0.20000000298023224, "train/entropy_loss": -0.5884534120559692, "train/explained_variance": 0.6554752588272095, "train/learning_rate": 0.0003000000142492354, "train/loss": 17.094554901123047, "train/policy_gradient_loss": -0.015568018890917301, "train/value_loss": 49.659095764160156}