{"parameters/mlp_extractor.policy_net.0.weight": {"_type": "histogram", "values": [1.0, 0.0, 0.0, 1.0, 0.0, 1.0, 2.0, 1.0, 0.0, 2.0, 3.0, 0.0, 1.0, 3.0, 4.0, 5.0, 5.0, 4.0, 7.0, 6.0, 6.0, 11.0, 5.0, 8.0, 8.0, 6.0, 8.0, 11.0, 8.0, 10.0, 9.0, 6.0, 15.0, 5.0, 14.0, 5.0, 12.0, 10.0, 7.0, 6.0, 5.0, 1.0, 5.0, 2.0, 3.0, 3.0, 2.0, 2.0, 5.0, 1.0, 3.0, 0.0, 1.0, 2.0, 0.0, 1.0, 1.0, 1.0, 1.0, 0.0, 0.0, 0.0, 0.0, 1.0], "bins": [-0.6621926426887512, -0.6396024823188782, -0.6170122623443604, -0.5944221019744873, -0.5718319416046143, -0.5492417216300964, -0.5266515612602234, -0.5040613412857056, -0.4814711809158325, -0.4588809907436371, -0.43629080057144165, -0.4137006402015686, -0.39111045002937317, -0.36852025985717773, -0.3459300994873047, -0.32333990931510925, -0.3007497191429138, -0.2781595289707184, -0.25556933879852295, -0.2329791784286499, -0.21038898825645447, -0.18779879808425903, -0.1652086228132248, -0.14261844754219055, -0.12002825736999512, -0.09743807464838028, -0.07484789192676544, -0.052257709205150604, -0.029667526483535767, -0.007077343761920929, 0.015512838959693909, 0.03810301423072815, 0.060693204402923584, 0.08328338712453842, 0.10587356984615326, 0.1284637451171875, 0.15105393528938293, 0.17364412546157837, 0.1962343007326126, 0.21882447600364685, 0.24141466617584229, 0.2640048563480377, 0.28659504652023315, 0.3091852068901062, 0.33177539706230164, 0.35436558723449707, 0.3769557476043701, 0.39954593777656555, 0.422136127948761, 0.4447263181209564, 0.46731650829315186, 0.4899066686630249, 0.512496829032898, 0.5350870490074158, 0.5576772093772888, 0.5802674293518066, 0.6028575897216797, 0.6254477500915527, 0.6480379700660706, 0.6706281304359436, 0.6932183504104614, 0.7158085107803345, 0.7383986711502075, 0.7609888315200806, 0.7835790514945984]}, "_timestamp": 1650654378.677705, "_runtime": 64, "parameters/mlp_extractor.policy_net.0.bias": {"_type": "histogram", "values": [1.0, 0.0, 2.0, 0.0, 0.0, 0.0, 0.0, 0.0, 0.0, 1.0, 0.0, 0.0, 2.0, 0.0, 0.0, 1.0, 1.0, 0.0, 1.0, 1.0, 0.0, 0.0, 1.0, 2.0, 2.0, 4.0, 4.0, 3.0, 5.0, 2.0, 0.0, 3.0, 5.0, 3.0, 1.0, 4.0, 2.0, 1.0, 2.0, 3.0, 2.0, 1.0, 0.0, 1.0, 0.0, 1.0, 0.0, 0.0, 0.0, 0.0, 0.0, 0.0, 0.0, 0.0, 0.0, 0.0, 0.0, 0.0, 0.0, 0.0, 0.0, 0.0, 1.0, 1.0], "bins": [-0.020482929423451424, -0.019794344902038574, -0.019105758517980576, -0.018417173996567726, -0.017728589475154877, -0.017040003091096878, -0.01635141856968403, -0.01566283404827118, -0.01497424766421318, -0.014285662211477757, -0.013597077690064907, -0.012908492237329483, -0.012219906784594059, -0.011531321331858635, -0.010842736810445786, -0.010154151357710361, -0.009465566836297512, -0.008776981383562088, -0.008088396862149239, -0.0073998114094138145, -0.0067112259566783905, -0.006022640969604254, -0.005334055982530117, -0.004645470529794693, -0.003956885542720556, -0.003268300322815776, -0.0025797151029109955, -0.0018911301158368587, -0.0012025448959320784, -0.000513959676027298, 0.00017462531104683876, 0.0008632107637822628, 0.0015517957508563995, 0.00224038097076118, 0.0029289661906659603, 0.003617551177740097, 0.004306136630475521, 0.004994721617549658, 0.0056833066046237946, 0.006371892057359219, 0.007060477044433355, 0.007749062031507492, 0.008437647484242916, 0.00912623293697834, 0.00981481745839119, 0.010503402911126614, 0.011191988363862038, 0.011880572885274887, 0.012569158338010311, 0.013257743790745735, 0.013946328312158585, 0.014634913764894009, 0.015323499217629433, 0.016012083739042282, 0.01670067012310028, 0.01738925464451313, 0.01807783916592598, 0.01876642368733883, 0.019455010071396828, 0.020143594592809677, 0.020832179114222527, 0.021520765498280525, 0.022209350019693375, 0.022897936403751373, 0.023586520925164223]}, "parameters/mlp_extractor.policy_net.2.weight": {"_type": "histogram", "values": [2.0, 1.0, 1.0, 0.0, 5.0, 3.0, 6.0, 6.0, 6.0, 9.0, 16.0, 15.0, 23.0, 25.0, 27.0, 34.0, 38.0, 52.0, 53.0, 60.0, 76.0, 85.0, 91.0, 112.0, 75.0, 123.0, 130.0, 132.0, 153.0, 165.0, 160.0, 154.0, 159.0, 158.0, 166.0, 168.0, 167.0, 172.0, 148.0, 118.0, 123.0, 134.0, 103.0, 99.0, 94.0, 80.0, 65.0, 66.0, 47.0, 33.0, 34.0, 28.0, 19.0, 22.0, 16.0, 14.0, 4.0, 4.0, 5.0, 1.0, 5.0, 1.0, 2.0, 3.0], "bins": [-0.6290955543518066, -0.6100206971168518, -0.5909458994865417, -0.5718710422515869, -0.5527961850166321, -0.5337213277816772, -0.5146465301513672, -0.49557167291641235, -0.4764968454837799, -0.45742201805114746, -0.4383471608161926, -0.4192723333835602, -0.40019750595092773, -0.3811226487159729, -0.36204782128334045, -0.342972993850708, -0.3238981366157532, -0.3048233091831207, -0.2857484519481659, -0.26667362451553345, -0.2475987821817398, -0.22852393984794617, -0.20944911241531372, -0.19037427008152008, -0.17129942774772644, -0.1522245854139328, -0.13314974308013916, -0.11407491564750671, -0.09500007331371307, -0.07592523097991943, -0.05685039609670639, -0.03777556121349335, -0.018700718879699707, 0.00037411972880363464, 0.019448958337306976, 0.03852379694581032, 0.05759863555431366, 0.0766734778881073, 0.09574831277132034, 0.11482314765453339, 0.13389798998832703, 0.15297283232212067, 0.1720476746559143, 0.19112250208854675, 0.2101973444223404, 0.22927218675613403, 0.24834701418876648, 0.2674218416213989, 0.28649669885635376, 0.3055715262889862, 0.32464638352394104, 0.3437212109565735, 0.3627960681915283, 0.38187089562416077, 0.4009457230567932, 0.42002058029174805, 0.4390954077243805, 0.45817023515701294, 0.4772450923919678, 0.4963199198246002, 0.5153947472572327, 0.5344696044921875, 0.5535444617271423, 0.5726192593574524, 0.5916941165924072]}, "parameters/mlp_extractor.policy_net.2.bias": {"_type": "histogram", "values": [1.0, 0.0, 0.0, 0.0, 0.0, 0.0, 0.0, 0.0, 0.0, 0.0, 1.0, 0.0, 0.0, 0.0, 0.0, 0.0, 1.0, 0.0, 0.0, 0.0, 0.0, 1.0, 1.0, 1.0, 0.0, 0.0, 0.0, 0.0, 0.0, 1.0, 0.0, 2.0, 0.0, 3.0, 0.0, 3.0, 2.0, 0.0, 2.0, 2.0, 4.0, 3.0, 3.0, 4.0, 1.0, 1.0, 4.0, 6.0, 5.0, 0.0, 1.0, 2.0, 0.0, 0.0, 3.0, 2.0, 1.0, 1.0, 0.0, 0.0, 1.0, 0.0, 0.0, 1.0], "bins": [-0.018081169575452805, -0.017647795379161835, -0.017214421182870865, -0.016781046986579895, -0.016347670927643776, -0.015914296731352806, -0.015480922535061836, -0.015047548338770866, -0.014614174142479897, -0.014180799946188927, -0.013747424818575382, -0.013314050622284412, -0.012880676425993443, -0.012447301298379898, -0.012013927102088928, -0.011580552905797958, -0.011147178709506989, -0.010713804513216019, -0.010280429385602474, -0.009847055189311504, -0.009413680993020535, -0.00898030586540699, -0.00854693166911602, -0.00811355747282505, -0.007680182345211506, -0.007246807683259249, -0.006813433486968279, -0.006380058825016022, -0.005946684628725052, -0.005513309966772795, -0.005079935304820538, -0.004646561108529568, -0.004213186912238598, -0.0037798124831169844, -0.003346438053995371, -0.0029130633920431137, -0.002479689195752144, -0.0020463145337998867, -0.0016129401046782732, -0.0011795656755566597, -0.0007461912464350462, -0.00031281678820960224, 0.00012055767001584172, 0.0005539321573451161, 0.0009873065864667296, 0.001420681132003665, 0.0018540555611252785, 0.002287429990246892, 0.0027208044193685055, 0.003154178848490119, 0.0035875532776117325, 0.00402092793956399, 0.0044543021358549595, 0.004887676797807217, 0.0053210509940981865, 0.005754425656050444, 0.006187800318002701, 0.006621174979954958, 0.007054549176245928, 0.007487923838198185, 0.007921298034489155, 0.0083546731621027, 0.008788047358393669, 0.009221421554684639, 0.009654795750975609]}, "parameters/mlp_extractor.value_net.0.weight": {"_type": "histogram", "values": [2.0, 0.0, 0.0, 0.0, 0.0, 0.0, 1.0, 0.0, 1.0, 0.0, 2.0, 1.0, 0.0, 2.0, 2.0, 3.0, 2.0, 4.0, 6.0, 2.0, 4.0, 9.0, 6.0, 6.0, 9.0, 10.0, 7.0, 5.0, 8.0, 10.0, 9.0, 10.0, 11.0, 10.0, 8.0, 6.0, 8.0, 7.0, 10.0, 3.0, 13.0, 8.0, 8.0, 7.0, 5.0, 5.0, 3.0, 2.0, 5.0, 1.0, 3.0, 3.0, 0.0, 0.0, 3.0, 0.0, 2.0, 1.0, 0.0, 0.0, 0.0, 1.0, 0.0, 2.0], "bins": [-0.8966801166534424, -0.8694237470626831, -0.8421673774719238, -0.8149110078811646, -0.7876546382904053, -0.760398268699646, -0.7331418991088867, -0.7058855295181274, -0.6786291599273682, -0.6513727903366089, -0.6241164207458496, -0.5968600511550903, -0.569603681564331, -0.5423473119735718, -0.5150909423828125, -0.4878346025943756, -0.4605782628059387, -0.43332189321517944, -0.40606552362442017, -0.3788091540336609, -0.3515527844429016, -0.32429641485214233, -0.29704007506370544, -0.26978370547294617, -0.2425273358821869, -0.2152709662914276, -0.18801459670066833, -0.16075824201107025, -0.13350187242031097, -0.1062455028295517, -0.07898914813995361, -0.051732778549194336, -0.024476349353790283, 0.0027800165116786957, 0.030036382377147675, 0.057292744517326355, 0.08454911410808563, 0.11180548369884491, 0.139061838388443, 0.16631820797920227, 0.19357457756996155, 0.22083094716072083, 0.2480873167514801, 0.275343656539917, 0.30260002613067627, 0.32985639572143555, 0.3571127653121948, 0.3843691349029541, 0.4116255044937134, 0.43888187408447266, 0.46613824367523193, 0.4933946132659912, 0.5206509828567505, 0.5479073524475098, 0.575163722038269, 0.6024200916290283, 0.6296764612197876, 0.6569328308105469, 0.6841892004013062, 0.7114455699920654, 0.7387019395828247, 0.765958309173584, 0.7932146787643433, 0.8204710483551025, 0.847727358341217]}, "parameters/mlp_extractor.value_net.0.bias": {"_type": "histogram", "values": [5.0, 2.0, 6.0, 7.0, 4.0, 3.0, 3.0, 2.0, 2.0, 0.0, 0.0, 0.0, 0.0, 0.0, 0.0, 0.0, 0.0, 0.0, 0.0, 0.0, 0.0, 0.0, 0.0, 0.0, 0.0, 0.0, 0.0, 0.0, 0.0, 0.0, 0.0, 0.0, 0.0, 0.0, 0.0, 0.0, 0.0, 0.0, 0.0, 0.0, 0.0, 0.0, 0.0, 0.0, 0.0, 0.0, 0.0, 0.0, 0.0, 1.0, 1.0, 6.0, 2.0, 5.0, 2.0, 4.0, 3.0, 3.0, 2.0, 0.0, 0.0, 0.0, 0.0, 1.0], "bins": [-0.2899071276187897, -0.279830664396286, -0.26975417137145996, -0.2596777081489563, -0.24960123002529144, -0.2395247519016266, -0.22944828867912292, -0.21937181055545807, -0.2092953324317932, -0.19921885430812836, -0.1891423761844635, -0.17906591296195984, -0.16898943483829498, -0.15891295671463013, -0.14883649349212646, -0.1387600153684616, -0.12868353724479675, -0.1186070591211319, -0.10853058844804764, -0.09845411777496338, -0.08837763965129852, -0.07830116152763367, -0.06822469085454941, -0.05814822018146515, -0.04807174205780029, -0.037995267659425735, -0.027918793261051178, -0.01784231886267662, -0.007765844464302063, 0.0023106299340724945, 0.012387104332447052, 0.02246357500553131, 0.03254005312919617, 0.042616527527570724, 0.05269300192594528, 0.06276947259902954, 0.0728459507226944, 0.08292242884635925, 0.09299889951944351, 0.10307537019252777, 0.11315184831619263, 0.12322832643985748, 0.13330480456352234, 0.143381267786026, 0.15345774590969086, 0.1635342240333557, 0.17361068725585938, 0.18368716537952423, 0.1937636435031891, 0.20384012162685394, 0.2139165997505188, 0.22399306297302246, 0.23406954109668732, 0.24414601922035217, 0.25422248244285583, 0.2642989754676819, 0.27437543869018555, 0.2844519019126892, 0.29452839493751526, 0.3046048581600189, 0.31468135118484497, 0.32475781440734863, 0.3348342776298523, 0.34491074085235596, 0.354987233877182]}, "parameters/mlp_extractor.value_net.2.weight": {"_type": "histogram", "values": [4.0, 1.0, 4.0, 3.0, 9.0, 7.0, 14.0, 14.0, 16.0, 26.0, 31.0, 32.0, 33.0, 35.0, 50.0, 59.0, 72.0, 57.0, 85.0, 88.0, 74.0, 86.0, 85.0, 111.0, 98.0, 107.0, 111.0, 148.0, 153.0, 141.0, 129.0, 155.0, 149.0, 124.0, 142.0, 136.0, 116.0, 128.0, 108.0, 120.0, 101.0, 102.0, 115.0, 76.0, 90.0, 89.0, 67.0, 76.0, 62.0, 41.0, 43.0, 49.0, 26.0, 33.0, 16.0, 9.0, 8.0, 7.0, 8.0, 4.0, 6.0, 5.0, 1.0, 1.0], "bins": [-0.9696769118309021, -0.9393364191055298, -0.9089959859848022, -0.8786554932594299, -0.8483150005340576, -0.8179745674133301, -0.7876340746879578, -0.7572935819625854, -0.7269531488418579, -0.6966126561164856, -0.6662722229957581, -0.6359317302703857, -0.6055912971496582, -0.5752508044242859, -0.5449103116989136, -0.514569878578186, -0.4842293858528137, -0.4538889229297638, -0.42354846000671387, -0.39320796728134155, -0.3628675043582916, -0.3325270414352417, -0.3021865487098694, -0.27184608578681946, -0.24150562286376953, -0.2111651599407196, -0.18082468211650848, -0.15048420429229736, -0.12014374136924744, -0.08980327844619751, -0.05946280062198639, -0.02912232279777527, 0.0012181997299194336, 0.03155867010354996, 0.06189914047718048, 0.092239610850811, 0.12258008122444153, 0.15292054414749146, 0.18326102197170258, 0.2136014997959137, 0.24394196271896362, 0.27428242564201355, 0.3046228885650635, 0.3349633812904358, 0.3653038442134857, 0.39564430713653564, 0.42598479986190796, 0.4563252627849579, 0.4866657257080078, 0.5170062184333801, 0.5473466515541077, 0.57768714427948, 0.6080275774002075, 0.6383680701255798, 0.6687085628509521, 0.6990489959716797, 0.729389488697052, 0.7597299814224243, 0.7900704145431519, 0.8204109072685242, 0.8507513999938965, 0.881091833114624, 0.9114323258399963, 0.9417728185653687, 0.9721132516860962]}, "parameters/mlp_extractor.value_net.2.bias": {"_type": "histogram", "values": [2.0, 0.0, 0.0, 1.0, 0.0, 4.0, 0.0, 4.0, 2.0, 3.0, 4.0, 2.0, 1.0, 6.0, 3.0, 1.0, 2.0, 0.0, 3.0, 0.0, 0.0, 0.0, 1.0, 0.0, 0.0, 0.0, 0.0, 0.0, 0.0, 0.0, 0.0, 0.0, 0.0, 0.0, 0.0, 0.0, 0.0, 0.0, 0.0, 0.0, 0.0, 0.0, 0.0, 3.0, 2.0, 3.0, 0.0, 1.0, 3.0, 1.0, 4.0, 0.0, 1.0, 1.0, 0.0, 1.0, 3.0, 0.0, 1.0, 0.0, 0.0, 0.0, 0.0, 1.0], "bins": [-0.23338130116462708, -0.22580868005752563, -0.2182360589504242, -0.21066343784332275, -0.2030908167362213, -0.19551819562911987, -0.18794557452201843, -0.180372953414917, -0.17280033230781555, -0.1652277112007141, -0.15765509009361267, -0.15008246898651123, -0.1425098478794098, -0.13493722677230835, -0.1273646056652069, -0.11979198455810547, -0.11221936345100403, -0.10464674234390259, -0.09707412123680115, -0.08950150012969971, -0.08192887902259827, -0.07435625791549683, -0.06678363680839539, -0.059211015701293945, -0.051638394594192505, -0.044065773487091064, -0.036493152379989624, -0.028920531272888184, -0.021347910165786743, -0.013775289058685303, -0.006202667951583862, 0.0013699531555175781, 0.008942574262619019, 0.01651519536972046, 0.0240878164768219, 0.03166043758392334, 0.03923305869102478, 0.04680567979812622, 0.05437830090522766, 0.0619509220123291, 0.06952354311943054, 0.07709616422653198, 0.08466878533363342, 0.09224140644073486, 0.0998140275478363, 0.10738664865493774, 0.11495926976203918, 0.12253189086914062, 0.13010451197624207, 0.1376771330833435, 0.14524975419044495, 0.1528223752975464, 0.16039499640464783, 0.16796761751174927, 0.1755402386188507, 0.18311285972595215, 0.1906854808330536, 0.19825810194015503, 0.20583072304725647, 0.2134033441543579, 0.22097596526145935, 0.2285485863685608, 0.23612120747566223, 0.24369382858276367, 0.2512664496898651]}, "parameters/action_net.weight": {"_type": "histogram", "values": [1.0, 0.0, 0.0, 1.0, 1.0, 0.0, 4.0, 2.0, 4.0, 1.0, 2.0, 4.0, 3.0, 2.0, 1.0, 1.0, 3.0, 2.0, 3.0, 4.0, 0.0, 5.0, 4.0, 1.0, 2.0, 2.0, 0.0, 2.0, 3.0, 2.0, 3.0, 1.0, 2.0, 2.0, 3.0, 2.0, 1.0, 3.0, 0.0, 1.0, 2.0, 6.0, 1.0, 2.0, 6.0, 1.0, 3.0, 2.0, 2.0, 2.0, 1.0, 5.0, 3.0, 0.0, 3.0, 2.0, 3.0, 2.0, 2.0, 0.0, 1.0, 0.0, 0.0, 1.0], "bins": [-0.1273658573627472, -0.12336302548646927, -0.11936018615961075, -0.11535735428333282, -0.1113545149564743, -0.10735168308019638, -0.10334885120391846, -0.09934601187705994, -0.09534318000078201, -0.09134034812450409, -0.08733750879764557, -0.08333467692136765, -0.07933184504508972, -0.0753290057182312, -0.07132617384195328, -0.06732334196567535, -0.06332050263881683, -0.05931766703724861, -0.05531483143568039, -0.051311999559402466, -0.047309163957834244, -0.04330632835626602, -0.0393034964799881, -0.035300660878419876, -0.031297825276851654, -0.027294989675283432, -0.02329215593636036, -0.019289322197437286, -0.015286486595869064, -0.011283650994300842, -0.0072808172553777695, -0.0032779835164546967, 0.0007248371839523315, 0.004727671854197979, 0.008730506524443626, 0.012733341194689274, 0.01673617586493492, 0.020739011466503143, 0.024741845205426216, 0.02874467894434929, 0.03274751454591751, 0.03675035014748573, 0.040753185749053955, 0.04475601762533188, 0.0487588532269001, 0.05276168882846832, 0.056764520704746246, 0.06076735630631447, 0.06477019190788269, 0.06877302378416061, 0.07277586311101913, 0.07677869498729706, 0.08078153431415558, 0.0847843661904335, 0.08878719806671143, 0.09279003739356995, 0.09679286926984787, 0.1007957011461258, 0.10479854047298431, 0.10880137234926224, 0.11280420422554016, 0.11680704355239868, 0.1208098754286766, 0.12481270730495453, 0.12881554663181305]}, "parameters/action_net.bias": {"_type": "histogram", "values": [1.0, 0.0, 0.0, 0.0, 0.0, 0.0, 0.0, 0.0, 0.0, 0.0, 0.0, 0.0, 0.0, 0.0, 0.0, 0.0, 0.0, 0.0, 0.0, 0.0, 0.0, 0.0, 0.0, 0.0, 0.0, 0.0, 0.0, 0.0, 0.0, 0.0, 0.0, 0.0, 0.0, 0.0, 0.0, 0.0, 0.0, 0.0, 0.0, 0.0, 0.0, 0.0, 0.0, 0.0, 0.0, 0.0, 0.0, 0.0, 0.0, 0.0, 0.0, 0.0, 0.0, 0.0, 0.0, 0.0, 0.0, 0.0, 0.0, 0.0, 0.0, 0.0, 0.0, 1.0], "bins": [-0.0033892723731696606, -0.0032833574805408716, -0.0031774425879120827, -0.0030715279281139374, -0.0029656130354851484, -0.0028596981428563595, -0.002753783483058214, -0.0026478685904294252, -0.0025419536978006363, -0.0024360388051718473, -0.0023301239125430584, -0.002224209252744913, -0.002118294360116124, -0.002012379467487335, -0.001906464691273868, -0.001800549915060401, -0.001694635022431612, -0.001588720129802823, -0.001482805353589356, -0.0013768905773758888, -0.0012709756847470999, -0.001165060792118311, -0.0010591460159048438, -0.0009532311814837158, -0.0008473163470625877, -0.0007414015126414597, -0.0006354866782203317, -0.0005295718437992036, -0.0004236570093780756, -0.00031774217495694757, -0.00021182734053581953, -0.0001059125061146915, 2.561137080192566e-09, 0.00010591739555820823, 0.00021183222997933626, 0.0003177470644004643, 0.00042366189882159233, 0.0005295767332427204, 0.0006354915676638484, 0.0007414064020849764, 0.0008473212365061045, 0.0009532360709272325, 0.0010591509053483605, 0.0011650656815618277, 0.0012709805741906166, 0.0013768954668194056, 0.0014828102430328727, 0.0015887250192463398, 0.0016946399118751287, 0.0018005548045039177, 0.0019064695807173848, 0.002012384356930852, 0.002118299249559641, 0.00222421414218843, 0.0023301290348172188, 0.002436043694615364, 0.002541958587244153, 0.002647873479872942, 0.0027537881396710873, 0.002859703032299876, 0.002965617924928665, 0.003071532817557454, 0.003177447710186243, 0.0032833623699843884, 0.0033892772626131773]}, "parameters/value_net.weight": {"_type": "histogram", "values": [2.0, 3.0, 5.0, 7.0, 6.0, 13.0, 3.0, 0.0, 0.0, 0.0, 0.0, 0.0, 0.0, 0.0, 0.0, 0.0, 0.0, 0.0, 0.0, 0.0, 0.0, 0.0, 0.0, 0.0, 0.0, 0.0, 0.0, 0.0, 0.0, 0.0, 0.0, 0.0, 0.0, 0.0, 0.0, 0.0, 0.0, 0.0, 0.0, 0.0, 0.0, 0.0, 0.0, 0.0, 0.0, 0.0, 0.0, 0.0, 0.0, 0.0, 0.0, 0.0, 0.0, 0.0, 0.0, 4.0, 5.0, 3.0, 6.0, 5.0, 1.0, 0.0, 0.0, 1.0], "bins": [-1.343968152999878, -1.300581693649292, -1.257195234298706, -1.2138087749481201, -1.1704223155975342, -1.1270357370376587, -1.0836492776870728, -1.0402628183364868, -0.9968763589859009, -0.9534898996353149, -0.910103440284729, -0.8667169213294983, -0.8233304619789124, -0.7799440026283264, -0.7365574836730957, -0.6931710243225098, -0.6497845649719238, -0.6063981056213379, -0.563011646270752, -0.5196251273155212, -0.4762386679649353, -0.43285220861434937, -0.38946571946144104, -0.3460792303085327, -0.3026927709579468, -0.25930631160736084, -0.21591982245445251, -0.17253334820270538, -0.12914687395095825, -0.08576039969921112, -0.04237392544746399, 0.001012563705444336, 0.04439890384674072, 0.08778537809848785, 0.13117185235023499, 0.17455832660198212, 0.21794480085372925, 0.2613312602043152, 0.3047177493572235, 0.34810423851013184, 0.3914906978607178, 0.4348771572113037, 0.47826364636421204, 0.5216501355171204, 0.5650365948677063, 0.6084230542182922, 0.651809573173523, 0.6951960325241089, 0.7385824918746948, 0.7819689512252808, 0.8253554105758667, 0.8687419295310974, 0.9121283888816833, 0.9555148482322693, 0.9989013671875, 1.042287826538086, 1.0856742858886719, 1.1290607452392578, 1.1724472045898438, 1.2158336639404297, 1.2592201232910156, 1.3026067018508911, 1.345993161201477, 1.389379620552063, 1.432766079902649]}, "parameters/value_net.bias": {"_type": "histogram", "values": [0.0, 0.0, 0.0, 0.0, 0.0, 0.0, 0.0, 0.0, 0.0, 0.0, 0.0, 0.0, 0.0, 0.0, 0.0, 0.0, 0.0, 0.0, 0.0, 0.0, 0.0, 0.0, 0.0, 0.0, 0.0, 0.0, 0.0, 0.0, 0.0, 0.0, 0.0, 0.0, 1.0, 0.0, 0.0, 0.0, 0.0, 0.0, 0.0, 0.0, 0.0, 0.0, 0.0, 0.0, 0.0, 0.0, 0.0, 0.0, 0.0, 0.0, 0.0, 0.0, 0.0, 0.0, 0.0, 0.0, 0.0, 0.0, 0.0, 0.0, 0.0, 0.0, 0.0, 0.0], "bins": [0.7126200795173645, 0.7126200795173645, 0.7126200795173645, 0.7126200795173645, 0.7126200795173645, 0.7126200795173645, 0.7126200795173645, 0.7126200795173645, 0.7126200795173645, 0.7126200795173645, 0.7126200795173645, 0.7126200795173645, 0.7126200795173645, 0.7126200795173645, 0.7126200795173645, 0.7126200795173645, 0.7126200795173645, 0.7126200795173645, 0.7126200795173645, 0.7126200795173645, 0.7126200795173645, 0.7126200795173645, 0.7126200795173645, 0.7126200795173645, 0.7126200795173645, 0.7126200795173645, 0.7126200795173645, 0.7126200795173645, 0.7126200795173645, 0.7126200795173645, 0.7126200795173645, 0.7126200795173645, 0.7126200795173645, 0.7126200795173645, 0.7126200795173645, 0.7126200795173645, 0.7126200795173645, 0.7126200795173645, 0.7126200795173645, 0.7126200795173645, 0.7126200795173645, 0.7126200795173645, 0.7126200795173645, 0.7126200795173645, 0.7126200795173645, 0.7126200795173645, 0.7126200795173645, 0.7126200795173645, 0.7126200795173645, 0.7126200795173645, 0.7126200795173645, 0.7126200795173645, 0.7126200795173645, 0.7126200795173645, 0.7126200795173645, 0.7126200795173645, 0.7126200795173645, 0.7126200795173645, 0.7126200795173645, 0.7126200795173645, 0.7126200795173645, 0.7126200795173645, 0.7126200795173645, 0.7126200795173645, 0.7126200795173645]}, "videos": {"_type": "video-file", "path": "media/videos/videos_13_1546cce0fac310f1f8a1.mp4", "sha256": "1546cce0fac310f1f8a1f70c0cf16b5e861d155c7a30b9892833169d48cb8f1c", "size": 17430}, "_step": 27, "gradients/value_net.bias": {"_type": "histogram", "values": [0.0, 0.0, 0.0, 0.0, 0.0, 0.0, 0.0, 0.0, 0.0, 0.0, 0.0, 0.0, 0.0, 0.0, 0.0, 0.0, 0.0, 0.0, 0.0, 0.0, 0.0, 0.0, 0.0, 0.0, 0.0, 0.0, 0.0, 0.0, 0.0, 0.0, 0.0, 0.0, 1.0, 0.0, 0.0, 0.0, 0.0, 0.0, 0.0, 0.0, 0.0, 0.0, 0.0, 0.0, 0.0, 0.0, 0.0, 0.0, 0.0, 0.0, 0.0, 0.0, 0.0, 0.0, 0.0, 0.0, 0.0, 0.0, 0.0, 0.0, 0.0, 0.0, 0.0, 0.0], "bins": [0.06806933879852295, 0.06806933879852295, 0.06806933879852295, 0.06806933879852295, 0.06806933879852295, 0.06806933879852295, 0.06806933879852295, 0.06806933879852295, 0.06806933879852295, 0.06806933879852295, 0.06806933879852295, 0.06806933879852295, 0.06806933879852295, 0.06806933879852295, 0.06806933879852295, 0.06806933879852295, 0.06806933879852295, 0.06806933879852295, 0.06806933879852295, 0.06806933879852295, 0.06806933879852295, 0.06806933879852295, 0.06806933879852295, 0.06806933879852295, 0.06806933879852295, 0.06806933879852295, 0.06806933879852295, 0.06806933879852295, 0.06806933879852295, 0.06806933879852295, 0.06806933879852295, 0.06806933879852295, 0.06806933879852295, 0.06806933879852295, 0.06806933879852295, 0.06806933879852295, 0.06806933879852295, 0.06806933879852295, 0.06806933879852295, 0.06806933879852295, 0.06806933879852295, 0.06806933879852295, 0.06806933879852295, 0.06806933879852295, 0.06806933879852295, 0.06806933879852295, 0.06806933879852295, 0.06806933879852295, 0.06806933879852295, 0.06806933879852295, 0.06806933879852295, 0.06806933879852295, 0.06806933879852295, 0.06806933879852295, 0.06806933879852295, 0.06806933879852295, 0.06806933879852295, 0.06806933879852295, 0.06806933879852295, 0.06806933879852295, 0.06806933879852295, 0.06806933879852295, 0.06806933879852295, 0.06806933879852295, 0.06806933879852295]}, "gradients/value_net.weight": {"_type": "histogram", "values": [39.0, 0.0, 0.0, 0.0, 0.0, 0.0, 0.0, 0.0, 0.0, 0.0, 0.0, 0.0, 0.0, 0.0, 0.0, 0.0, 0.0, 0.0, 0.0, 0.0, 0.0, 0.0, 0.0, 0.0, 0.0, 0.0, 0.0, 0.0, 0.0, 0.0, 0.0, 0.0, 0.0, 0.0, 0.0, 0.0, 0.0, 0.0, 0.0, 0.0, 0.0, 0.0, 0.0, 0.0, 0.0, 0.0, 0.0, 0.0, 0.0, 0.0, 0.0, 0.0, 0.0, 0.0, 0.0, 0.0, 0.0, 0.0, 0.0, 0.0, 0.0, 0.0, 0.0, 25.0], "bins": [-0.06812294572591782, -0.06599429249763489, -0.06386563926935196, -0.06173698604106903, -0.0596083328127861, -0.057479679584503174, -0.055351026356220245, -0.05322237312793732, -0.05109371989965439, -0.04896506667137146, -0.04683641344308853, -0.0447077602148056, -0.042579106986522675, -0.040450453758239746, -0.03832180052995682, -0.03619314730167389, -0.03406449407339096, -0.03193584084510803, -0.029807187616825104, -0.027678534388542175, -0.025549881160259247, -0.02342122793197632, -0.02129257470369339, -0.01916392147541046, -0.017035268247127533, -0.014906615018844604, -0.012777961790561676, -0.010649308562278748, -0.008520655333995819, -0.006392002105712891, -0.004263348877429962, -0.0021346956491470337, -6.0498714447021484e-06, 0.0021226033568382263, 0.004251256585121155, 0.006379909813404083, 0.008508563041687012, 0.01063721626996994, 0.012765869498252869, 0.014894522726535797, 0.017023175954818726, 0.019151829183101654, 0.021280482411384583, 0.02340913563966751, 0.02553778886795044, 0.027666442096233368, 0.029795095324516296, 0.031923748552799225, 0.03405240178108215, 0.03618105500936508, 0.03830970823764801, 0.04043836146593094, 0.04256701469421387, 0.044695667922496796, 0.046824321150779724, 0.04895297437906265, 0.05108162760734558, 0.05321028083562851, 0.05533893406391144, 0.057467587292194366, 0.059596240520477295, 0.06172489374876022, 0.06385354697704315, 0.06598220020532608, 0.06811085343360901]}, "gradients/action_net.bias": {"_type": "histogram", "values": [1.0, 0.0, 0.0, 0.0, 0.0, 0.0, 0.0, 0.0, 0.0, 0.0, 0.0, 0.0, 0.0, 0.0, 0.0, 0.0, 0.0, 0.0, 0.0, 0.0, 0.0, 0.0, 0.0, 0.0, 0.0, 0.0, 0.0, 0.0, 0.0, 0.0, 0.0, 0.0, 0.0, 0.0, 0.0, 0.0, 0.0, 0.0, 0.0, 0.0, 0.0, 0.0, 0.0, 0.0, 0.0, 0.0, 0.0, 0.0, 0.0, 0.0, 0.0, 0.0, 0.0, 0.0, 0.0, 0.0, 0.0, 0.0, 0.0, 0.0, 0.0, 0.0, 0.0, 1.0], "bins": [-0.03766936436295509, -0.03649219498038292, -0.035315029323101044, -0.03413785994052887, -0.032960694283246994, -0.03178352490067482, -0.030606357380747795, -0.02942918986082077, -0.028252022340893745, -0.02707485482096672, -0.025897687301039696, -0.02472051978111267, -0.023543350398540497, -0.02236618474125862, -0.021189015358686447, -0.020011847838759422, -0.018834680318832397, -0.017657512798905373, -0.016480345278978348, -0.015303176827728748, -0.014126009307801723, -0.012948841787874699, -0.0117716733366251, -0.010594505816698074, -0.00941733829677105, -0.008240170776844025, -0.0070630027912557125, -0.0058858348056674, -0.0047086672857403755, -0.0035314997658133507, -0.0023543317802250385, -0.0011771637946367264, 3.725290298461914e-09, 0.001177171478047967, 0.0023543392308056355, 0.003531506983563304, 0.0047086747363209724, 0.005885842256247997, 0.007063010241836309, 0.008240178227424622, 0.009417345747351646, 0.010594513267278671, 0.011771680787205696, 0.012948849238455296, 0.01412601675838232, 0.015303184278309345, 0.016480352729558945, 0.01765752024948597, 0.018834687769412994, 0.02001185528934002, 0.021189022809267044, 0.02236619032919407, 0.023543357849121094, 0.024720527231693268, 0.025897694751620293, 0.027074862271547318, 0.028252029791474342, 0.029429197311401367, 0.030606364831328392, 0.03178353235125542, 0.03296070173382759, 0.03413786739110947, 0.03531503677368164, 0.036492206156253815, 0.03766937181353569]}, "gradients/action_net.weight": {"_type": "histogram", "values": [2.0, 0.0, 2.0, 0.0, 0.0, 1.0, 1.0, 1.0, 2.0, 0.0, 0.0, 1.0, 1.0, 2.0, 1.0, 0.0, 2.0, 0.0, 1.0, 2.0, 2.0, 5.0, 2.0, 5.0, 2.0, 1.0, 3.0, 6.0, 5.0, 6.0, 2.0, 6.0, 6.0, 2.0, 6.0, 5.0, 6.0, 3.0, 1.0, 2.0, 5.0, 2.0, 5.0, 2.0, 2.0, 1.0, 0.0, 2.0, 0.0, 1.0, 2.0, 1.0, 1.0, 0.0, 0.0, 2.0, 1.0, 1.0, 1.0, 0.0, 0.0, 2.0, 0.0, 2.0], "bins": [-0.021954787895083427, -0.021268701180815697, -0.020582614466547966, -0.019896525889635086, -0.019210439175367355, -0.018524352461099625, -0.017838265746831894, -0.017152179032564163, -0.016466092318296432, -0.015780005604028702, -0.015093917958438396, -0.014407831244170666, -0.01372174359858036, -0.01303565688431263, -0.012349570170044899, -0.011663483455777168, -0.010977394878864288, -0.010291308164596558, -0.009605220519006252, -0.008919133804738522, -0.008233046159148216, -0.0075469594448804855, -0.006860872730612755, -0.006174785550683737, -0.005488698370754719, -0.004802611190825701, -0.004116524010896683, -0.003430437296628952, -0.002744350116699934, -0.002058262936770916, -0.0013721762225031853, -0.0006860890425741673, -3.725290298461914e-09, 0.0006860833382233977, 0.001372170401737094, 0.0020582573488354683, 0.0027443445287644863, 0.0034304317086935043, 0.004116518422961235, 0.004802605602890253, 0.005488692782819271, 0.006174779962748289, 0.006860867142677307, 0.007546953856945038, 0.008233040571212769, 0.008919128216803074, 0.009605214931070805, 0.01029130257666111, 0.01097738929092884, 0.011663476005196571, 0.012349563650786877, 0.013035650365054607, 0.013721738010644913, 0.014407824724912643, 0.015093911439180374, 0.015779998153448105, 0.016466084867715836, 0.017152171581983566, 0.017838258296251297, 0.018524345010519028, 0.019210433587431908, 0.01989652030169964, 0.02058260701596737, 0.0212686937302351, 0.02195478230714798]}, "gradients/mlp_extractor.value_net.2.bias": {"_type": "histogram", "values": [1.0, 0.0, 0.0, 0.0, 0.0, 1.0, 0.0, 0.0, 0.0, 0.0, 0.0, 0.0, 1.0, 0.0, 1.0, 0.0, 0.0, 0.0, 0.0, 0.0, 0.0, 0.0, 0.0, 0.0, 1.0, 1.0, 1.0, 2.0, 1.0, 4.0, 7.0, 9.0, 5.0, 1.0, 3.0, 2.0, 2.0, 5.0, 2.0, 1.0, 3.0, 3.0, 0.0, 1.0, 2.0, 0.0, 1.0, 0.0, 0.0, 0.0, 1.0, 0.0, 1.0, 0.0, 0.0, 0.0, 0.0, 0.0, 0.0, 0.0, 0.0, 0.0, 0.0, 1.0], "bins": [-0.0026159295812249184, -0.002541069872677326, -0.002466210164129734, -0.0023913506884127855, -0.0023164909798651934, -0.002241631271317601, -0.002166771562770009, -0.002091911854222417, -0.0020170523785054684, -0.0019421926699578762, -0.0018673330778256059, -0.0017924733692780137, -0.0017176137771457434, -0.0016427540685981512, -0.001567894360050559, -0.0014930346515029669, -0.0014181749429553747, -0.0013433152344077826, -0.0012684556422755122, -0.00119359593372792, -0.0011187363415956497, -0.0010438766330480576, -0.0009690169245004654, -0.0008941572741605341, -0.0008192976238206029, -0.0007444379734806716, -0.0006695783231407404, -0.0005947186145931482, -0.000519858964253217, -0.00044499931391328573, -0.000370139634469524, -0.0002952799550257623, -0.00022042030468583107, -0.0001455606397939846, -7.070097490213811e-05, 4.158689989708364e-06, 7.901835488155484e-05, 0.0001538780052214861, 0.0002287376846652478, 0.0003035973641090095, 0.00037845701444894075, 0.000453316664788872, 0.0005281763151288033, 0.0006030360236763954, 0.0006778956740163267, 0.0007527553243562579, 0.0008276150329038501, 0.0009024746832437813, 0.0009773343335837126, 0.0010521940421313047, 0.001127053634263575, 0.0012019133428111672, 0.0012767729349434376, 0.0013516326434910297, 0.001426492352038622, 0.001501352060586214, 0.0015762116527184844, 0.0016510713612660766, 0.001725930953398347, 0.001800790661945939, 0.0018756503704935312, 0.0019505099626258016, 0.002025369554758072, 0.002100229263305664, 0.0021750889718532562]}, "gradients/mlp_extractor.value_net.2.weight": {"_type": "histogram", "values": [1.0, 0.0, 0.0, 1.0, 0.0, 0.0, 1.0, 3.0, 3.0, 3.0, 5.0, 2.0, 3.0, 3.0, 7.0, 6.0, 5.0, 8.0, 5.0, 9.0, 9.0, 8.0, 12.0, 15.0, 14.0, 22.0, 33.0, 41.0, 86.0, 113.0, 225.0, 373.0, 553.0, 517.0, 564.0, 561.0, 326.0, 172.0, 107.0, 69.0, 43.0, 17.0, 23.0, 13.0, 14.0, 12.0, 15.0, 5.0, 11.0, 8.0, 12.0, 3.0, 5.0, 4.0, 7.0, 5.0, 3.0, 3.0, 2.0, 1.0, 1.0, 0.0, 2.0, 2.0], "bins": [-0.0014727413654327393, -0.001429232070222497, -0.0013857227750122547, -0.0013422134798020124, -0.001298704301007092, -0.0012551950057968497, -0.0012116857105866075, -0.0011681764153763652, -0.0011246672365814447, -0.0010811579413712025, -0.0010376486461609602, -0.000994139350950718, -0.0009506301721557975, -0.0009071208769455552, -0.0008636115817353129, -0.0008201022865250707, -0.0007765929913148284, -0.0007330836961045861, -0.0006895744591020048, -0.0006460651638917625, -0.0006025559268891811, -0.0005590466316789389, -0.0005155373364686966, -0.0004720280703622848, -0.00042851880425587296, -0.00038500953814946115, -0.00034150027204304934, -0.00029799097683280706, -0.00025448171072639525, -0.00021097244461998343, -0.00016746314940974116, -0.00012395388330332935, -8.044473361223936e-05, -3.693546022986993e-05, 6.573813152499497e-06, 5.008309381082654e-05, 9.359235991723835e-05, 0.00013710162602365017, 0.00018061092123389244, 0.00022412018734030426, 0.00026762945344671607, 0.0003111387195531279, 0.0003546479856595397, 0.00039815728086978197, 0.0004416665469761938, 0.0004851758130826056, 0.0005286851082928479, 0.0005721943452954292, 0.0006157036405056715, 0.0006592129357159138, 0.0007027221727184951, 0.0007462314679287374, 0.0007897407049313188, 0.000833250000141561, 0.0008767592953518033, 0.0009202685905620456, 0.0009637778275646269, 0.0010072870645672083, 0.0010507963597774506, 0.0010943056549876928, 0.001137814950197935, 0.0011813242454081774, 0.0012248335406184196, 0.00126834271941334, 0.0013118520146235824]}, "gradients/mlp_extractor.value_net.0.bias": {"_type": "histogram", "values": [1.0, 0.0, 1.0, 0.0, 1.0, 0.0, 0.0, 1.0, 1.0, 0.0, 1.0, 0.0, 0.0, 2.0, 0.0, 2.0, 2.0, 0.0, 2.0, 1.0, 2.0, 3.0, 0.0, 3.0, 2.0, 2.0, 3.0, 2.0, 1.0, 0.0, 1.0, 0.0, 0.0, 0.0, 0.0, 0.0, 0.0, 0.0, 1.0, 1.0, 0.0, 1.0, 1.0, 2.0, 2.0, 0.0, 4.0, 2.0, 2.0, 1.0, 4.0, 0.0, 0.0, 2.0, 1.0, 1.0, 0.0, 1.0, 0.0, 1.0, 0.0, 1.0, 1.0, 1.0], "bins": [-0.014940307475626469, -0.014506999403238297, -0.01407369039952755, -0.013640382327139378, -0.01320707332342863, -0.012773765251040459, -0.012340456247329712, -0.01190714817494154, -0.011473839171230793, -0.01104053109884262, -0.010607222095131874, -0.010173914022743702, -0.009740605019032955, -0.009307296946644783, -0.008873987942934036, -0.008440679870545864, -0.008007371798157692, -0.0075740632601082325, -0.007140754722058773, -0.006707446184009314, -0.006274137645959854, -0.005840829573571682, -0.005407520569860935, -0.004974212497472763, -0.004540903493762016, -0.004107594955712557, -0.0036742864176630974, -0.003240977879613638, -0.0028076693415641785, -0.0023743610363453627, -0.0019410524982959032, -0.0015077439602464437, -0.0010744351893663406, -0.0006411266513168812, -0.00020781817147508264, 0.0002254903083667159, 0.0006587988464161754, 0.001092107268050313, 0.0015254158060997725, 0.001958724344149232, 0.0023920328821986914, 0.002825341420248151, 0.0032586499582976103, 0.003691958263516426, 0.0041252668015658855, 0.004558575339615345, 0.0049918838776648045, 0.005425192415714264, 0.005858500953763723, 0.006291809491813183, 0.006725118029862642, 0.007158426567912102, 0.007591735105961561, 0.00802504364401102, 0.008458351716399193, 0.00889166072010994, 0.009324968792498112, 0.009758276864886284, 0.01019158586859703, 0.010624893940985203, 0.01105820294469595, 0.011491511017084122, 0.011924820020794868, 0.01235812809318304, 0.012791437096893787]}, "gradients/mlp_extractor.value_net.0.weight": {"_type": "histogram", "values": [1.0, 0.0, 0.0, 1.0, 1.0, 1.0, 0.0, 0.0, 2.0, 0.0, 0.0, 0.0, 1.0, 0.0, 2.0, 0.0, 1.0, 0.0, 1.0, 3.0, 5.0, 5.0, 3.0, 3.0, 6.0, 3.0, 7.0, 4.0, 18.0, 25.0, 26.0, 13.0, 9.0, 23.0, 25.0, 11.0, 5.0, 12.0, 6.0, 6.0, 4.0, 1.0, 8.0, 2.0, 2.0, 0.0, 1.0, 0.0, 1.0, 4.0, 0.0, 0.0, 0.0, 0.0, 0.0, 1.0, 1.0, 0.0, 1.0, 0.0, 0.0, 0.0, 0.0, 1.0], "bins": [-0.007322668097913265, -0.007093175780028105, -0.006863683462142944, -0.006634190678596497, -0.006404698360711336, -0.006175206042826176, -0.005945713259279728, -0.0057162209413945675, -0.005486728623509407, -0.005257236305624247, -0.005027743987739086, -0.004798251204192638, -0.004568758886307478, -0.0043392665684223175, -0.00410977378487587, -0.0038802814669907093, -0.003650789149105549, -0.0034212968312203884, -0.0031918042805045843, -0.00296231172978878, -0.0027328194119036198, -0.0025033270940184593, -0.0022738345433026552, -0.002044341992586851, -0.0018148496747016907, -0.0015853572404012084, -0.0013558648061007261, -0.0011263723718002439, -0.0008968799374997616, -0.0006673875031992793, -0.00043789506889879704, -0.00020840263459831476, 2.108979970216751e-05, 0.0002505822340026498, 0.00048007466830313206, 0.0007095671026036143, 0.0009390595369040966, 0.0011685519712045789, 0.0013980444055050611, 0.0016275368398055434, 0.0018570292741060257, 0.002086521591991186, 0.0023160141427069902, 0.0025455066934227943, 0.002774999011307955, 0.0030044913291931152, 0.0032339838799089193, 0.0034634764306247234, 0.003692968748509884, 0.003922461066395044, 0.004151953384280205, 0.0043814461678266525, 0.004610938485711813, 0.004840430803596973, 0.005069923587143421, 0.005299415905028582, 0.005528908222913742, 0.0057584005407989025, 0.005987892858684063, 0.006217385642230511, 0.006446877960115671, 0.006676370278000832, 0.006905863061547279, 0.00713535537943244, 0.0073648476973176]}, "gradients/mlp_extractor.policy_net.2.bias": {"_type": "histogram", "values": [1.0, 1.0, 2.0, 0.0, 1.0, 0.0, 1.0, 0.0, 2.0, 1.0, 2.0, 2.0, 2.0, 1.0, 3.0, 0.0, 2.0, 1.0, 0.0, 3.0, 1.0, 0.0, 1.0, 0.0, 0.0, 0.0, 3.0, 0.0, 2.0, 1.0, 0.0, 1.0, 0.0, 1.0, 0.0, 2.0, 0.0, 3.0, 0.0, 0.0, 1.0, 1.0, 4.0, 0.0, 2.0, 2.0, 0.0, 1.0, 1.0, 1.0, 0.0, 1.0, 0.0, 1.0, 4.0, 1.0, 1.0, 0.0, 0.0, 1.0, 0.0, 1.0, 0.0, 1.0], "bins": [-0.008935468271374702, -0.008655899204313755, -0.008376330137252808, -0.00809676107019186, -0.007817192003130913, -0.007537622936069965, -0.007258054334670305, -0.006978485267609358, -0.00669891620054841, -0.006419347133487463, -0.006139778066426516, -0.005860208999365568, -0.005580640397965908, -0.005301071330904961, -0.005021502263844013, -0.004741933196783066, -0.004462364129722118, -0.004182795062661171, -0.0039032259956002235, -0.0036236571613699198, -0.0033440880943089724, -0.003064519027248025, -0.002784950193017721, -0.0025053811259567738, -0.0022258120588958263, -0.001946242991834879, -0.0016666740411892533, -0.0013871050905436277, -0.0011075360234826803, -0.0008279669564217329, -0.0005483980057761073, -0.0002688290551304817, 1.0740943253040314e-05, 0.0002903099521063268, 0.0005698789609596133, 0.0008494479698128998, 0.0011290169786661863, 0.0014085860457271338, 0.0016881549963727593, 0.001967723947018385, 0.0022472930140793324, 0.0025268620811402798, 0.002806431148201227, 0.003085999982431531, 0.0033655690494924784, 0.003645138116553426, 0.0039247069507837296, 0.004204276017844677, 0.004483845084905624, 0.004763414151966572, 0.005042983219027519, 0.005322552286088467, 0.005602121353149414, 0.0058816904202103615, 0.006161259021610022, 0.006440828088670969, 0.006720397155731916, 0.006999966222792864, 0.007279535289853811, 0.007559104356914759, 0.007838672958314419, 0.008118242025375366, 0.008397811092436314, 0.008677380159497261, 0.008956949226558208]}, "gradients/mlp_extractor.policy_net.2.weight": {"_type": "histogram", "values": [1.0, 0.0, 0.0, 0.0, 2.0, 0.0, 0.0, 0.0, 5.0, 2.0, 6.0, 4.0, 5.0, 7.0, 14.0, 6.0, 19.0, 24.0, 29.0, 31.0, 39.0, 53.0, 67.0, 64.0, 82.0, 110.0, 117.0, 159.0, 190.0, 224.0, 307.0, 419.0, 485.0, 317.0, 267.0, 184.0, 147.0, 122.0, 104.0, 88.0, 69.0, 64.0, 56.0, 42.0, 38.0, 30.0, 20.0, 22.0, 12.0, 13.0, 5.0, 5.0, 5.0, 5.0, 2.0, 2.0, 0.0, 1.0, 0.0, 1.0, 0.0, 2.0, 1.0, 1.0], "bins": [-0.0022647520527243614, -0.0021940753795206547, -0.0021233989391475916, -0.002052722265943885, -0.001982045592740178, -0.0019113690359517932, -0.0018406924791634083, -0.0017700158059597015, -0.0016993392491713166, -0.0016286626923829317, -0.001557986019179225, -0.00148730946239084, -0.0014166329056024551, -0.0013459562323987484, -0.0012752796756103635, -0.0012046031188219786, -0.0011339264456182718, -0.001063249888829887, -0.0009925732156261802, -0.0009218966588377953, -0.0008512200438417494, -0.0007805434288457036, -0.0007098668720573187, -0.0006391902570612729, -0.000568513642065227, -0.0004978370270691812, -0.00042716044117696583, -0.00035648385528475046, -0.00028580724028870463, -0.0002151306252926588, -0.00014445403940044343, -7.377745350822806e-05, -3.1010713428258896e-06, 6.757552910130471e-05, 0.0001382521295454353, 0.0002089287299895659, 0.0002796053304336965, 0.00035028194542974234, 0.0004209585313219577, 0.0004916351172141731, 0.0005623117322102189, 0.0006329883472062647, 0.0007036649622023106, 0.0007743415189906955, 0.0008450181339867413, 0.0009156947489827871, 0.000986371305771172, 0.001057047862559557, 0.0011277245357632637, 0.0011984010925516486, 0.0012690777657553554, 0.0013397543225437403, 0.001410430995747447, 0.001481107552535832, 0.0015517841093242168, 0.0016224607825279236, 0.0016931373393163085, 0.0017638138961046934, 0.0018344905693084002, 0.001905167126096785, 0.00197584368288517, 0.0020465203560888767, 0.0021171970292925835, 0.0021878734696656466, 0.0022585501428693533]}, "gradients/mlp_extractor.policy_net.0.bias": {"_type": "histogram", "values": [1.0, 1.0, 1.0, 2.0, 2.0, 0.0, 1.0, 0.0, 1.0, 0.0, 0.0, 1.0, 0.0, 0.0, 1.0, 1.0, 1.0, 1.0, 1.0, 1.0, 0.0, 1.0, 0.0, 1.0, 2.0, 0.0, 2.0, 2.0, 1.0, 4.0, 4.0, 1.0, 2.0, 3.0, 2.0, 1.0, 1.0, 1.0, 0.0, 1.0, 0.0, 2.0, 1.0, 1.0, 1.0, 1.0, 3.0, 1.0, 0.0, 1.0, 0.0, 1.0, 2.0, 0.0, 1.0, 0.0, 0.0, 0.0, 1.0, 0.0, 0.0, 2.0, 0.0, 1.0], "bins": [-0.039560042321681976, -0.03836587443947792, -0.037171706557273865, -0.03597753867506981, -0.03478337079286575, -0.033589206635951996, -0.03239503502845764, -0.031200870871543884, -0.03000670298933983, -0.028812535107135773, -0.027618367224931717, -0.02642419934272766, -0.025230033323168755, -0.0240358654409647, -0.022841697558760643, -0.021647531539201736, -0.02045336179435253, -0.019259193912148476, -0.01806502602994442, -0.016870860010385513, -0.015676692128181458, -0.014482524245977402, -0.013288356363773346, -0.012094189412891865, -0.010900021530687809, -0.009705853648483753, -0.008511686697602272, -0.007317518815398216, -0.006123351398855448, -0.004929183982312679, -0.0037350161001086235, -0.0025408491492271423, -0.0013466812670230865, -0.00015251373406499624, 0.001041653798893094, 0.002235821448266506, 0.0034299888648092747, 0.004624156281352043, 0.005818324163556099, 0.00701249111443758, 0.008206658996641636, 0.009400826878845692, 0.010594993829727173, 0.011789161711931229, 0.012983329594135284, 0.014177496545016766, 0.015371664427220821, 0.016565831378102303, 0.01775999926030636, 0.018954167142510414, 0.02014833502471447, 0.021342501044273376, 0.022536668926477432, 0.023730836808681488, 0.024925004690885544, 0.0261191725730896, 0.027313340455293655, 0.02850750833749771, 0.029701676219701767, 0.030895844101905823, 0.03209001198410988, 0.033284179866313934, 0.03447834402322769, 0.03567251190543175, 0.0368666797876358]}, "gradients/mlp_extractor.policy_net.0.weight": {"_type": "histogram", "values": [1.0, 0.0, 2.0, 0.0, 0.0, 0.0, 1.0, 0.0, 0.0, 1.0, 0.0, 2.0, 1.0, 0.0, 0.0, 1.0, 1.0, 1.0, 3.0, 1.0, 1.0, 1.0, 2.0, 0.0, 3.0, 7.0, 7.0, 12.0, 19.0, 21.0, 39.0, 33.0, 22.0, 17.0, 12.0, 12.0, 5.0, 6.0, 2.0, 2.0, 1.0, 0.0, 1.0, 0.0, 0.0, 2.0, 1.0, 1.0, 0.0, 2.0, 0.0, 0.0, 0.0, 1.0, 0.0, 1.0, 0.0, 1.0, 1.0, 2.0, 0.0, 2.0, 1.0, 1.0], "bins": [-0.015364337712526321, -0.014869656413793564, -0.014374975115060806, -0.013880293816328049, -0.013385612517595291, -0.012890931218862534, -0.012396249920129776, -0.011901568621397018, -0.01140688732266426, -0.010912206023931503, -0.010417524725198746, -0.009922843426465988, -0.00942816212773323, -0.008933480829000473, -0.008438799530267715, -0.007944118231534958, -0.007449436001479626, -0.006954754702746868, -0.0064600734040141106, -0.005965392105281353, -0.005470710806548595, -0.004976029507815838, -0.004481347743421793, -0.003986666444689035, -0.003491985145956278, -0.0029973038472235203, -0.0025026225484907627, -0.0020079410169273615, -0.001513259718194604, -0.0010185784194618464, -0.0005238968878984451, -2.921558916568756e-05, 0.00046546570956707, 0.0009601470665074885, 0.001454828423447907, 0.0019495098385959864, 0.002444191137328744, 0.0029388724360615015, 0.0034335539676249027, 0.00392823526635766, 0.004422916565090418, 0.004917597863823175, 0.005412279162555933, 0.005906960926949978, 0.0064016422256827354, 0.006896323524415493, 0.007391004823148251, 0.007885686121881008, 0.008380367420613766, 0.008875048719346523, 0.00936973001807928, 0.009864411316812038, 0.010359092615544796, 0.010853773914277554, 0.011348456144332886, 0.011843137443065643, 0.012337818741798401, 0.012832500040531158, 0.013327181339263916, 0.013821862637996674, 0.014316543936729431, 0.014811225235462189, 0.015305906534194946, 0.015800587832927704, 0.01629526913166046]}, "global_step": 26624, "rollout/ep_len_mean": 196.07000732421875, "rollout/ep_rew_mean": 196.07000732421875, "time/fps": 455.0, "train/approx_kl": 0.007693491876125336, "train/clip_fraction": 0.04921875149011612, "train/clip_range": 0.20000000298023224, "train/entropy_loss": -0.5392889976501465, "train/explained_variance": 0.4116981625556946, "train/learning_rate": 0.0003000000142492354, "train/loss": 5.890420913696289, "train/policy_gradient_loss": -0.006654995493590832, "train/value_loss": 27.198392868041992, "_wandb": {"runtime": 67}}