{"parameters/mlp_extractor.policy_net.0.weight": {"_type": "histogram", "values": [2.0, 0.0, 1.0, 0.0, 0.0, 2.0, 2.0, 2.0, 2.0, 1.0, 1.0, 3.0, 2.0, 4.0, 2.0, 1.0, 3.0, 1.0, 4.0, 5.0, 5.0, 6.0, 13.0, 5.0, 11.0, 3.0, 9.0, 13.0, 8.0, 7.0, 5.0, 7.0, 9.0, 5.0, 11.0, 3.0, 8.0, 3.0, 2.0, 6.0, 2.0, 14.0, 7.0, 10.0, 4.0, 5.0, 8.0, 2.0, 2.0, 2.0, 4.0, 3.0, 2.0, 3.0, 1.0, 2.0, 4.0, 0.0, 2.0, 0.0, 0.0, 0.0, 1.0, 1.0], "bins": [-0.6770188212394714, -0.6576753854751587, -0.638331949710846, -0.6189885139465332, -0.5996451377868652, -0.5803017020225525, -0.5609582662582397, -0.541614830493927, -0.5222713947296143, -0.5029279589653015, -0.48358455300331116, -0.4642411172389984, -0.44489768147468567, -0.4255542755126953, -0.40621083974838257, -0.3868674039840698, -0.36752399802207947, -0.3481805622577667, -0.32883715629577637, -0.3094937205314636, -0.2901502847671509, -0.27080684900283813, -0.2514634430408478, -0.23212000727653503, -0.21277658641338348, -0.19343316555023193, -0.1740897297859192, -0.15474630892276764, -0.1354028880596161, -0.11605945229530334, -0.0967160314321518, -0.07737259566783905, -0.0580291748046875, -0.03868574649095535, -0.019342321902513504, 1.1026859283447266e-06, 0.019344530999660492, 0.03868795931339264, 0.05803138017654419, 0.07737481594085693, 0.09671823680400848, 0.11606166511774063, 0.13540509343147278, 0.15474851429462433, 0.17409193515777588, 0.19343537092208862, 0.21277879178524017, 0.23212222754955292, 0.25146564841270447, 0.2708090841770172, 0.29015249013900757, 0.3094959259033203, 0.32883936166763306, 0.3481827974319458, 0.36752620339393616, 0.3868696391582489, 0.40621304512023926, 0.425556480884552, 0.44489988684654236, 0.4642433226108551, 0.48358675837516785, 0.5029301643371582, 0.522273600101471, 0.5416170358657837, 0.5609604716300964]}, "_timestamp": 1650471772.7375402, "_runtime": 46, "parameters/mlp_extractor.policy_net.0.bias": {"_type": "histogram", "values": [1.0, 0.0, 0.0, 0.0, 0.0, 0.0, 0.0, 0.0, 0.0, 0.0, 0.0, 0.0, 0.0, 0.0, 0.0, 0.0, 0.0, 0.0, 0.0, 0.0, 0.0, 0.0, 1.0, 0.0, 1.0, 0.0, 2.0, 0.0, 0.0, 0.0, 0.0, 1.0, 4.0, 1.0, 2.0, 1.0, 1.0, 1.0, 1.0, 3.0, 1.0, 6.0, 3.0, 3.0, 2.0, 6.0, 3.0, 3.0, 1.0, 5.0, 2.0, 3.0, 0.0, 1.0, 1.0, 0.0, 0.0, 0.0, 1.0, 1.0, 1.0, 0.0, 0.0, 1.0], "bins": [-0.056084319949150085, -0.05473281070590019, -0.0533813014626503, -0.05202978849411011, -0.050678279250860214, -0.04932677000761032, -0.04797526076436043, -0.046623751521110535, -0.04527223855257034, -0.04392072930932045, -0.04256922006607056, -0.041217707097530365, -0.03986619785428047, -0.03851468861103058, -0.037163179367780685, -0.03581167012453079, -0.0344601571559906, -0.03310864791274071, -0.031757138669490814, -0.030405627563595772, -0.02905411645770073, -0.027702607214450836, -0.026351097971200943, -0.0249995868653059, -0.023648079484701157, -0.022296570241451263, -0.02094505913555622, -0.019593549892306328, -0.018242038786411285, -0.016890529543161392, -0.015539019368588924, -0.014187509194016457, -0.012835996225476265, -0.011484486050903797, -0.01013297587633133, -0.008781466633081436, -0.007429955992847681, -0.006078445818275213, -0.004726936109364033, -0.003375425934791565, -0.002023915760219097, -0.0006724057020619512, 0.0006791043560951948, 0.002030614297837019, 0.0033821244724094868, 0.004733634646981955, 0.006085144355893135, 0.007436654530465603, 0.00878816470503807, 0.010139674879610538, 0.011491185054183006, 0.0128426942974329, 0.014194205403327942, 0.015545714646577835, 0.01689722388982773, 0.01824873499572277, 0.019600246101617813, 0.020951755344867706, 0.02230326645076275, 0.023654775694012642, 0.025006286799907684, 0.026357796043157578, 0.02770930528640747, 0.029060816392302513, 0.030412325635552406]}, "parameters/mlp_extractor.policy_net.2.weight": {"_type": "histogram", "values": [2.0, 1.0, 3.0, 2.0, 6.0, 9.0, 5.0, 18.0, 17.0, 17.0, 33.0, 29.0, 41.0, 48.0, 72.0, 71.0, 89.0, 82.0, 118.0, 122.0, 142.0, 147.0, 160.0, 178.0, 167.0, 172.0, 196.0, 186.0, 191.0, 158.0, 214.0, 151.0, 157.0, 153.0, 138.0, 112.0, 103.0, 101.0, 89.0, 88.0, 61.0, 40.0, 56.0, 43.0, 25.0, 17.0, 21.0, 8.0, 9.0, 8.0, 6.0, 0.0, 3.0, 6.0, 1.0, 1.0, 1.0, 1.0, 0.0, 0.0, 0.0, 0.0, 0.0, 1.0], "bins": [-0.5944734811782837, -0.5726878046989441, -0.5509021282196045, -0.5291164517402649, -0.5073307752609253, -0.4855450987815857, -0.4637593924999237, -0.4419737160205841, -0.4201880395412445, -0.3984023630619049, -0.3766166865825653, -0.3548309803009033, -0.3330453038215637, -0.3112596273422241, -0.2894739508628845, -0.2676882743835449, -0.24590259790420532, -0.22411692142486572, -0.20233124494552612, -0.18054555356502533, -0.15875987708568573, -0.13697420060634613, -0.11518850922584534, -0.09340283274650574, -0.07161715626716614, -0.04983147606253624, -0.02804579585790634, -0.006260111927986145, 0.015525564551353455, 0.037311241030693054, 0.05909693241119385, 0.08088260889053345, 0.10266822576522827, 0.12445390224456787, 0.14623957872390747, 0.16802527010440826, 0.18981094658374786, 0.21159662306308746, 0.23338231444358826, 0.25516799092292786, 0.27695366740226746, 0.29873934388160706, 0.32052502036094666, 0.34231072664260864, 0.36409640312194824, 0.38588207960128784, 0.40766775608062744, 0.42945343255996704, 0.45123910903930664, 0.47302478551864624, 0.49481046199798584, 0.5165961384773254, 0.538381814956665, 0.5601674914360046, 0.5819531679153442, 0.6037389039993286, 0.6255245208740234, 0.647310197353363, 0.6690958738327026, 0.6908815503120422, 0.7126672267913818, 0.7344529032707214, 0.756238579750061, 0.7780243158340454, 0.799809992313385]}, "parameters/mlp_extractor.policy_net.2.bias": {"_type": "histogram", "values": [1.0, 0.0, 0.0, 0.0, 0.0, 0.0, 0.0, 0.0, 0.0, 1.0, 0.0, 0.0, 0.0, 0.0, 0.0, 0.0, 0.0, 0.0, 1.0, 0.0, 0.0, 0.0, 1.0, 1.0, 2.0, 4.0, 0.0, 2.0, 2.0, 3.0, 2.0, 1.0, 3.0, 1.0, 3.0, 5.0, 2.0, 3.0, 3.0, 4.0, 3.0, 1.0, 3.0, 0.0, 0.0, 0.0, 0.0, 0.0, 1.0, 0.0, 0.0, 1.0, 1.0, 1.0, 0.0, 1.0, 0.0, 2.0, 2.0, 0.0, 0.0, 0.0, 1.0, 2.0], "bins": [-0.019677039235830307, -0.019086919724941254, -0.0184968002140522, -0.017906682565808296, -0.017316563054919243, -0.01672644354403019, -0.016136324033141136, -0.015546204522252083, -0.014956085942685604, -0.01436596643179655, -0.013775847852230072, -0.013185728341341019, -0.012595608830451965, -0.012005490250885487, -0.011415370739996433, -0.010825252160429955, -0.010235132649540901, -0.009645013138651848, -0.009054894559085369, -0.008464775048196316, -0.007874656468629837, -0.007284536957740784, -0.00669441744685173, -0.006104298401623964, -0.005514179356396198, -0.004924060311168432, -0.004333941265940666, -0.003743821755051613, -0.003153702709823847, -0.0025635836645960808, -0.001973464386537671, -0.0013833451084792614, -0.0007932260632514954, -0.0002031069016084075, 0.00038701226003468037, 0.0009771314216777682, 0.001567250583320856, 0.002157369628548622, 0.002747488906607032, 0.0033376081846654415, 0.0039277272298932076, 0.004517846275120974, 0.00510796532034874, 0.005698084831237793, 0.006288203876465559, 0.006878322921693325, 0.007468442432582378, 0.008058561012148857, 0.00864868052303791, 0.009238800033926964, 0.009828918613493443, 0.010419038124382496, 0.011009156703948975, 0.011599276214838028, 0.012189395725727081, 0.012779515236616135, 0.013369633816182613, 0.013959753327071667, 0.014549871906638145, 0.015139991417527199, 0.015730110928416252, 0.016320228576660156, 0.01691034808754921, 0.017500467598438263, 0.018090587109327316]}, "parameters/mlp_extractor.value_net.0.weight": {"_type": "histogram", "values": [1.0, 0.0, 1.0, 2.0, 0.0, 0.0, 1.0, 0.0, 3.0, 0.0, 0.0, 0.0, 7.0, 2.0, 1.0, 3.0, 3.0, 6.0, 3.0, 3.0, 5.0, 4.0, 4.0, 12.0, 11.0, 9.0, 11.0, 6.0, 4.0, 6.0, 10.0, 9.0, 13.0, 12.0, 16.0, 6.0, 9.0, 5.0, 8.0, 5.0, 8.0, 7.0, 4.0, 5.0, 3.0, 2.0, 4.0, 3.0, 0.0, 1.0, 2.0, 3.0, 3.0, 0.0, 0.0, 4.0, 1.0, 0.0, 0.0, 0.0, 1.0, 2.0, 1.0, 1.0], "bins": [-0.8544171452522278, -0.8269073367118835, -0.7993975281715393, -0.7718877196311951, -0.7443779110908508, -0.7168681025505066, -0.6893582344055176, -0.6618484258651733, -0.6343386173248291, -0.6068288087844849, -0.5793190002441406, -0.5518091917037964, -0.5242993831634521, -0.4967895746231079, -0.4692797362804413, -0.44176992774009705, -0.4142601490020752, -0.38675034046173096, -0.3592405319213867, -0.3317307233810425, -0.30422091484069824, -0.276711106300354, -0.24920126795768738, -0.22169145941734314, -0.1941816508769989, -0.16667184233665466, -0.13916203379631042, -0.11165221035480499, -0.08414240181446075, -0.056632593274116516, -0.029122769832611084, -0.0016129612922668457, 0.025896906852722168, 0.053406719118356705, 0.08091653138399124, 0.10842634737491608, 0.13593615591526031, 0.16344596445560455, 0.19095578789710999, 0.21846559643745422, 0.24597540497779846, 0.2734852135181427, 0.30099502205848694, 0.32850486040115356, 0.3560146689414978, 0.38352447748184204, 0.4110342860221863, 0.4385440945625305, 0.46605390310287476, 0.493563711643219, 0.5210735201835632, 0.5485833287239075, 0.5760931372642517, 0.603602945804596, 0.631112813949585, 0.6586226224899292, 0.6861324310302734, 0.7136422395706177, 0.7411520481109619, 0.7686618566513062, 0.7961716651916504, 0.8236814737319946, 0.8511912822723389, 0.8787010908126831, 0.9062108993530273]}, "parameters/mlp_extractor.value_net.0.bias": {"_type": "histogram", "values": [2.0, 0.0, 2.0, 3.0, 2.0, 3.0, 6.0, 2.0, 1.0, 3.0, 4.0, 3.0, 0.0, 0.0, 1.0, 0.0, 0.0, 0.0, 0.0, 0.0, 0.0, 0.0, 0.0, 0.0, 0.0, 0.0, 0.0, 0.0, 0.0, 0.0, 0.0, 0.0, 0.0, 0.0, 0.0, 0.0, 0.0, 0.0, 0.0, 0.0, 0.0, 0.0, 0.0, 0.0, 0.0, 0.0, 0.0, 0.0, 0.0, 1.0, 0.0, 1.0, 1.0, 2.0, 5.0, 4.0, 6.0, 2.0, 1.0, 1.0, 2.0, 0.0, 3.0, 3.0], "bins": [-0.3452095091342926, -0.3345458507537842, -0.32388222217559814, -0.3132185935974121, -0.3025549352169037, -0.29189127683639526, -0.28122764825820923, -0.2705640196800232, -0.25990036129951477, -0.24923671782016754, -0.2385730743408203, -0.22790943086147308, -0.21724578738212585, -0.20658214390277863, -0.1959185004234314, -0.18525485694408417, -0.17459121346473694, -0.1639275699853897, -0.15326392650604248, -0.14260028302669525, -0.13193663954734802, -0.1212729960680008, -0.11060935258865356, -0.09994570910930634, -0.0892820656299591, -0.07861842215061188, -0.06795477867126465, -0.05729113519191742, -0.04662749171257019, -0.03596384823322296, -0.025300204753875732, -0.014636561274528503, -0.003972917795181274, 0.006690725684165955, 0.017354369163513184, 0.028018012642860413, 0.03868165612220764, 0.04934529960155487, 0.0600089430809021, 0.07067258656024933, 0.08133623003959656, 0.09199987351894379, 0.10266351699829102, 0.11332716047763824, 0.12399080395698547, 0.1346544474363327, 0.14531809091567993, 0.15598173439502716, 0.1666453778743744, 0.17730902135372162, 0.18797266483306885, 0.19863630831241608, 0.2092999517917633, 0.21996359527111053, 0.23062723875045776, 0.241290882229805, 0.2519545257091522, 0.26261818408966064, 0.2732818126678467, 0.2839454412460327, 0.29460909962654114, 0.30527275800704956, 0.3159363865852356, 0.32660001516342163, 0.33726367354393005]}, "parameters/mlp_extractor.value_net.2.weight": {"_type": "histogram", "values": [1.0, 0.0, 1.0, 1.0, 3.0, 5.0, 4.0, 3.0, 9.0, 5.0, 11.0, 12.0, 19.0, 18.0, 33.0, 37.0, 38.0, 44.0, 54.0, 59.0, 80.0, 84.0, 100.0, 98.0, 125.0, 117.0, 125.0, 136.0, 130.0, 135.0, 135.0, 142.0, 139.0, 149.0, 148.0, 172.0, 160.0, 161.0, 153.0, 138.0, 122.0, 125.0, 115.0, 80.0, 111.0, 87.0, 78.0, 68.0, 67.0, 51.0, 42.0, 46.0, 27.0, 26.0, 22.0, 11.0, 10.0, 6.0, 4.0, 5.0, 5.0, 1.0, 1.0, 2.0], "bins": [-1.1295713186264038, -1.0960612297058105, -1.0625510215759277, -1.0290409326553345, -0.9955307841300964, -0.9620206356048584, -0.9285104870796204, -0.8950003385543823, -0.8614902496337891, -0.827980101108551, -0.794469952583313, -0.7609598636627197, -0.7274497151374817, -0.6939395666122437, -0.6604294180870056, -0.6269192695617676, -0.5934091210365295, -0.5598989725112915, -0.5263888239860535, -0.4928787052631378, -0.45936858654022217, -0.42585843801498413, -0.3923482894897461, -0.35883814096450806, -0.3253280222415924, -0.29181787371635437, -0.2583077549934387, -0.22479760646820068, -0.19128747284412384, -0.157777339220047, -0.12426719069480896, -0.09075705707073212, -0.05724692344665527, -0.02373678609728813, 0.00977335125207901, 0.04328349232673645, 0.0767936259508133, 0.11030375957489014, 0.14381390810012817, 0.17732404172420502, 0.21083417534828186, 0.2443443089723587, 0.27785444259643555, 0.3113645911216736, 0.3448747396469116, 0.37838485836982727, 0.4118950068950653, 0.44540512561798096, 0.478915274143219, 0.512425422668457, 0.5459355711936951, 0.5794457197189331, 0.6129558086395264, 0.6464659571647644, 0.6799761056900024, 0.7134862542152405, 0.7469964027404785, 0.7805065512657166, 0.8140166997909546, 0.8475267887115479, 0.8810369372367859, 0.9145470857620239, 0.948057234287262, 0.9815673828125, 1.0150774717330933]}, "parameters/mlp_extractor.value_net.2.bias": {"_type": "histogram", "values": [2.0, 1.0, 0.0, 1.0, 0.0, 2.0, 1.0, 0.0, 0.0, 2.0, 2.0, 2.0, 3.0, 2.0, 1.0, 0.0, 4.0, 6.0, 1.0, 5.0, 0.0, 0.0, 1.0, 0.0, 0.0, 0.0, 0.0, 0.0, 0.0, 0.0, 0.0, 0.0, 0.0, 0.0, 0.0, 0.0, 0.0, 0.0, 0.0, 0.0, 0.0, 0.0, 1.0, 1.0, 0.0, 0.0, 0.0, 4.0, 3.0, 3.0, 1.0, 4.0, 0.0, 2.0, 1.0, 4.0, 1.0, 0.0, 0.0, 1.0, 0.0, 1.0, 0.0, 1.0], "bins": [-0.24669896066188812, -0.2391987442970276, -0.23169852793216705, -0.22419831156730652, -0.2166980803012848, -0.20919787883758545, -0.20169764757156372, -0.19419743120670319, -0.18669721484184265, -0.17919699847698212, -0.17169678211212158, -0.16419656574726105, -0.1566963493824005, -0.14919611811637878, -0.14169590175151825, -0.13419568538665771, -0.12669546902179718, -0.11919525265693665, -0.11169503629207611, -0.10419481247663498, -0.09669459611177444, -0.08919437974691391, -0.08169415593147278, -0.07419393956661224, -0.06669372320175171, -0.059193506836891174, -0.05169328674674034, -0.04419306665658951, -0.03669285029172897, -0.02919263392686844, -0.021692413836717606, -0.014192193746566772, -0.006691962480545044, 0.00080825574696064, 0.008308473974466324, 0.015808692201972008, 0.02330891042947769, 0.030809126794338226, 0.03830934688448906, 0.04580956697463989, 0.05330978333950043, 0.06080999970436096, 0.0683102160692215, 0.07581043988466263, 0.08331065624952316, 0.0908108726143837, 0.09831109642982483, 0.10581131279468536, 0.1133115291595459, 0.12081174552440643, 0.12831196188926697, 0.1358121782541275, 0.14331239461898804, 0.15081262588500977, 0.1583128422498703, 0.16581305861473083, 0.17331327497959137, 0.1808134913444519, 0.18831370770931244, 0.19581392407417297, 0.2033141553401947, 0.21081435680389404, 0.21831458806991577, 0.2258148044347763, 0.23331502079963684]}, "parameters/action_net.weight": {"_type": "histogram", "values": [1.0, 1.0, 1.0, 1.0, 0.0, 1.0, 0.0, 0.0, 1.0, 1.0, 2.0, 3.0, 1.0, 0.0, 0.0, 1.0, 3.0, 4.0, 1.0, 4.0, 0.0, 1.0, 3.0, 2.0, 4.0, 5.0, 1.0, 7.0, 3.0, 4.0, 2.0, 5.0, 5.0, 4.0, 3.0, 4.0, 7.0, 1.0, 3.0, 7.0, 1.0, 2.0, 2.0, 0.0, 2.0, 4.0, 1.0, 5.0, 1.0, 0.0, 0.0, 0.0, 3.0, 3.0, 1.0, 0.0, 1.0, 0.0, 1.0, 0.0, 1.0, 1.0, 1.0, 1.0], "bins": [-0.15639755129814148, -0.1515301913022995, -0.1466628462076187, -0.14179548621177673, -0.13692814111709595, -0.13206078112125397, -0.12719343602657318, -0.1223260760307312, -0.11745872348546982, -0.11259137094020844, -0.10772401839494705, -0.10285666584968567, -0.09798930585384369, -0.0931219607591629, -0.08825460076332092, -0.08338724821805954, -0.07851989567279816, -0.07365254312753677, -0.06878519058227539, -0.06391783803701401, -0.059050481766462326, -0.05418312922120094, -0.04931577295064926, -0.04444842040538788, -0.039581067860126495, -0.03471371531486511, -0.02984636090695858, -0.024979006499052048, -0.020111653953790665, -0.015244301408529282, -0.01037694700062275, -0.005509592592716217, -0.0006422549486160278, 0.00422509852796793, 0.009092452004551888, 0.013959805481135845, 0.018827158957719803, 0.023694511502981186, 0.028561865910887718, 0.03342922031879425, 0.038296572864055634, 0.04316392540931702, 0.0480312779545784, 0.05289863422513008, 0.057765986770391464, 0.06263333559036255, 0.06750069558620453, 0.07236804813146591, 0.0772354006767273, 0.08210275322198868, 0.08697010576725006, 0.09183745831251144, 0.09670481085777283, 0.10157217085361481, 0.10643952339887619, 0.11130687594413757, 0.11617422848939896, 0.12104158103466034, 0.12590894103050232, 0.1307762861251831, 0.13564364612102509, 0.14051099121570587, 0.14537835121154785, 0.15024569630622864, 0.15511305630207062]}, "parameters/action_net.bias": {"_type": "histogram", "values": [1.0, 0.0, 0.0, 0.0, 0.0, 0.0, 0.0, 0.0, 0.0, 0.0, 0.0, 0.0, 0.0, 0.0, 0.0, 0.0, 0.0, 0.0, 0.0, 0.0, 0.0, 0.0, 0.0, 0.0, 0.0, 0.0, 0.0, 0.0, 0.0, 0.0, 0.0, 0.0, 0.0, 0.0, 0.0, 0.0, 0.0, 0.0, 0.0, 0.0, 0.0, 0.0, 0.0, 0.0, 0.0, 0.0, 0.0, 0.0, 0.0, 0.0, 0.0, 0.0, 0.0, 0.0, 0.0, 0.0, 0.0, 0.0, 0.0, 0.0, 0.0, 0.0, 0.0, 1.0], "bins": [-0.0053104194812476635, -0.005144468974322081, -0.00497851800173521, -0.0048125674948096275, -0.004646616522222757, -0.0044806660152971745, -0.004314715042710304, -0.004148764535784721, -0.0039828140288591385, -0.003816863289102912, -0.0036509125493466854, -0.0034849620424211025, -0.0033190110698342323, -0.0031530605629086494, -0.002987109823152423, -0.0028211590833961964, -0.002655208110809326, -0.0024892573710530996, -0.002323306631296873, -0.00215735612437129, -0.00199140515178442, -0.0018254545284435153, -0.0016595039051026106, -0.001493553165346384, -0.0013276024255901575, -0.001161651685833931, -0.0009957009460777044, -0.0008297503227367997, -0.0006637995829805732, -0.0004978488432243466, -0.0003318982198834419, -0.00016594748012721539, 2.7939677238464355e-09, 0.00016595350462011993, 0.000331904215272516, 0.0004978548968210816, 0.0006638056365773082, 0.0008297563763335347, 0.0009957069996744394, 0.001161657739430666, 0.0013276084791868925, 0.001493559218943119, 0.0016595099586993456, 0.0018254605820402503, 0.001991411205381155, 0.002157362177968025, 0.002323312684893608, 0.0024892634246498346, 0.002655214164406061, 0.0028211649041622877, 0.0029871156439185143, 0.003153066150844097, 0.0033190171234309673, 0.00348496763035655, 0.0036509183701127768, 0.0038168691098690033, 0.003982819616794586, 0.004148770123720169, 0.004314721096307039, 0.004480671603232622, 0.004646622575819492, 0.004812573082745075, 0.004978523589670658, 0.005144474562257528, 0.0053104255348443985]}, "parameters/value_net.weight": {"_type": "histogram", "values": [3.0, 1.0, 2.0, 7.0, 5.0, 12.0, 5.0, 0.0, 1.0, 0.0, 0.0, 0.0, 0.0, 0.0, 0.0, 0.0, 0.0, 0.0, 0.0, 0.0, 0.0, 0.0, 0.0, 0.0, 0.0, 0.0, 0.0, 0.0, 0.0, 0.0, 0.0, 0.0, 0.0, 0.0, 0.0, 0.0, 0.0, 0.0, 0.0, 0.0, 0.0, 0.0, 0.0, 0.0, 0.0, 0.0, 0.0, 0.0, 0.0, 0.0, 0.0, 0.0, 0.0, 0.0, 0.0, 0.0, 1.0, 5.0, 5.0, 4.0, 7.0, 3.0, 1.0, 2.0], "bins": [-1.34136962890625, -1.2995340824127197, -1.2576985359191895, -1.2158629894256592, -1.1740273237228394, -1.132191777229309, -1.0903562307357788, -1.0485206842422485, -1.0066850185394287, -0.9648494720458984, -0.9230138659477234, -0.8811783194541931, -0.8393427133560181, -0.7975071668624878, -0.7556716203689575, -0.7138360738754272, -0.672000527381897, -0.6301649808883667, -0.5883293747901917, -0.5464938282966614, -0.5046582221984863, -0.46282267570495605, -0.4209871292114258, -0.3791515529155731, -0.33731597661972046, -0.2954804003238678, -0.25364482402801514, -0.21180927753448486, -0.1699737012386322, -0.12813812494277954, -0.08630257844924927, -0.044467002153396606, -0.0026314258575439453, 0.03920414298772812, 0.08103971183300018, 0.12287527322769165, 0.1647108495235443, 0.20654642581939697, 0.24838197231292725, 0.2902175486087799, 0.33205312490463257, 0.37388870120048523, 0.4157242774963379, 0.45755982398986816, 0.4993954002857208, 0.5412309765815735, 0.5830665230751038, 0.6249021291732788, 0.6667376756668091, 0.7085732221603394, 0.7504088282585144, 0.7922443747520447, 0.8340799808502197, 0.87591552734375, 0.9177510738372803, 0.9595866203308105, 1.0014221668243408, 1.043257713317871, 1.0850932598114014, 1.1269288063049316, 1.1687644720077515, 1.2106000185012817, 1.252435564994812, 1.2942711114883423, 1.336106777191162]}, "parameters/value_net.bias": {"_type": "histogram", "values": [0.0, 0.0, 0.0, 0.0, 0.0, 0.0, 0.0, 0.0, 0.0, 0.0, 0.0, 0.0, 0.0, 0.0, 0.0, 0.0, 0.0, 0.0, 0.0, 0.0, 0.0, 0.0, 0.0, 0.0, 0.0, 0.0, 0.0, 0.0, 0.0, 0.0, 0.0, 0.0, 1.0, 0.0, 0.0, 0.0, 0.0, 0.0, 0.0, 0.0, 0.0, 0.0, 0.0, 0.0, 0.0, 0.0, 0.0, 0.0, 0.0, 0.0, 0.0, 0.0, 0.0, 0.0, 0.0, 0.0, 0.0, 0.0, 0.0, 0.0, 0.0, 0.0, 0.0, 0.0], "bins": [0.7041414976119995, 0.7041414976119995, 0.7041414976119995, 0.7041414976119995, 0.7041414976119995, 0.7041414976119995, 0.7041414976119995, 0.7041414976119995, 0.7041414976119995, 0.7041414976119995, 0.7041414976119995, 0.7041414976119995, 0.7041414976119995, 0.7041414976119995, 0.7041414976119995, 0.7041414976119995, 0.7041414976119995, 0.7041414976119995, 0.7041414976119995, 0.7041414976119995, 0.7041414976119995, 0.7041414976119995, 0.7041414976119995, 0.7041414976119995, 0.7041414976119995, 0.7041414976119995, 0.7041414976119995, 0.7041414976119995, 0.7041414976119995, 0.7041414976119995, 0.7041414976119995, 0.7041414976119995, 0.7041414976119995, 0.7041414976119995, 0.7041414976119995, 0.7041414976119995, 0.7041414976119995, 0.7041414976119995, 0.7041414976119995, 0.7041414976119995, 0.7041414976119995, 0.7041414976119995, 0.7041414976119995, 0.7041414976119995, 0.7041414976119995, 0.7041414976119995, 0.7041414976119995, 0.7041414976119995, 0.7041414976119995, 0.7041414976119995, 0.7041414976119995, 0.7041414976119995, 0.7041414976119995, 0.7041414976119995, 0.7041414976119995, 0.7041414976119995, 0.7041414976119995, 0.7041414976119995, 0.7041414976119995, 0.7041414976119995, 0.7041414976119995, 0.7041414976119995, 0.7041414976119995, 0.7041414976119995, 0.7041414976119995]}, "videos": {"_type": "video-file", "path": "media/videos/videos_13_c6c89bf81ea278510b6e.mp4", "sha256": "c6c89bf81ea278510b6ebf59d89b55e851982e51897cd0581bb055fc66970228", "size": 19934}, "_step": 27, "gradients/value_net.bias": {"_type": "histogram", "values": [0.0, 0.0, 0.0, 0.0, 0.0, 0.0, 0.0, 0.0, 0.0, 0.0, 0.0, 0.0, 0.0, 0.0, 0.0, 0.0, 0.0, 0.0, 0.0, 0.0, 0.0, 0.0, 0.0, 0.0, 0.0, 0.0, 0.0, 0.0, 0.0, 0.0, 0.0, 0.0, 1.0, 0.0, 0.0, 0.0, 0.0, 0.0, 0.0, 0.0, 0.0, 0.0, 0.0, 0.0, 0.0, 0.0, 0.0, 0.0, 0.0, 0.0, 0.0, 0.0, 0.0, 0.0, 0.0, 0.0, 0.0, 0.0, 0.0, 0.0, 0.0, 0.0, 0.0, 0.0], "bins": [-0.08379232883453369, -0.08379232883453369, -0.08379232883453369, -0.08379232883453369, -0.08379232883453369, -0.08379232883453369, -0.08379232883453369, -0.08379232883453369, -0.08379232883453369, -0.08379232883453369, -0.08379232883453369, -0.08379232883453369, -0.08379232883453369, -0.08379232883453369, -0.08379232883453369, -0.08379232883453369, -0.08379232883453369, -0.08379232883453369, -0.08379232883453369, -0.08379232883453369, -0.08379232883453369, -0.08379232883453369, -0.08379232883453369, -0.08379232883453369, -0.08379232883453369, -0.08379232883453369, -0.08379232883453369, -0.08379232883453369, -0.08379232883453369, -0.08379232883453369, -0.08379232883453369, -0.08379232883453369, -0.08379232883453369, -0.08379232883453369, -0.08379232883453369, -0.08379232883453369, -0.08379232883453369, -0.08379232883453369, -0.08379232883453369, -0.08379232883453369, -0.08379232883453369, -0.08379232883453369, -0.08379232883453369, -0.08379232883453369, -0.08379232883453369, -0.08379232883453369, -0.08379232883453369, -0.08379232883453369, -0.08379232883453369, -0.08379232883453369, -0.08379232883453369, -0.08379232883453369, -0.08379232883453369, -0.08379232883453369, -0.08379232883453369, -0.08379232883453369, -0.08379232883453369, -0.08379232883453369, -0.08379232883453369, -0.08379232883453369, -0.08379232883453369, -0.08379232883453369, -0.08379232883453369, -0.08379232883453369, -0.08379232883453369]}, "gradients/value_net.weight": {"_type": "histogram", "values": [1.0, 0.0, 0.0, 0.0, 1.0, 0.0, 0.0, 0.0, 0.0, 0.0, 12.0, 14.0, 0.0, 0.0, 0.0, 0.0, 0.0, 0.0, 0.0, 0.0, 0.0, 0.0, 0.0, 0.0, 0.0, 0.0, 0.0, 0.0, 0.0, 0.0, 0.0, 0.0, 0.0, 0.0, 0.0, 0.0, 0.0, 0.0, 0.0, 0.0, 0.0, 0.0, 0.0, 0.0, 0.0, 0.0, 0.0, 0.0, 0.0, 0.0, 0.0, 0.0, 26.0, 9.0, 0.0, 0.0, 0.0, 0.0, 0.0, 0.0, 0.0, 0.0, 0.0, 1.0], "bins": [-0.1278742551803589, -0.12386642396450043, -0.11985860019922256, -0.1158507689833641, -0.11184294521808624, -0.10783511400222778, -0.10382728278636932, -0.09981945902109146, -0.0958116352558136, -0.09180380403995514, -0.08779598027467728, -0.08378814905881882, -0.07978032529354095, -0.0757724940776825, -0.07176466286182404, -0.06775683909654617, -0.06374900788068771, -0.05974118039011955, -0.05573335289955139, -0.05172552168369293, -0.04771769791841507, -0.04370986670255661, -0.03970203921198845, -0.03569421172142029, -0.03168638423085213, -0.027678556740283966, -0.023670729249715805, -0.019662899896502495, -0.015655072405934334, -0.011647244915366173, -0.0076394155621528625, -0.0036315880715847015, 0.00037623941898345947, 0.004384067375212908, 0.008391895331442356, 0.012399723753333092, 0.016407551243901253, 0.020415378734469414, 0.024423208087682724, 0.028431035578250885, 0.032438863068819046, 0.03644669055938721, 0.04045451804995537, 0.04446234554052353, 0.04847017675638199, 0.05247800052165985, 0.05648583173751831, 0.06049365922808647, 0.06450148671865463, 0.06850931793451309, 0.07251714169979095, 0.07652497291564941, 0.08053279668092728, 0.08454062789678574, 0.0885484516620636, 0.09255628287792206, 0.09656411409378052, 0.10057194530963898, 0.10457976907491684, 0.1085876002907753, 0.11259542405605316, 0.11660325527191162, 0.12061108648777008, 0.12461891025304794, 0.1286267340183258]}, "gradients/action_net.bias": {"_type": "histogram", "values": [1.0, 0.0, 0.0, 0.0, 0.0, 0.0, 0.0, 0.0, 0.0, 0.0, 0.0, 0.0, 0.0, 0.0, 0.0, 0.0, 0.0, 0.0, 0.0, 0.0, 0.0, 0.0, 0.0, 0.0, 0.0, 0.0, 0.0, 0.0, 0.0, 0.0, 0.0, 0.0, 0.0, 0.0, 0.0, 0.0, 0.0, 0.0, 0.0, 0.0, 0.0, 0.0, 0.0, 0.0, 0.0, 0.0, 0.0, 0.0, 0.0, 0.0, 0.0, 0.0, 0.0, 0.0, 0.0, 0.0, 0.0, 0.0, 0.0, 0.0, 0.0, 0.0, 0.0, 1.0], "bins": [-0.014828287065029144, -0.01436490286141634, -0.01390151958912611, -0.013438135385513306, -0.012974751181900501, -0.012511366978287697, -0.012047983705997467, -0.011584599502384663, -0.011121215298771858, -0.010657831095159054, -0.010194447822868824, -0.00973106361925602, -0.009267679415643215, -0.00880429521203041, -0.008340911939740181, -0.007877527736127377, -0.007414144463837147, -0.00695076072588563, -0.006487376522272825, -0.006023992784321308, -0.005560608580708504, -0.005097224842756987, -0.0046338411048054695, -0.004170456901192665, -0.003707073163241148, -0.0032436891924589872, -0.0027803052216768265, -0.0023169214837253094, -0.0018535375129431486, -0.0013901535421609879, -0.0009267698042094707, -0.00046338583342731, -1.862645149230957e-09, 0.0004633820499293506, 0.0009267659625038505, 0.0013901498168706894, 0.0018535337876528502, 0.002316917758435011, 0.002780301496386528, 0.0032436854671686888, 0.0037070694379508495, 0.004170453175902367, 0.004633837379515171, 0.005097221117466688, 0.005560604855418205, 0.00602398905903101, 0.006487372796982527, 0.006950756534934044, 0.007414140738546848, 0.007877524942159653, 0.008340908214449883, 0.008804292418062687, 0.009267676621675491, 0.009731059893965721, 0.010194444097578526, 0.01065782830119133, 0.01112121157348156, 0.011584595777094364, 0.012047979049384594, 0.012511363252997398, 0.012974747456610203, 0.013438131660223007, 0.013901514932513237, 0.014364899136126041, 0.014828283339738846]}, "gradients/action_net.weight": {"_type": "histogram", "values": [1.0, 0.0, 1.0, 5.0, 1.0, 2.0, 1.0, 1.0, 0.0, 0.0, 1.0, 2.0, 0.0, 2.0, 2.0, 0.0, 2.0, 3.0, 1.0, 4.0, 1.0, 2.0, 0.0, 3.0, 3.0, 4.0, 3.0, 6.0, 0.0, 2.0, 4.0, 7.0, 7.0, 4.0, 2.0, 0.0, 6.0, 3.0, 4.0, 3.0, 3.0, 0.0, 2.0, 1.0, 4.0, 1.0, 3.0, 2.0, 0.0, 2.0, 2.0, 0.0, 2.0, 1.0, 0.0, 0.0, 1.0, 1.0, 2.0, 1.0, 5.0, 1.0, 0.0, 1.0], "bins": [-0.044738586992025375, -0.04334050789475441, -0.041942425072193146, -0.04054434597492218, -0.039146263152360916, -0.03774818405508995, -0.036350101232528687, -0.03495202213525772, -0.033553943037986755, -0.03215586394071579, -0.030757781118154526, -0.02935970202088356, -0.027961619198322296, -0.02656354010105133, -0.025165459141135216, -0.0237673781812191, -0.022369295358657837, -0.020971214398741722, -0.019573133438825607, -0.01817505434155464, -0.016776971518993378, -0.015378891490399837, -0.013980811461806297, -0.012582730501890182, -0.011184649541974068, -0.009786568582057953, -0.008388487622141838, -0.006990407593548298, -0.005592326633632183, -0.004194245673716068, -0.002796165645122528, -0.0013980846852064133, -3.725290298461914e-09, 0.0013980770017951727, 0.002796157728880644, 0.004194238223135471, 0.005592319183051586, 0.006990400142967701, 0.008388480171561241, 0.009786561131477356, 0.01118464209139347, 0.012582723051309586, 0.0139808040112257, 0.01537888403981924, 0.01677696406841278, 0.018175046890974045, 0.01957312598824501, 0.020971206948161125, 0.02236928790807724, 0.023767368867993355, 0.02516544982790947, 0.026563528925180435, 0.0279616117477417, 0.029359690845012665, 0.03075777180492878, 0.032155852764844894, 0.03355393558740616, 0.034952014684677124, 0.03635009750723839, 0.037748176604509354, 0.03914625942707062, 0.04054433852434158, 0.04194241762161255, 0.04334050044417381, 0.04473857954144478]}, "gradients/mlp_extractor.value_net.2.bias": {"_type": "histogram", "values": [1.0, 0.0, 0.0, 0.0, 0.0, 0.0, 0.0, 0.0, 0.0, 2.0, 0.0, 0.0, 4.0, 2.0, 1.0, 1.0, 3.0, 1.0, 4.0, 8.0, 4.0, 13.0, 6.0, 1.0, 5.0, 3.0, 0.0, 0.0, 1.0, 0.0, 1.0, 1.0, 0.0, 0.0, 0.0, 0.0, 0.0, 0.0, 0.0, 0.0, 0.0, 1.0, 0.0, 0.0, 0.0, 0.0, 0.0, 0.0, 0.0, 0.0, 0.0, 0.0, 0.0, 0.0, 0.0, 0.0, 0.0, 0.0, 0.0, 0.0, 0.0, 0.0, 0.0, 1.0], "bins": [-0.013912996277213097, -0.013230117037892342, -0.012547238729894161, -0.011864359490573406, -0.011181480251252651, -0.01049860194325447, -0.009815722703933716, -0.00913284346461296, -0.008449964225292206, -0.007767085451632738, -0.007084206212311983, -0.006401327438652515, -0.00571844819933176, -0.005035569425672293, -0.004352690652012825, -0.00366981141269207, -0.0029869331046938896, -0.0023040540982037783, -0.0016211752081289887, -0.0009382963180541992, -0.00025541731156408787, 0.0004274616949260235, 0.0011103404685854912, 0.0017932197079062462, 0.002476098481565714, 0.0031589774880558252, 0.0038418564945459366, 0.004524735268205404, 0.005207614041864872, 0.005890493281185627, 0.006573372054845095, 0.00725625129416585, 0.007939130067825317, 0.008622009307146072, 0.009304887615144253, 0.009987766854465008, 0.010670646093785763, 0.011353524401783943, 0.012036403641104698, 0.012719282880425453, 0.013402162119746208, 0.014085041359066963, 0.014767919667065144, 0.015450798906385899, 0.01613367721438408, 0.016816556453704834, 0.01749943569302559, 0.018182314932346344, 0.0188651941716671, 0.019548073410987854, 0.02023095265030861, 0.020913831889629364, 0.02159670926630497, 0.022279588505625725, 0.02296246774494648, 0.023645346984267235, 0.02432822436094284, 0.025011103600263596, 0.02569398283958435, 0.026376862078905106, 0.02705973945558071, 0.027742618694901466, 0.02842549793422222, 0.029108377173542976, 0.02979125641286373]}, "gradients/mlp_extractor.value_net.2.weight": {"_type": "histogram", "values": [1.0, 0.0, 1.0, 1.0, 1.0, 1.0, 0.0, 1.0, 0.0, 2.0, 0.0, 1.0, 1.0, 2.0, 1.0, 0.0, 1.0, 2.0, 4.0, 1.0, 1.0, 2.0, 5.0, 6.0, 3.0, 8.0, 9.0, 18.0, 32.0, 54.0, 102.0, 268.0, 755.0, 2008.0, 415.0, 146.0, 76.0, 56.0, 43.0, 14.0, 8.0, 6.0, 8.0, 6.0, 2.0, 4.0, 5.0, 4.0, 3.0, 0.0, 1.0, 2.0, 1.0, 2.0, 0.0, 0.0, 0.0, 0.0, 1.0, 0.0, 0.0, 0.0, 0.0, 1.0], "bins": [-0.023833639919757843, -0.023117616772651672, -0.022401591762900352, -0.021685568615794182, -0.020969543606042862, -0.02025352045893669, -0.01953749731183052, -0.0188214723020792, -0.01810544915497303, -0.01738942600786686, -0.01667340099811554, -0.01595737785100937, -0.015241353772580624, -0.014525329694151878, -0.013809305615723133, -0.013093281537294388, -0.012377257458865643, -0.011661233380436897, -0.010945209302008152, -0.010229185223579407, -0.009513162076473236, -0.00879713799804449, -0.008081113919615746, -0.007365090306848288, -0.006649066228419542, -0.005933042149990797, -0.005217018537223339, -0.004500994458794594, -0.003784970613196492, -0.0030689467675983906, -0.0023529226891696453, -0.0016368990764021873, -0.0009208749979734421, -0.00020485109416767955, 0.000511172809638083, 0.0012271967716515064, 0.001943220617249608, 0.0026592444628477097, 0.003375268541276455, 0.004091292154043913, 0.004807316232472658, 0.005523340310901403, 0.006239363923668861, 0.006955388002097607, 0.007671412080526352, 0.008387435227632523, 0.009103460237383842, 0.009819483384490013, 0.010535507462918758, 0.011251531541347504, 0.011967555619776249, 0.012683579698204994, 0.013399602845311165, 0.01411562692373991, 0.014831651002168655, 0.015547674149274826, 0.016263699159026146, 0.016979722306132317, 0.017695747315883636, 0.018411770462989807, 0.019127795472741127, 0.019843818619847298, 0.020559843629598618, 0.021275866776704788, 0.02199188992381096]}, "gradients/mlp_extractor.value_net.0.bias": {"_type": "histogram", "values": [1.0, 2.0, 0.0, 0.0, 0.0, 1.0, 3.0, 0.0, 1.0, 0.0, 0.0, 0.0, 0.0, 1.0, 0.0, 1.0, 1.0, 2.0, 1.0, 1.0, 2.0, 0.0, 2.0, 0.0, 0.0, 3.0, 0.0, 2.0, 0.0, 1.0, 2.0, 3.0, 1.0, 0.0, 1.0, 1.0, 0.0, 1.0, 3.0, 3.0, 1.0, 5.0, 2.0, 4.0, 1.0, 1.0, 1.0, 2.0, 0.0, 0.0, 0.0, 0.0, 0.0, 0.0, 0.0, 0.0, 0.0, 1.0, 0.0, 2.0, 0.0, 0.0, 2.0, 2.0], "bins": [-0.061888013035058975, -0.059921134263277054, -0.05795425921678543, -0.05598738044500351, -0.05402050167322159, -0.05205362290143967, -0.050086744129657745, -0.04811986908316612, -0.0461529903113842, -0.04418611153960228, -0.04221923649311066, -0.040252357721328735, -0.038285478949546814, -0.03631860017776489, -0.03435172140598297, -0.03238484635949135, -0.030417967587709427, -0.028451088815927505, -0.026484211906790733, -0.02451733499765396, -0.02255045622587204, -0.02058357745409012, -0.018616700544953346, -0.016649823635816574, -0.014682944864034653, -0.012716067023575306, -0.01074918918311596, -0.008782311342656612, -0.006815433502197266, -0.004848555661737919, -0.002881677821278572, -0.0009147999808192253, 0.00105208158493042, 0.0030189594253897667, 0.0049858372658491135, 0.00695271510630846, 0.008919592946767807, 0.010886470787227154, 0.0128533486276865, 0.014820226468145847, 0.016787104308605194, 0.018753983080387115, 0.020720859989523888, 0.02268773689866066, 0.02465461567044258, 0.026621494442224503, 0.028588371351361275, 0.030555248260498047, 0.03252212703227997, 0.03448900580406189, 0.03645588457584381, 0.038422759622335434, 0.040389638394117355, 0.04235651716589928, 0.0443233922123909, 0.04629027098417282, 0.04825714975595474, 0.050224028527736664, 0.052190907299518585, 0.05415778234601021, 0.05612466111779213, 0.05809153988957405, 0.060058414936065674, 0.062025293707847595, 0.06399217247962952]}, "gradients/mlp_extractor.value_net.0.weight": {"_type": "histogram", "values": [1.0, 1.0, 2.0, 1.0, 0.0, 0.0, 0.0, 1.0, 1.0, 0.0, 0.0, 1.0, 1.0, 0.0, 2.0, 1.0, 0.0, 2.0, 2.0, 1.0, 8.0, 3.0, 8.0, 10.0, 10.0, 11.0, 3.0, 9.0, 9.0, 16.0, 21.0, 4.0, 19.0, 14.0, 13.0, 10.0, 11.0, 11.0, 6.0, 8.0, 9.0, 4.0, 4.0, 3.0, 3.0, 0.0, 0.0, 2.0, 0.0, 2.0, 0.0, 0.0, 2.0, 0.0, 0.0, 0.0, 1.0, 1.0, 1.0, 1.0, 0.0, 0.0, 1.0, 1.0], "bins": [-0.07968448102474213, -0.0771627277135849, -0.07464097440242767, -0.07211922109127045, -0.06959747523069382, -0.06707572191953659, -0.06455396860837936, -0.06203221529722214, -0.05951046198606491, -0.056988708674907684, -0.054466959089040756, -0.05194520577788353, -0.0494234524667263, -0.046901702880859375, -0.04437994956970215, -0.04185819625854492, -0.039336446672677994, -0.03681469336152077, -0.03429294377565384, -0.03177119046449661, -0.029249437153339386, -0.02672768570482731, -0.02420593425631523, -0.021684180945158005, -0.019162429496645927, -0.01664067804813385, -0.014118924736976624, -0.011597173288464546, -0.009075420908629894, -0.006553668528795242, -0.004031917080283165, -0.0015101637691259384, 0.001011587679386139, 0.003533339826390147, 0.0060550919733941555, 0.00857684388756752, 0.011098596267402172, 0.013620348647236824, 0.0161421000957489, 0.018663853406906128, 0.021185604855418205, 0.023707356303930283, 0.02622910961508751, 0.028750861063599586, 0.031272612512111664, 0.03379436582326889, 0.03631611913442612, 0.038837872445583344, 0.04135962203145027, 0.0438813753426075, 0.046403124928474426, 0.04892487823963165, 0.05144663155078888, 0.053968384861946106, 0.056490134447813034, 0.05901188775897026, 0.06153363734483719, 0.06405539065599442, 0.06657714396715164, 0.06909888982772827, 0.0716206431388855, 0.07414239645004272, 0.07666414976119995, 0.07918590307235718, 0.0817076563835144]}, "gradients/mlp_extractor.policy_net.2.bias": {"_type": "histogram", "values": [1.0, 0.0, 0.0, 0.0, 0.0, 0.0, 0.0, 0.0, 0.0, 0.0, 0.0, 0.0, 0.0, 0.0, 1.0, 0.0, 1.0, 1.0, 0.0, 1.0, 1.0, 4.0, 0.0, 2.0, 2.0, 5.0, 3.0, 4.0, 5.0, 4.0, 5.0, 2.0, 3.0, 3.0, 4.0, 1.0, 1.0, 1.0, 0.0, 1.0, 2.0, 1.0, 0.0, 0.0, 0.0, 0.0, 1.0, 0.0, 0.0, 2.0, 0.0, 0.0, 0.0, 0.0, 0.0, 0.0, 0.0, 1.0, 0.0, 0.0, 0.0, 0.0, 0.0, 1.0], "bins": [-0.006386375054717064, -0.00616536196321249, -0.005944348871707916, -0.0057233357802033424, -0.005502322688698769, -0.005281309597194195, -0.005060296505689621, -0.004839283414185047, -0.004618270322680473, -0.0043972572311758995, -0.004176244139671326, -0.003955231048166752, -0.003734217956662178, -0.0035132048651576042, -0.003292192006483674, -0.0030711789149791002, -0.00285016605630517, -0.0026291529648005962, -0.0024081398732960224, -0.0021871267817914486, -0.0019661136902868748, -0.0017451007151976228, -0.0015240877401083708, -0.001303074648603797, -0.0010820615570992231, -0.0008610484655946493, -0.0006400354322977364, -0.0004190223990008235, -0.00019800930749624968, 2.3003784008324146e-05, 0.00024401675909757614, 0.00046502985060214996, 0.0006860424764454365, 0.0009070555679500103, 0.0011280686594545841, 0.0013490816345438361, 0.00157009472604841, 0.0017911078175529838, 0.0020121207926422358, 0.0022331338841468096, 0.0024541469756513834, 0.0026751600671559572, 0.002896173158660531, 0.003117186017334461, 0.003338199108839035, 0.003559212200343609, 0.0037802252918481827, 0.0040012383833527565, 0.00422225147485733, 0.004443264566361904, 0.004664277657866478, 0.004885290749371052, 0.005106303840875626, 0.005327316932380199, 0.005548330023884773, 0.005769343115389347, 0.005990356206893921, 0.006211369298398495, 0.0064323823899030685, 0.006653395481407642, 0.006874408572912216, 0.00709542166441679, 0.007316434755921364, 0.007537447847425938, 0.007758460473269224]}, "gradients/mlp_extractor.policy_net.2.weight": {"_type": "histogram", "values": [2.0, 0.0, 0.0, 0.0, 0.0, 0.0, 0.0, 1.0, 3.0, 3.0, 4.0, 1.0, 3.0, 2.0, 5.0, 7.0, 13.0, 12.0, 21.0, 17.0, 25.0, 40.0, 35.0, 53.0, 71.0, 86.0, 74.0, 109.0, 130.0, 180.0, 211.0, 302.0, 425.0, 672.0, 365.0, 272.0, 200.0, 150.0, 103.0, 89.0, 93.0, 70.0, 43.0, 32.0, 32.0, 27.0, 17.0, 19.0, 18.0, 7.0, 8.0, 9.0, 6.0, 6.0, 9.0, 8.0, 1.0, 1.0, 0.0, 0.0, 1.0, 1.0, 1.0, 1.0], "bins": [-0.007074807304888964, -0.006862804759293795, -0.006650802679359913, -0.006438800133764744, -0.006226797588169575, -0.006014795042574406, -0.005802792962640524, -0.005590790417045355, -0.005378787871450186, -0.005166785325855017, -0.004954783245921135, -0.004742780700325966, -0.004530778154730797, -0.004318775609135628, -0.004106773529201746, -0.003894770983606577, -0.0036827686708420515, -0.003470766358077526, -0.003258763812482357, -0.0030467614997178316, -0.0028347589541226625, -0.002622756641358137, -0.002410754095762968, -0.0021987517829984426, -0.0019867494702339172, -0.00177474704105407, -0.0015627446118742228, -0.0013507422991096973, -0.0011387397535145283, -0.0009267374407500029, -0.0007147350115701556, -0.0005027325823903084, -0.0002907300367951393, -7.87276221672073e-05, 0.0001332747924607247, 0.0003452771925367415, 0.0005572796217165887, 0.0007692819926887751, 0.0009812844218686223, 0.0011932868510484695, 0.0014052892802283168, 0.001617291709408164, 0.0018292941385880113, 0.0020412965677678585, 0.002253298880532384, 0.0024653011932969093, 0.0026773037388920784, 0.0028893062844872475, 0.003101308597251773, 0.0033133109100162983, 0.0035253134556114674, 0.0037373157683759928, 0.003949318081140518, 0.004161320626735687, 0.004373323172330856, 0.004585325717926025, 0.004797327797859907, 0.005009330343455076, 0.005221332423388958, 0.005433334968984127, 0.005645337514579296, 0.005857340060174465, 0.006069342140108347, 0.006281344685703516, 0.006493347231298685]}, "gradients/mlp_extractor.policy_net.0.bias": {"_type": "histogram", "values": [1.0, 1.0, 1.0, 0.0, 0.0, 1.0, 1.0, 3.0, 0.0, 0.0, 1.0, 3.0, 2.0, 2.0, 0.0, 0.0, 0.0, 0.0, 1.0, 2.0, 0.0, 1.0, 2.0, 1.0, 1.0, 4.0, 3.0, 3.0, 2.0, 1.0, 1.0, 3.0, 3.0, 2.0, 3.0, 1.0, 2.0, 1.0, 0.0, 2.0, 0.0, 3.0, 0.0, 0.0, 0.0, 1.0, 0.0, 0.0, 0.0, 1.0, 0.0, 0.0, 0.0, 0.0, 0.0, 1.0, 0.0, 0.0, 0.0, 1.0, 0.0, 0.0, 0.0, 2.0], "bins": [-0.009489484131336212, -0.00909536425024271, -0.008701243437826633, -0.008307123556733131, -0.00791300367563963, -0.00751888332888484, -0.007124762982130051, -0.006730643101036549, -0.006336522754281759, -0.00594240240752697, -0.005548282526433468, -0.0051541621796786785, -0.004760041832923889, -0.004365921951830387, -0.003971801605075598, -0.003577681491151452, -0.0031835613772273064, -0.0027894412633031607, -0.002395321149379015, -0.0020012008026242256, -0.00160708068870008, -0.0012129605747759342, -0.0008188402280211449, -0.00042472011409699917, -3.060000017285347e-05, 0.00036352017195895314, 0.0007576403440907598, 0.0011517605744302273, 0.001545880688354373, 0.0019400008022785187, 0.002334121149033308, 0.0027282412629574537, 0.0031223613768815994, 0.003516481490805745, 0.003910601604729891, 0.00430472195148468, 0.004698841832578182, 0.005092962179332972, 0.005487082526087761, 0.005881202407181263, 0.006275322753936052, 0.006669443100690842, 0.007063562981784344, 0.007457683328539133, 0.007851803675293922, 0.008245923556387424, 0.008640043437480927, 0.009034164249897003, 0.009428284130990505, 0.009822404012084007, 0.010216524824500084, 0.010610644705593586, 0.011004764586687088, 0.011398885399103165, 0.011793005280196667, 0.012187125161290169, 0.012581245973706245, 0.012975365854799747, 0.013369486667215824, 0.013763606548309326, 0.014157726429402828, 0.01455184631049633, 0.014945967122912407, 0.015340087004005909, 0.01573420688509941]}, "gradients/mlp_extractor.policy_net.0.weight": {"_type": "histogram", "values": [2.0, 1.0, 0.0, 1.0, 2.0, 1.0, 0.0, 1.0, 0.0, 0.0, 2.0, 3.0, 4.0, 5.0, 2.0, 8.0, 7.0, 10.0, 6.0, 10.0, 7.0, 45.0, 45.0, 13.0, 15.0, 8.0, 7.0, 4.0, 3.0, 3.0, 0.0, 4.0, 3.0, 6.0, 3.0, 1.0, 1.0, 4.0, 1.0, 2.0, 1.0, 0.0, 1.0, 0.0, 1.0, 1.0, 1.0, 1.0, 3.0, 0.0, 2.0, 0.0, 0.0, 1.0, 0.0, 1.0, 0.0, 1.0, 0.0, 0.0, 0.0, 0.0, 1.0, 1.0], "bins": [-0.0252639539539814, -0.024110540747642517, -0.022957125678658485, -0.021803710609674454, -0.02065029740333557, -0.01949688419699669, -0.018343469128012657, -0.017190054059028625, -0.016036640852689743, -0.014883226715028286, -0.013729812577366829, -0.012576398439705372, -0.011422984302043915, -0.010269570164382458, -0.009116156026721, -0.007962741889059544, -0.0068093277513980865, -0.0056559136137366295, -0.004502499476075172, -0.0033490853384137154, -0.0021956712007522583, -0.0010422570630908012, 0.00011115707457065582, 0.0012645712122321129, 0.00241798534989357, 0.003571399487555027, 0.004724813625216484, 0.005878227762877941, 0.007031641900539398, 0.008185056038200855, 0.009338470175862312, 0.01049188431352377, 0.011645302176475525, 0.012798716314136982, 0.013952130451798439, 0.015105544589459896, 0.016258958727121353, 0.017412371933460236, 0.018565787002444267, 0.0197192020714283, 0.02087261527776718, 0.022026028484106064, 0.023179443553090096, 0.024332858622074127, 0.02548627182841301, 0.026639685034751892, 0.027793100103735924, 0.028946515172719955, 0.030099928379058838, 0.03125334158539772, 0.0324067547917366, 0.033560171723365784, 0.034713584929704666, 0.03586699813604355, 0.03702041506767273, 0.03817382827401161, 0.039327241480350494, 0.04048065468668938, 0.04163406789302826, 0.04278748482465744, 0.04394089803099632, 0.045094311237335205, 0.046247728168964386, 0.04740114137530327, 0.04855455458164215]}, "global_step": 26624, "rollout/ep_len_mean": 192.1300048828125, "rollout/ep_rew_mean": 192.1300048828125, "time/fps": 626.0, "train/approx_kl": 0.007378517650067806, "train/clip_fraction": 0.04863281175494194, "train/clip_range": 0.20000000298023224, "train/entropy_loss": -0.5338613986968994, "train/explained_variance": 0.9481316208839417, "train/learning_rate": 0.0003000000142492354, "train/loss": 1.1158307790756226, "train/policy_gradient_loss": -0.003700029104948044, "train/value_loss": 7.057823181152344, "_wandb": {"runtime": 49}}